tree
version=v4
num_class=1
num_tree_per_iteration=1
label_index=0
max_feature_idx=77
objective=regression_l1
feature_names=passE_0 passE_1 passE_2 passE_3 passE_4 passE_5 passE_6 passE_7 passE_8 passE_9 passE_10 passE_11 passE_12 passE_13 passE_14 passE_15 passE_16 passE_17 passE_18 passE_19 passE_20 passE_21 passE_22 passE_23 passE_24 passE_25 passE_26 passE_27 passE_28 passE_29 passE_30 passE_31 passE_32 passE_33 passE_34 passE_35 passE_36 passE_37 passE_38 passE_39 passE_40 passE_41 passE_42 passE_43 passE_44 passE_45 passE_46 passE_47 passE_48 passE_49 passE_50 passE_51 passE_52 passE_53 passE_54 passE_55 passE_56 passE_57 passE_58 passE_59 passE_60 passE_61 passE_62 passE_63 position posteam opponent home_indicator season week history_length roof surface is_dome temp_effective wind_effective precip_3h_mm precip_available
feature_infos=none none [0.35449928045272827:105.62667846679688] [6.1462397575378418:169.23695373535156] none none [9.6425333023071289:181.34333801269531] none [2.3394408226013184:101.18753051757812] none none [9.6382656097412109:141.24623107910156] none [13.575679779052734:174.0633544921875] none [4.166083812713623:115.82958221435547] none none [8.5854978561401367:155.30177307128906] none none [2.8661148548126221:117.82731628417969] [18.60228157043457:207.52188110351562] none [4.7822909355163574:128.00466918945312] [14.73360538482666:226.93319702148438] none [8.4164772033691406:116.27154541015625] none [1.324769139289856:101.25462341308594] none [1.436490535736084:70.092643737792969] none none none none none [6.0181779861450195:106.22605133056641] [0:5.3514008522033691] [4.579801082611084:84.172660827636719] [6.5934200286865234:114.84986877441406] none none [12.021876335144043:166.59457397460938] [15.916166305541992:190.68113708496094] [1.6124129295349121:122.47137451171875] none [0.96848827600479126:95.474838256835938] [11.270721435546875:152.99563598632812] [3.986198902130127:71.615623474121094] none [5.5669097900390625:67.73565673828125] [9.7220745086669922:169.76445007324219] none none none [3.8376967906951904:106.86387634277344] [5.2978019714355469:114.43248748779297] [9.1267175674438477:137.56704711914062] [0:25.167943954467773] none none [8.7381086349487305:148.70248413085938] [7.0200023651123047:126.74534606933594] -1:5:8:4:6:7:0 -1:22:19:28:15:3:30:16:2:23:8:20:6:21:12:25:4:7:24:29:0:26:31:5:10:11:9:14:13:17:18:1:27 -1:17:29:15:28:6:8:25:2:30:1:11:24:7:20:3:21:23:26:12:16:13:14:19:31:4:22:10:27:9:5:18:0 [0:1] [2019:2022] [1:22] [0:6] -1:2:1:0 -1:1:0 [0:1] [-1.8400000333786011:93.019996643066406] [0:120.79454040527344] [0:20.899999618530273] none
tree_sizes=1439 1687 1565 1664 1569 1667 1501 1594 1689 1671 1508 1663 1673 1677 1673 1661 1517 1657 1592 1659 1685 1581 1672 1579 1760 1616 1663 1606 1773 1672 1691 1667 1757 1754 1583 1567 1578 1685 1673 1506 1595 1596 1690 1671 1643 1601 1698 1531 1601 1599 1599 1612

Tree=0
num_leaves=16
num_cat=4
split_feature=31 21 66 63 64 66 75 66 58 74 24 59 49 74 67
split_gain=374.158 69.521 24.5586 17.0696 16.1155 13.9071 10.0209 8.60909 7.08368 6.4308 5.12702 4.53009 4.24937 4.97934 1.8683
threshold=37.086643218994148 79.203090667724624 0 95.061595916748061 1 2 22.928594589233402 3 86.447708129882827 68.630001068115249 104.06018829345705 17.215930938720707 29.980175971984867 56.209999084472663 1.0000000180025095e-35
decision_type=2 2 1 2 9 1 2 1 2 2 2 2 2 2 2
left_child=4 2 8 7 12 14 -4 -3 -2 11 -7 -9 13 -1 -5
right_child=1 3 6 5 -6 10 -8 9 -10 -11 -12 -13 -14 -15 -16
leaf_value=205.34999999999999 213.42500000000001 212.97499999999999 212.80000000000001 215.19999999999999 202.34999999999999 215.72499999999999 211.27500000000001 214.5 214.09999999999999 215.57499999999999 217.19999999999999 213.30000000000001 211.05000000000001 207.30000000000001 214.67500000000001
leaf_weight=107 192 100 163 102 193 196 138 112 114 136 131 117 146 150 100
leaf_count=107 192 100 163 102 193 196 138 112 114 136 131 117 146 150 100
internal_value=213 213.012 212.999 213.02 212.966 213.026 212.989 213.013 213.009 213.017 213.033 213.012 212.974 212.969 213.014
internal_weight=2197 1601 607 994 596 529 301 465 306 365 327 229 403 257 202
internal_count=2197 1601 607 994 596 529 301 465 306 365 327 229 403 257 202
cat_boundaries=0 1 2 3 4
cat_threshold=1770429891 32 540214182 4276816
is_linear=0
shrinkage=1


Tree=1
num_leaves=18
num_cat=3
split_feature=31 31 65 29 65 75 69 69 69 40 37 65 74 39 75 39 74
split_gain=349.829 66.2835 38.6828 19.1857 14.8623 8.65941 6.62638 6.31897 5.11359 5.53848 4.94392 4.62038 5.53197 4.07101 1.96758 3.12628 0.362739
threshold=37.086643218994148 47.300909042358406 0 37.190143585205085 1 25.836610794067386 10.500000000000002 9.5000000000000018 5.5000000000000009 32.301900863647468 80.60330963134767 2 58.729999542236335 59.999002456665046 9.5069780349731463 69.823532104492202 53.329999923706062
decision_type=2 2 1 2 1 2 2 2 2 2 2 1 2 2 2 2 2
left_child=3 4 11 8 6 7 -2 -6 -1 16 13 -3 -13 -4 -12 -16 -10
right_child=1 2 10 -5 5 -7 -8 -9 9 -11 14 12 -14 -15 15 -17 -18
leaf_value=-8.3424999999999994 -0.46375000000000033 -0.18624999999999972 2.9712500000000008 -1.3100000000000003 1.8099999999999996 -0.71375000000000033 -1.9549999999999998 0.16937499999999944 -9.7925000000000004 -7.7025000000000006 3.04 1.5224999999999995 0.084999999999999437 1.7750000000000001 2.9637500000000006 2.7900000000000009 -9.8412500000000005
leaf_weight=122 113 109 100 132 110 147 105 120 124 105 130 104 113 169 171 113 110
leaf_count=122 113 109 100 132 110 147 105 120 124 105 130 104 113 169 171 113 110
internal_value=-0.000659991 0.0114713 0.0192765 -0.0334739 -0.00176471 0.00426357 -0.0118421 0.0104348 -0.0382863 -0.0414454 0.0259019 0.00446429 0.00859031 0.0210037 0.0297101 0.0320423 -0.0457265
internal_weight=2197 1604 1009 593 595 377 218 230 461 339 683 326 217 269 414 284 234
internal_count=2197 1604 1009 593 595 377 218 230 461 339 683 326 217 269 414 284 234
cat_boundaries=0 1 2 3
cat_threshold=3601343157 29896726 2155872900
is_linear=0
shrinkage=0.05


Tree=2
num_leaves=17
num_cat=7
split_feature=51 65 66 64 31 45 66 67 68 65 63 65 65 39 67 29
split_gain=311.001 68.5955 35.809 22.3868 19.7976 13.0114 10.2992 10.2199 9.04709 8.1446 7.51991 5.27985 3.22829 3.21686 2.77712 2.43165
threshold=35.689308166503913 0 1 2 47.720371246337898 78.349975585937514 3 1.0000000180025095e-35 2019.5000000000002 4 37.72441482543946 5 6 65.496772766113295 1.0000000180025095e-35 77.213367462158217
decision_type=2 1 1 9 2 2 1 2 2 1 2 1 1 2 2 2
left_child=3 4 9 8 -2 7 13 -4 -1 -3 -10 -7 -8 -6 -13 -14
right_child=1 2 5 -5 6 11 12 -9 10 -11 -12 14 15 -15 -16 -17
leaf_value=-1.4278750000000002 0.62650000000000006 -1.27821875 0.6765000000000001 -9.6254375000000003 3.27028125 0.86210937500000007 2.8726875000000009 -0.6380625000000002 -7.9866562500000002 -0.68012499999999965 -1.933437500000001 1.0535000000000003 1.6862499999999998 4.0168125000000003 2.7635937500000005 1.088000000000001
leaf_weight=109 167 118 123 181 100 112 109 112 122 198 144 112 119 128 110 111
leaf_count=109 167 118 123 181 100 112 109 112 122 198 144 112 119 128 110 111
internal_value=6.89655e-05 0.0111489 0.00162011 -0.0321942 0.0223118 0.00906736 0.0270723 0.000212766 -0.022987 -0.0116564 -0.0285714 0.0155689 0.019341 0.0361345 0.0198276 0.0141667
internal_weight=2175 1619 885 556 734 569 567 235 375 316 266 334 339 228 222 230
internal_count=2175 1619 885 556 734 569 567 235 375 316 266 334 339 228 222 230
cat_boundaries=0 1 2 3 4 5 6 7
cat_threshold=941067594 845349688 32 1250489944 3229638692 13107380 537035776
is_linear=0
shrinkage=0.05


Tree=3
num_leaves=18
num_cat=6
split_feature=31 65 64 66 31 74 66 66 68 68 2 66 22 57 69 58 43
split_gain=292.568 66.1041 32.1642 30.6878 17.0695 12.1062 11.6911 10.2153 8.7693 8.05633 7.63056 4.04864 3.64744 3.63911 3.50953 2.75695 0.694075
threshold=37.086643218994148 0 1 2 47.300909042358406 70.250000000000014 3 4 2020.5000000000002 2019.5000000000002 28.598042488098148 5 145.31106567382815 86.802928924560561 9.5000000000000018 90.301544189453139 137.59389495849612
decision_type=2 1 9 1 2 2 1 1 2 2 2 1 2 2 2 2 2
left_child=2 6 9 4 11 7 14 12 -6 -1 -11 -3 -5 -8 -2 -9 -15
right_child=1 3 -4 5 8 -7 13 15 -10 10 -12 -13 -14 16 -16 -17 -18
leaf_value=-1.3762312500000009 1.9981875000000002 -0.8748632812499999 -9.1441656249999994 -0.21867968750000133 1.2961999999999989 2.0244164062499999 2.0129234374999996 0.55840312499999956 -0.31285624999999939 -6.7647921874999994 -2.0529937500000002 -1.7940562499999999 0.89692500000000031 3.2931874999999993 0.83360000000000134 1.510909375 2.8703156250000008
leaf_weight=102 103 110 189 133 129 112 121 101 114 132 169 119 100 115 107 155 100
leaf_count=102 103 110 189 133 129 112 121 101 114 132 169 119 100 115 107 155 100
internal_value=-0.000158299 0.01084 -0.0302365 0.0034626 -0.0060166 0.0108838 0.0248201 0.00766871 0.00308642 -0.02046 -0.0250831 -0.0159389 -0.000205761 0.0312139 0.0136364 0.0142857 0.0360465
internal_weight=2211 1619 592 1073 472 601 546 489 243 403 301 229 233 336 210 256 215
internal_count=2211 1619 592 1073 472 601 546 489 243 403 301 229 233 336 210 256 215
cat_boundaries=0 1 2 3 4 5 6
cat_threshold=538413378 32 308372412 2222786612 2777317378 6308500
is_linear=0
shrinkage=0.05


Tree=4
num_leaves=17
num_cat=9
split_feature=31 51 65 64 66 69 58 74 21 66 69 65 65 66 65 72
split_gain=283.582 72.4064 32.726 30.6487 24.5033 11.2779 11.7298 10.5495 10.7577 10.4487 7.28371 7.03344 4.2112 5.49177 2.83014 1.66563
threshold=37.086643218994148 50.955646514892585 0 1 2 4.5000000000000009 36.160739898681648 67.099998474121108 79.886920928955092 3 5.5000000000000009 4 5 6 7 8
decision_type=2 2 1 9 1 2 2 2 2 1 2 1 1 1 1 1
left_child=3 2 4 5 11 -1 -7 8 -4 15 -6 -2 -11 -14 -12 -3
right_child=1 9 7 -5 10 6 -8 -9 -10 12 14 -13 13 -15 -16 -17
leaf_value=-0.79899050781249992 0.91361378906250157 3.024711640625001 -0.37108714843750051 -8.6869573437500005 -0.1398837499999985 -7.375302578124999 -3.1450628125000004 1.8225288281250003 1.2597124999999991 2.9088740625000002 -0.49941289062499977 -0.060829023437499789 0.25049882812500146 1.9242259375000004 -1.8809562304687504 2.4500625000000014
leaf_weight=100 106 110 134 190 117 126 190 195 126 108 111 102 106 151 166 101
leaf_count=100 106 110 134 190 117 126 190 195 126 108 111 102 106 151 166 101
internal_value=-0.00131755 0.00952235 0.00175024 -0.0305281 -0.00588235 -0.0211268 -0.0262658 0.0117204 0.00538462 0.0237847 -0.0131188 0.00779817 0.0169333 0.0121723 -0.01787 0.0332579
internal_weight=2239 1633 1057 606 602 416 316 455 260 576 394 208 365 257 277 211
internal_count=2239 1633 1057 606 602 416 316 455 260 576 394 208 365 257 277 211
cat_boundaries=0 1 2 3 4 5 6 7 8 9
cat_threshold=3320328886 32 1619303617 1519146049 1078468660 537034754 605028764 78119552 2
is_linear=0
shrinkage=0.05


Tree=5
num_leaves=18
num_cat=7
split_feature=31 65 66 64 45 66 66 69 13 59 74 66 65 70 69 8 74
split_gain=267.716 58.7044 36.5399 33.9397 22.8162 10.7838 9.27928 8.47667 7.34181 6.72787 6.67515 6.19431 4.85861 4.53097 3.39214 4.04322 3.33538
threshold=37.086643218994148 0 1 2 89.768272399902358 3 4 13.500000000000002 112.71493911743165 7.592393398284913 68.630001068115249 5 6 1.5000000000000002 6.5000000000000009 81.34051895141603 66.109996795654311
decision_type=2 1 1 9 2 1 1 2 2 2 2 1 1 2 2 2 2
left_child=3 2 11 9 5 -3 -6 10 -7 13 -4 -2 -13 -1 -8 -16 -10
right_child=1 4 7 -5 6 8 14 -9 16 -11 -12 12 -14 -15 15 -17 -18
leaf_value=-3.9165999492187495 -1.8133423749999993 -0.2366180039062499 0.51014007714843579 -8.2526094765624993 0.88510885937499928 0.4975702792968747 2.8700800312499997 -0.34016288671875117 1.0150616318359369 -1.5772870371093752 1.6329143828124999 0.091575635253906287 -0.82187165673828066 -7.1165999492187497 2.1887490625000008 3.4438729218750015 1.9364730507812498
leaf_weight=113 115 101 158 189 107 105 119 111 100 176 110 100 118 113 152 115 107
leaf_count=113 115 101 158 189 107 105 119 111 100 176 110 100 118 113 152 115 107
internal_value=-0.00106383 0.00945612 -0.00138504 -0.0298646 0.0177948 0.00932203 0.0252535 0.00912596 0.0136646 -0.0199029 0.0141791 -0.0132653 -0.00745614 -0.0261062 0.0287879 0.0264045 0.0195652
internal_weight=2209 1618 712 591 906 413 493 379 312 402 268 333 218 226 386 267 207
internal_count=2209 1618 712 591 906 413 493 379 312 402 268 333 218 226 386 267 207
cat_boundaries=0 1 2 3 4 5 6 7
cat_threshold=3349701300 304865598 32 369115796 6818084 270729224 1107837588
is_linear=0
shrinkage=0.05


Tree=6
num_leaves=16
num_cat=5
split_feature=48 65 64 66 66 31 69 68 59 45 69 58 65 48 74
split_gain=247.514 53.9068 35.3017 32.9797 18.6223 12.6673 7.5219 7.14306 8.81264 6.64508 5.20627 3.6832 3.42269 1.92906 1.79598
threshold=78.455390930175795 0 1 2 3 47.61889839172364 5.5000000000000009 2019.5000000000002 5.554962396621705 91.758464813232436 5.5000000000000009 90.858581542968764 4 122.30173110961915 48.650001525878913
decision_type=2 1 9 1 1 2 2 2 2 2 2 2 1 2 2
left_child=2 3 7 11 9 -6 -5 -1 -9 -3 -7 -2 -8 -12 -14
right_child=1 4 -4 6 5 10 12 8 -10 -11 13 -13 14 -15 -16
leaf_value=-1.5279808102539065 0.33525465043945246 0.21032803105468789 -7.8399790027343741 0.096185368749999611 1.0613275258300789 3.4290197132812494 -0.2176146288818373 -6.1157074517578129 -2.4515609450195317 1.3085696039062498 2.62671602734375 1.2232458666381831 -1.134156015820311 2.2827143656250017 -1.365185240185548
leaf_weight=109 171 175 169 123 125 110 102 107 163 151 177 176 103 119 105
leaf_count=109 171 175 169 123 125 110 102 107 163 151 177 176 103 119 105
internal_value=0.000800915 0.0105376 -0.0282847 0.000886076 0.0190888 0.0250462 -0.00823928 -0.0181234 -0.022963 0.00892857 0.029803 0.0121849 -0.0125806 0.0263514 -0.016055
internal_weight=2185 1637 548 780 857 531 433 379 270 326 406 347 310 296 208
internal_count=2185 1637 548 780 857 531 433 379 270 326 406 347 310 296 208
cat_boundaries=0 1 2 3 4 5
cat_threshold=3353895604 32 1637621345 2975924916 1178615808
is_linear=0
shrinkage=0.05


Tree=7
num_leaves=17
num_cat=4
split_feature=11 65 64 31 74 65 3 49 65 69 47 31 75 45 69 75
split_gain=240.083 45.1401 34.0086 20.9088 9.49622 13.4313 6.78342 8.77765 9.72086 5.33512 8.36814 4.57145 2.76976 2.38474 3.00663 2.27689
threshold=72.847919464111342 0 1 47.61889839172364 68.630001068115249 2 117.28893661499025 43.370677947998054 3 5.5000000000000009 26.2037467956543 52.782365798950202 14.875624656677248 89.902679443359389 5.5000000000000009 19.125802993774418
decision_type=2 1 9 2 2 1 2 2 1 2 2 2 2 2 2 2
left_child=2 3 9 -2 6 -6 7 -3 -9 -1 -11 -8 -7 -5 -15 -16
right_child=1 4 -4 13 5 12 11 8 -10 10 -12 -13 -14 14 15 -17
leaf_value=-1.7078631123730474 0.16174426807617126 0.19548971757690625 -7.4479800525976563 1.2370362199804661 -0.47135042520019682 0.75225885722534125 1.0636669518801873 -1.6868502975976569 -0.25559672878662243 -6.5574845791699223 -1.5342781545068378 -0.21804526342132677 1.7303471761355589 2.641814440117189 2.1316892703222652 1.8901758948046876
leaf_weight=102 167 101 181 167 107 105 126 107 153 141 121 100 102 103 169 153
leaf_count=102 167 101 181 167 107 105 126 107 153 141 121 100 102 103 169 153
internal_value=-0.000839002 0.00861446 -0.029633 0.0174902 0.000933041 0.00796178 -0.0028109 -0.00706371 -0.0119231 -0.018984 -0.0232824 0.0039823 0.014977 0.0221284 0.0241176 0.0217391
internal_weight=2205 1660 545 759 901 314 587 361 260 364 262 226 207 592 425 322
internal_count=2205 1660 545 759 901 314 587 361 260 364 262 226 207 592 425 322
cat_boundaries=0 1 2 3 4
cat_threshold=941067587 32 2156404896 27267596
is_linear=0
shrinkage=0.05


Tree=8
num_leaves=18
num_cat=5
split_feature=40 40 66 65 65 69 69 59 75 68 66 66 63 43 69 59 75
split_gain=262.364 54.718 28.9641 19.3752 16.1266 12.2947 8.22939 11.6265 7.92169 7.10843 6.18828 4.92844 4.63246 1.94747 0.999581 0.687813 0.481196
threshold=48.31933784484864 84.394969940185561 0 1 2 9.5000000000000018 5.5000000000000009 5.554962396621705 28.073547363281254 2020.5000000000002 3 4 81.693008422851577 131.12171936035159 9.5000000000000018 16.476099967956547 21.810125350952152
decision_type=2 2 1 1 1 2 2 2 2 2 1 1 2 2 2 2 2
left_child=6 2 8 12 13 15 -1 16 11 -6 -7 -2 -4 -3 -15 -5 -8
right_child=1 4 3 5 9 10 7 -9 -10 -11 -12 -13 -14 14 -16 -17 -18
leaf_value=-6.171768357384277 0.13044220202310228 2.7973842156374524 -1.22136783368979 1.5631353890260629 1.7314855531323858 -0.6291676681132814 -6.7780185499677748 -5.3271228884389652 -1.2618402190703137 0.17353399310751386 0.69716631798779294 -0.67939036506518569 0.55103469842236164 2.1961124478444822 1.8028023096347683 1.1142490640872731 -7.0755810499677736
leaf_weight=123 102 120 190 104 189 105 122 124 142 136 118 104 143 104 107 100 110
leaf_count=123 102 120 190 104 189 105 122 124 142 136 118 104 143 104 107 100 110
internal_value=-0.000691039 0.00821995 0.00144404 0.00688312 0.0196646 0.0138444 -0.0335073 -0.0373596 -0.0103352 0.010597 0.00605381 -0.00436893 -0.00218659 0.0274194 0.0253555 0.0230392 -0.0439655
internal_weight=2243 1764 1108 760 656 427 479 356 348 325 223 206 333 331 211 204 232
internal_count=2243 1764 1108 760 656 427 479 356 348 325 223 206 333 331 211 204 232
cat_boundaries=0 1 2 3 4 5
cat_threshold=2518696728 2380857454 738689096 541146116 2516598784
is_linear=0
shrinkage=0.05


Tree=9
num_leaves=18
num_cat=7
split_feature=29 65 64 66 48 66 74 70 47 65 65 69 45 69 65 47 74
split_gain=236.252 45.6304 30.7167 30.6323 21.4598 15.3798 10.8521 8.34783 6.81608 7.04734 5.81833 8.87624 8.12868 4.56744 5.59253 2.23018 1.82724
threshold=36.39140701293946 0 1 2 104.24878311157228 3 56.029998779296882 1.5000000000000002 58.891227722167976 4 5 9.5000000000000018 78.349975585937514 5.5000000000000009 6 73.605205535888686 65.570003509521499
decision_type=2 1 9 1 2 1 2 2 2 1 1 2 2 2 1 2 2
left_child=2 4 7 10 6 16 -2 -1 -5 -10 12 -12 -3 -7 -15 -16 -6
right_child=1 3 -4 8 5 13 -8 -9 9 -11 11 -13 -14 14 15 -17 -18
leaf_value=-2.6283885247459007 -1.4487308326332156 -0.54709522969633539 -6.7218019974693846 -1.434333386970235 0.14452244787633078 2.3620383780867784 0.86201548101503822 -5.2494299012644525 0.4143263323566444 -0.82342159187192443 1.410949873164421 0.42653641545436899 0.7588067509107731 0.93559465618923243 2.7434056332270922 2.1770947453119653 1.4113748155990202
leaf_weight=138 106 116 190 165 101 104 161 138 100 164 107 105 101 119 116 110 100
leaf_count=138 106 116 190 165 101 104 161 138 100 164 107 105 101 119 116 110 100
internal_value=-0.000290049 0.00802817 -0.0319742 -0.000345622 0.0156958 0.0207692 0.00393258 -0.0188811 -0.00968109 -0.00492424 0.00899772 0.0148649 0.00286344 0.025817 0.0236232 0.0283898 0.00781991
internal_weight=2241 1775 466 858 917 650 267 276 429 264 429 212 217 449 345 226 201
internal_count=2241 1775 466 858 917 650 267 276 429 264 429 212 217 449 345 226 201
cat_boundaries=0 1 2 3 4 5 6 7
cat_threshold=957848905 32 1763482727 2690711988 71852034 3303014944 135267593
is_linear=0
shrinkage=0.05


Tree=10
num_leaves=16
num_cat=5
split_feature=48 51 64 66 66 69 24 66 59 45 72 70 75 69 59
split_gain=186.789 46.6099 42.7887 28.0857 20.6574 19.1275 11.8662 10.3591 9.88624 5.69061 4.37692 4.0776 3.07401 3.03918 1.85841
threshold=63.978551864624031 49.758750915527351 0 1 2 3.5000000000000004 81.398887634277358 3 16.981952667236332 75.54346084594728 4 1.0000000180025095e-35 25.612916946411136 7.5000000000000009 19.21569919586182
decision_type=2 2 9 1 1 2 2 1 2 2 1 2 2 2 2
left_child=2 3 11 9 12 -5 7 -7 10 -2 -8 -1 -3 -6 -15
right_child=1 4 -4 5 13 6 8 -9 -10 -11 -12 -13 -14 14 -16
leaf_value=-2.3790322586853501 -1.4288468215648564 1.3370788361286416 -6.3857118975959155 1.4930562021849063 2.2621152992092548 -1.3658789056169569 0.85386481517202817 0.16410887347347369 -0.099033340774268203 -0.32262897554228975 1.4775185644431277 -4.3986436693564928 0.27643160826850849 1.2730325989493494 2.6476112735461488
leaf_weight=100 134 191 176 124 144 108 104 183 110 198 101 190 133 113 102
leaf_count=100 134 191 176 124 144 108 104 183 110 198 101 190 133 113 102
internal_value=-0.000203528 0.00730659 -0.0283262 0.000753296 0.0174963 0.00621622 0.00264026 -0.00463918 0.00936508 -0.0111111 0.0158537 -0.0146667 0.00748503 0.0256098 0.0225581
internal_weight=2211 1745 466 1062 683 730 606 291 315 332 205 290 324 359 215
internal_count=2211 1745 466 1062 683 730 606 291 315 332 205 290 324 359 215
cat_boundaries=0 1 2 3 4 5
cat_threshold=32 2455782168 842116020 8989701 2
is_linear=0
shrinkage=0.05


Tree=11
num_leaves=18
num_cat=7
split_feature=22 65 64 66 69 66 57 75 65 74 38 65 66 58 29 59 69
split_gain=192.927 43.2461 39.1074 25.3513 19.6925 13.1296 15.1926 10.8815 8.66597 8.36719 8.23515 8.05589 7.81448 3.07309 2.5212 2.42 1.77109
threshold=87.78397369384767 0 1 2 13.500000000000002 3 78.020343780517592 29.415708541870121 4 67.639999389648452 1.230833947658539 5 6 104.19999313354494 65.55222320556642 17.066696166992191 10.500000000000002
decision_type=2 1 9 1 2 1 2 2 1 2 2 1 1 2 2 2 2
left_child=2 5 10 7 9 11 -7 8 -3 12 -1 -2 -5 -8 -10 -11 -15
right_child=1 3 -4 4 -6 6 13 -9 14 15 -12 -13 -14 16 -16 -17 -18
leaf_value=-4.4282972523031843 1.181036533554034 0.42184969465533728 -6.0664263027161205 0.89573216170194747 -0.36703222255208773 0.4186921992124667 2.4960224923443195 -1.1339021087985166 -1.3166513571682459 0.84547114886746477 -1.0019571975088943 -0.30487653751963251 -0.087827841733565046 2.124982616476236 -0.42814427270442651 2.411470796117209 1.4714268932101249
leaf_weight=184 107 109 182 106 184 123 104 156 100 100 100 113 119 124 111 100 101
leaf_count=184 107 109 182 106 184 123 104 156 100 100 100 113 119 124 111 100 101
internal_value=-0.00101215 0.00657371 -0.0296137 0.000319635 0.00702746 0.0164223 0.0214286 -0.00823045 -0.003125 0.0130588 -0.0159864 0.00565217 0.00644444 0.0275076 -0.00882353 0.0205 0.0242222
internal_weight=2223 1757 466 1085 609 672 452 476 320 425 284 220 225 329 211 200 225
internal_count=2223 1757 466 1085 609 672 452 476 320 425 284 220 225 329 211 200 225
cat_boundaries=0 1 2 3 4 5 6 7
cat_threshold=805804361 32 909337368 2690722356 226509840 301312 1233125572
is_linear=0
shrinkage=0.05


Tree=12
num_leaves=18
num_cat=8
split_feature=18 64 49 66 66 74 66 70 69 66 66 59 68 66 68 59 66
split_gain=198.178 51.6442 26.3546 17.176 17.0296 10.7754 10.494 6.39069 5.41229 5.53163 5.32903 4.63373 4.57392 3.22266 8.03803 2.32317 2.04788
threshold=79.133762359619155 0 50.121770858764656 1 2 69.990001678466811 3 2.5000000000000004 8.5000000000000018 4 5 15.907815456390383 2020.5000000000002 6 2020.5000000000002 18.814239501953129 7
decision_type=2 9 2 1 1 2 1 2 2 1 1 2 2 1 2 2 1
left_child=1 6 4 13 11 10 -1 -8 -6 -10 -5 16 -12 -4 -15 -7 -2
right_child=2 -3 3 5 8 15 7 -9 9 -11 12 -13 -14 14 -16 -17 -18
leaf_value=-0.098816630039269174 1.6172008027803457 -5.7631049875803138 -0.22668520715809282 1.3846482076829418 0.02334547058248404 1.7120061872804897 -2.3722250480852454 -4.0298382705685327 -0.02073776202899609 -1.298302501635493 1.9653948850817038 -0.024970179838896912 0.17788087682438061 1.1169473439258695 -0.063690917675754119 2.37962428622459 0.57459570569237861
leaf_weight=105 105 189 107 100 145 123 111 160 103 121 138 104 112 135 128 108 118
leaf_count=105 105 189 107 100 145 123 111 160 103 121 138 104 112 135 128 108 118
internal_value=-0.00108499 -0.0266372 0.00768063 0.0130915 0.000287356 0.0183587 -0.0145078 -0.0197509 -0.00699208 -0.0120536 0.0131429 0.00845697 0.00807692 0.00421053 0.00714286 0.0270563 0.0127803
internal_weight=2212 565 1647 951 696 581 376 271 369 224 350 327 250 370 263 231 223
internal_count=2212 565 1647 951 696 581 376 271 369 224 350 327 250 370 263 231 223
cat_boundaries=0 1 2 3 4 5 6 7 8
cat_threshold=32 639832884 1773327363 151523521 2449476048 1358970944 606142464 1628476416
is_linear=0
shrinkage=0.05


Tree=13
num_leaves=18
num_cat=9
split_feature=64 63 65 69 40 66 66 66 65 74 65 65 67 59 21 65 8
split_gain=188.903 49.7283 33.4725 20.1031 24.3084 17.5398 15.5966 15.3724 10.5216 6.35561 5.02173 4.53981 3.16251 2.41667 2.04465 1.76322 0.997699
threshold=0 81.693008422851577 1 3.5000000000000004 33.371297836303718 2 3 4 5 56.389999389648445 6 7 1.0000000180025095e-35 19.21569919586182 66.709270477294936 8 56.581590652465827
decision_type=9 2 1 2 2 1 1 1 1 2 1 1 2 2 2 1 2
left_child=1 3 6 -1 -5 10 11 14 -9 -7 -4 -3 -13 15 -6 -8 -10
right_child=-2 2 5 4 7 9 13 8 16 -11 -12 12 -14 -15 -16 -17 -18
leaf_value=0.77375359257222565 -5.4749497382012979 0.034567280515164354 -0.17109391782647237 -5.0461324360663715 0.6312609603549163 0.089439592317334171 0.88131986400375273 0.13753061280525289 -3.9628487467157707 0.92971363577953392 -1.1732845327864951 0.88656117479229124 1.4683667800005111 2.2744816119736555 0.024386174755565551 2.3496020799408157 -0.97415070538497384
leaf_weight=163 191 118 105 134 106 124 112 103 100 142 112 117 107 138 103 122 106
leaf_count=163 191 118 105 134 106 124 112 103 100 142 112 117 107 138 103 122 106
internal_value=-0.00129369 0.00331355 0.00981621 -0.00619632 -0.0101227 -0.000507099 0.0165746 -0.00521236 -0.012069 0.00797101 -0.010793 0.00823864 0.0123932 0.023822 0.00525114 0.0213675 -0.0185185
internal_weight=2203 2012 1197 815 652 483 714 518 309 266 217 342 224 372 209 234 206
internal_count=2203 2012 1197 815 652 483 714 518 309 266 217 342 224 372 209 234 206
cat_boundaries=0 1 2 3 4 5 6 7 8 9
cat_threshold=32 941603914 843293214 2270512054 3911356550 1191723520 1077936529 269232136 403776512
is_linear=0
shrinkage=0.05


Tree=14
num_leaves=18
num_cat=7
split_feature=64 21 66 65 65 66 74 74 59 66 59 66 68 75 69 68 59
split_gain=200.618 61.6295 22.9044 18.203 14.2932 12.1212 10.6207 9.51124 8.12572 11.4025 7.63716 7.36891 6.74979 4.22115 3.46104 4.54904 3.4386
threshold=0 79.08329010009767 1 2 3 4 48.650001525878913 68.81000137329103 7.7963171005249032 5 17.46666240692139 6 2020.5000000000002 22.257513046264652 5.5000000000000009 2020.5000000000002 18.430469512939457
decision_type=9 2 1 1 1 1 2 2 2 1 2 1 2 2 2 2 2
left_child=1 2 6 7 11 16 -1 10 -6 -10 -3 -4 -8 -13 -7 -16 -5
right_child=-2 3 4 5 8 14 12 -9 9 -11 -12 13 -14 -15 15 -17 -18
leaf_value=-1.0358649194239078 -5.2012022512912326 0.34083365786007253 -1.1393441405776146 1.1469532847870554 -4.7938258142630534 2.626448093548416 1.6200673515075465 1.1010431863257579 0.017777074193683972 -1.726987402479299 -0.56253029314069358 1.1498764922360807 0.39459242688353841 -0.66726071743977688 2.5840479704414747 1.0598687937283082 0.081387823104608972
leaf_weight=108 195 102 109 114 112 111 109 115 101 162 129 106 123 100 160 166 114
leaf_count=108 195 102 109 114 112 111 109 115 101 162 129 106 123 100 160 166 114
internal_value=-0.000402504 0.00431497 -0.00427184 0.0131058 -0.00942857 0.0178519 0.00628571 0.00337079 -0.015974 -0.011597 -0.00238095 -0.00138462 0.0125 0.00416667 0.0229306 0.0208589 0.00756303
internal_weight=2236 2041 1030 1011 690 665 340 346 375 263 231 315 232 206 437 326 228
internal_count=2236 2041 1030 1011 690 665 340 346 375 263 231 315 232 206 437 326 228
cat_boundaries=0 1 2 3 4 5 6 7
cat_threshold=32 1233474625 3668984485 2609988483 2691760692 604668288 268995360
is_linear=0
shrinkage=0.05


Tree=15
num_leaves=18
num_cat=10
split_feature=29 65 64 66 66 74 65 68 66 38 65 65 27 65 66 2 11
split_gain=192.716 39.694 31.6065 24.9807 17.2575 10.0442 8.20279 7.29684 7.14846 6.92441 5.2514 5.0608 4.81544 4.34706 2.54441 2.05342 2.03567
threshold=36.39140701293946 0 1 2 3 68.630001068115249 4 2021.5000000000002 5 3.0059686899185185 6 7 82.659317016601577 8 9 82.035476684570327 95.762351989746108
decision_type=2 1 9 1 1 2 1 2 1 2 1 1 2 1 1 2 2
left_child=2 4 9 10 13 7 -7 8 -5 -1 -3 -10 -6 -2 -15 -14 -12
right_child=1 3 -4 5 12 6 -8 -9 11 -11 16 -13 15 14 -16 -17 -18
leaf_value=-4.144471917738854 1.2898102012957666 -1.2944153577712669 -4.9435796387266713 1.787634955612154 0.84996196372437116 -0.063728035996699364 1.1397707153002237 -0.73833467519359464 -0.66383542717354382 -2.1343164740702534 -1.0474836624011012 0.23529846273719601 2.2309772049506074 0.62568165277537136 -0.24422711959209098 2.1091752690327477 -0.195993531992805
leaf_weight=175 121 114 181 113 108 103 184 135 101 101 100 142 100 103 101 128 102
leaf_count=175 121 114 181 113 108 103 184 135 101 101 100 142 100 103 101 128 102
internal_value=-0.0022604 0.00527066 -0.0311816 -0.000634058 0.0148286 0.00418782 0.0116725 -0.000101833 0.00365169 -0.0181818 -0.0122699 -0.0013834 0.0228324 0.0061194 0.00140187 0.0276316 -0.00660377
internal_weight=2212 1755 457 1094 661 778 287 491 356 276 316 243 336 325 204 228 202
internal_count=2212 1755 457 1094 661 778 287 491 356 276 316 243 336 325 204 228 202
cat_boundaries=0 1 2 3 4 5 6 7 8 9 10
cat_threshold=806849864 32 371392792 2809209780 3228041248 1228945408 2174754852 144712240 1540096 91226272
is_linear=0
shrinkage=0.05


Tree=16
num_leaves=16
num_cat=6
split_feature=64 45 69 66 66 21 59 68 67 74 66 66 18 69 66
split_gain=176.703 58.988 24.1389 22.7095 19.348 6.55583 5.75763 5.47351 8.72882 6.16676 4.60274 4.49155 6.88356 2.96139 6.52386
threshold=0 76.786926269531264 3.5000000000000004 1 2 79.886920928955092 9.6486167907714862 2020.5000000000002 1.0000000180025095e-35 69.990001678466811 3 4 79.133762359619155 11.500000000000002 5
decision_type=9 2 2 1 1 2 2 2 2 2 1 1 2 2 1
left_child=1 2 -1 7 11 -5 -6 9 -9 -3 -7 -4 -13 14 -12
right_child=-2 3 4 5 6 10 -8 8 -10 -11 13 12 -14 -15 -16
leaf_value=0.63278271027370758 -4.6964006567903374 1.4020219751967944 0.4532071692818434 -0.57304700504357198 -5.0390408243068059 -0.23145983658714187 -1.2898695620267675 0.2067150665954941 1.2739998617020925 2.7327328888547231 -0.16136672393954471 -2.9119056707850106 -0.070265988863839376 0.78310364636864449 1.0128845949536605
leaf_weight=156 187 181 100 122 102 116 195 161 142 115 112 100 125 158 124
leaf_count=156 187 181 100 122 102 116 195 161 142 115 112 100 125 158 124
internal_value=-0.00227687 0.00215453 -0.00861183 0.00897644 -0.0130225 0.00218069 -0.021987 0.0158456 0.0113861 0.0209459 0.00470588 -0.00402985 -0.00787234 0.00717822 0.00381356
internal_weight=2196 2009 778 1231 622 632 297 599 303 296 510 325 225 394 236
internal_count=2196 2009 778 1231 622 632 297 599 303 296 510 325 225 394 236
cat_boundaries=0 1 2 3 4 5 6
cat_threshold=32 1218247755 2839192743 539033856 151527552 306184752
is_linear=0
shrinkage=0.05


Tree=17
num_leaves=18
num_cat=10
split_feature=64 45 65 66 65 66 74 65 15 65 59 65 66 68 47 65 68
split_gain=181.783 53.6856 30.3496 25.5126 16.9599 12.9186 10.0017 8.25 7.43397 6.55851 6.18029 6.04265 6.02587 5.07742 3.0211 2.2093 0.898719
threshold=0 75.54346084594728 1 2 3 4 68.81000137329103 5 39.026132583618171 6 13.711696624755861 7 8 2020.5000000000002 66.040729522705092 9 2020.5000000000002
decision_type=9 2 1 1 1 1 2 1 2 1 2 1 1 2 2 1 2
left_child=1 4 5 11 12 9 7 -5 -6 -3 -10 -4 -1 -7 -13 -9 -14
right_child=-2 2 3 6 8 13 -8 15 10 -11 -12 14 16 -15 -16 -17 -18
leaf_value=-1.2708310873359281 -4.4615806239508213 2.0139278208604297 0.18017722339270181 0.15498504333280394 -4.3931017961593666 2.9166983391128714 0.3469032554810923 -1.5823243730255634 -0.49477409210049861 -0.055820098960975888 -1.5371768176110494 1.2345377091516427 0.74602532667704369 1.1364625952805427 1.3189583375679661 -0.44900062766344323 0.083152706580349192
leaf_weight=111 192 108 102 108 139 125 134 102 144 109 133 110 102 118 130 144 109
leaf_count=111 192 108 102 108 139 125 134 102 144 109 133 110 102 118 130 144 109
internal_value=-0.0022973 0.00220805 0.00837209 0.0025 -0.00853659 0.0185106 -0.00481928 -0.00932203 -0.0150235 0.00859031 -0.0106498 0.0127841 0.000301205 0.0266798 0.0172 -0.0140625 0.00520362
internal_weight=2220 2028 1290 830 738 460 488 354 416 217 277 342 322 243 240 246 211
internal_count=2220 2028 1290 830 738 460 488 354 416 217 277 342 322 243 240 246 211
cat_boundaries=0 1 2 3 4 5 6 7 8 9 10
cat_threshold=32 537892098 1239178304 504651665 1382482516 247465984 537100288 39870592 2017568768 1090519621
is_linear=0
shrinkage=0.05


Tree=18
num_leaves=17
num_cat=5
split_feature=64 45 66 69 66 59 13 43 75 66 70 74 66 56 49 75
split_gain=173.609 41.0507 22.8011 20.1015 19.1578 11.9541 11.3311 7.96935 7.09147 5.4077 5.3508 4.9991 3.35562 2.7519 2.56224 4.55481
threshold=0 76.786926269531264 1 3.5000000000000004 2 7.592393398284913 100.21846389770509 122.9494972229004 25.836610794067386 3 5.5000000000000009 64.670001983642592 4 75.30969619750978 55.384912490844734 19.125802993774418
decision_type=9 2 1 2 1 2 2 2 2 1 2 2 1 2 2 2
left_child=1 3 11 -1 10 -6 -7 8 9 -4 -5 13 -13 -3 -9 -16
right_child=-2 2 7 4 5 6 -8 14 -10 -11 -12 12 -14 -15 15 -17
leaf_value=0.84405271455692565 -4.2385015927532796 -0.64741723262036865 0.41204513666704656 -1.2113075403693168 -4.0773659640274849 -0.54924212867373545 -1.5675937029015039 1.9158503783060141 0.0023928195614594475 1.0908903680764312 0.45085370678963343 1.0376441500222953 -0.032276616375759917 -0.075576236076317124 1.9217175435883078 1.058683993194002
leaf_weight=172 177 107 113 100 103 156 134 101 136 133 132 109 114 155 117 155
leaf_count=172 177 107 113 100 103 156 134 101 136 133 132 109 114 155 117 155
internal_value=-0.00121951 0.0030044 0.00870968 -0.00583438 -0.01 -0.0165012 -0.0117241 0.0140523 0.0091623 0.0142276 0.00165289 0.00010101 0.00560538 -0.00458015 0.019437 0.0169118
internal_weight=2214 2037 1240 797 625 393 290 755 382 246 232 485 223 262 373 272
internal_count=2214 2037 1240 797 625 393 290 755 382 246 232 485 223 262 373 272
cat_boundaries=0 1 2 3 4 5
cat_threshold=32 476250422 1261577349 1074816576 67239974
is_linear=0
shrinkage=0.05


Tree=19
num_leaves=18
num_cat=11
split_feature=64 48 65 29 66 66 65 66 70 75 65 66 65 65 66 74 3
split_gain=197.937 38.8358 24.9279 16.4272 20.1452 15.4268 11.085 9.51385 9.12258 8.30506 7.67106 6.19519 5.76341 5.03943 4.23982 4.19672 4.05862
threshold=0 102.84653472900392 1 36.39140701293946 2 3 4 5 1.5000000000000002 18.007334709167484 6 7 8 9 10 68.630001068115249 129.23447418212893
decision_type=9 2 1 2 1 1 1 1 2 2 1 1 1 1 1 2 2
left_child=1 3 7 8 10 -4 -6 -3 -1 -8 -5 -12 15 -9 -14 -7 -16
right_child=-2 2 5 4 6 12 9 13 -10 -11 11 -13 14 -15 16 -17 -18
leaf_value=-1.3521252211420589 -4.0265765131156162 -0.85062212864297493 -0.074145745256002732 0.2643706041340792 1.2291601646164345 1.2469000716542682 -0.96070122552380899 1.1971430730809487 -3.7523371377742603 0.54822514047319115 -0.78590035745456399 -1.3121325721920998 0.4428482450307456 -0.067441200769791723 1.7809396177167287 2.6604863806644548 0.8710005647043545
leaf_weight=125 195 107 117 106 116 122 106 114 131 172 108 106 111 116 133 122 106
leaf_count=125 195 107 117 106 116 122 106 114 131 172 108 106 111 116 133 122 106
internal_value=-0.000745594 0.00399408 0.010687 -0.00319588 0.00070028 0.0158807 0.00816832 -0.000720461 -0.0140625 0.00243056 -0.00848485 -0.0138393 0.0192053 0.005 0.0138889 0.0259843 0.0178715
internal_weight=2213 2018 1048 970 714 711 394 337 256 278 320 214 594 230 350 244 239
internal_count=2213 2018 1048 970 714 711 394 337 256 278 320 214 594 230 350 244 239
cat_boundaries=0 1 2 3 4 5 6 7 8 9 10 11
cat_threshold=32 3598197380 2454791162 6357040 2424832133 336189696 1379942914 2151751880 537300995 2417500288 897581069
is_linear=0
shrinkage=0.05


Tree=20
num_leaves=18
num_cat=10
split_feature=64 13 65 65 66 66 66 31 66 65 69 65 67 66 67 74 62
split_gain=186.545 33.6712 26.4772 18.0692 13.2702 11.5403 10.3539 9.11275 8.77177 8.09021 6.64691 6.51961 4.76789 4.61258 3.51903 3.15369 2.88425
threshold=0 121.16946411132814 1 2 3 4 5 37.086643218994148 6 7 6.5000000000000009 8 1.0000000180025095e-35 9 1.0000000180025095e-35 69.990001678466811 109.71193695068361
decision_type=9 2 1 1 1 1 1 2 1 1 2 1 2 1 2 2 2
left_child=1 3 6 5 7 -1 9 -5 14 -3 -6 -12 -7 -9 -4 -8 -10
right_child=-2 2 8 4 10 12 15 13 16 -11 11 -13 -14 -15 -16 -17 -18
leaf_value=-0.91805058695503949 -3.8228101874598348 2.1945561253328694 0.17122592387368343 -1.466380531244643 -0.37224379655297146 1.1867954751502894 1.1275197677024138 -0.050428231555179795 0.086980702283403849 -0.026836065800693379 -0.95744750272574353 -2.4800693577689286 0.073588628534182729 1.5469884120065558 1.3322880689611134 2.5455800638281483 -0.38731615366889405
leaf_weight=108 193 107 118 139 128 125 137 100 111 110 111 132 134 101 106 106 134
leaf_count=108 193 107 118 139 128 125 137 100 111 110 111 132 134 101 106 106 134
internal_value=-0.00186364 0.00275161 0.00974166 -0.00324675 -0.00783634 0.00570292 0.0180851 -0.000571429 0.00114823 0.00903084 -0.0143045 -0.0195473 0.0113383 0.00621891 0.00811966 0.0254941 -0.00529412
internal_weight=2200 2007 929 1078 711 367 460 340 469 217 371 243 259 201 224 243 245
internal_count=2200 2007 929 1078 711 367 460 340 469 217 371 243 259 201 224 243 245
cat_boundaries=0 1 2 3 4 5 6 7 8 9 10
cat_threshold=32 688820554 437668504 1675500552 876808194 2237739701 2308858948 536907786 1170210819 51249160
is_linear=0
shrinkage=0.05


Tree=21
num_leaves=17
num_cat=9
split_feature=64 58 75 65 66 65 66 65 66 66 70 74 74 31 49 72
split_gain=166.14 32.8404 24.569 18.6419 15.9517 13.6023 9.31354 9.18359 5.47131 5.16269 6.74332 4.66336 4.44424 4.29224 3.94019 2.36424
threshold=0 86.447708129882827 49.548133850097663 1 2 3 4 5 6 7 3.5000000000000004 69.530002593994155 46.670000076293952 48.45813179016114 37.765336990356452 8
decision_type=9 2 2 1 1 1 1 1 1 1 2 2 2 2 2 1
left_child=1 5 3 13 12 6 -1 8 -6 -7 -11 -9 -5 -3 -8 -14
right_child=-2 2 -4 4 7 9 14 11 -10 10 -12 -13 15 -15 -16 -17
leaf_value=-0.91909587691192207 -3.6316696780868427 0.10185743304850092 -0.68603388106621999 0.80298096884702597 0.51534383977634668 -2.1186776536464431 -0.093613805016708795 0.40049576004717624 -0.31925796316395605 0.027297208463780011 -2.0019636926443272 1.6367389543139126 1.3268905001891342 -0.63737216731259849 0.71774515332582922 1.6949687321568883
leaf_weight=116 189 108 116 100 126 118 103 132 111 119 177 110 179 118 126 150
leaf_count=116 189 108 116 100 126 118 103 132 111 119 177 110 179 118 126 150
internal_value=-0.00291174 0.00141159 0.0064 0.00864198 0.0117647 -0.00678524 0.000704225 0.00521472 -0.00182186 -0.0127358 -0.00849673 0.0119048 0.0187927 -0.00423729 0.00648536 0.0220365
internal_weight=2198 2009 1250 1134 908 759 345 479 237 414 296 242 429 226 229 329
internal_count=2198 2009 1250 1134 908 759 345 479 237 414 296 242 429 226 229 329
cat_boundaries=0 1 2 3 4 5 6 7 8 9
cat_threshold=32 3246932516 1652880591 3540211585 42563592 304425347 2366245120 291651856 2
is_linear=0
shrinkage=0.05


Tree=22
num_leaves=18
num_cat=7
split_feature=64 49 66 49 66 38 68 66 66 63 75 66 75 72 74 37 2
split_gain=177.056 38.0815 11.8557 11.2069 13.0344 6.81951 6.74451 10.193 6.85303 4.85801 4.48934 4.48056 3.82713 3.29879 2.8168 2.50047 1.29254
threshold=0 49.928613662719734 1 27.622612953186039 2 0.33958996832370764 2020.5000000000002 3 4 83.412143707275405 13.309769153594972 5 19.125802993774418 6 52.61000061035157 80.213668823242202 59.397153854370124
decision_type=9 2 1 2 1 2 2 1 1 2 2 1 2 1 2 2 2
left_child=1 3 15 5 10 -1 8 -8 -4 11 -5 -6 -10 -9 -12 -3 -13
right_child=-2 2 6 4 9 -7 7 13 12 -11 14 16 -14 -15 -16 -17 -18
leaf_value=-3.2290644925138441 -3.4525236941825015 -0.17112603694238829 0.3008381148592747 -0.039483580848917656 1.3374492010148069 -1.6563110456256618 -0.17648133192504717 1.5212634055586791 2.7591192037135728 -0.28525804353820589 -0.57081980997194537 0.49909651130655708 1.4174698279023774 0.78363649691372927 -0.86228370902851603 0.040146480334489358 -0.045789943110261792
leaf_weight=108 189 107 104 101 106 115 108 113 121 102 105 122 169 119 123 129 155
leaf_count=108 189 107 104 101 106 115 108 113 121 102 105 122 169 119 123 129 155
internal_value=-0.00200364 0.00245414 0.00958763 -0.00419479 -0.0014742 -0.0141256 0.0126344 0.00764706 0.0172589 0.00373737 -0.00899705 0.00639687 0.021 0.0132231 -0.0131579 -0.000406504 0.00261324
internal_weight=2196 2007 970 1037 814 223 734 340 394 485 329 383 290 232 228 236 277
internal_count=2196 2007 970 1037 814 223 734 340 394 485 329 383 290 232 228 236 277
cat_boundaries=0 1 2 3 4 5 6 7
cat_threshold=32 270729608 2455310905 42215443 207126592 218383360 2
is_linear=0
shrinkage=0.05


Tree=23
num_leaves=17
num_cat=10
split_feature=64 45 65 66 65 66 66 66 65 22 65 74 59 6 66 15
split_gain=173.285 38.3862 25.7718 23.6793 20.5566 10.7619 9.25523 7.48543 9.16461 5.78671 4.82928 4.75029 4.20586 4.1046 2.98684 1.88836
threshold=0 76.786926269531264 1 2 3 4 5 6 7 77.048217773437514 8 67.099998474121108 11.78139114379883 133.24031829833987 9 81.65006256103517
decision_type=9 2 1 1 1 1 1 1 1 2 1 2 2 2 1 2
left_child=1 4 7 10 5 -1 -6 8 -3 -8 -4 14 -7 -9 -5 -12
right_child=-2 2 3 11 6 12 9 13 -10 -11 15 -13 -14 -15 -16 -17
leaf_value=-0.76572045133952005 -3.2774600094733759 2.304501474504312 0.036794283236038443 -0.98008047601913906 -0.13281133537435466 0.1420805111529809 -3.938071049899218 0.82315072486661767 -0.1313749865542789 -0.99741251031665434 0.48860711311995858 0.0020109512951407282 0.74494858609895553 2.0049754116027798 -0.18509388161371448 1.3493456200647316
leaf_weight=101 189 110 108 112 121 104 109 112 129 198 100 129 145 198 132 118
leaf_count=101 189 110 108 112 121 104 109 112 129 198 100 129 145 198 132 118
internal_value=-0.00196388 0.00240668 0.00785256 0.00133992 -0.0062982 0.00277778 -0.0134703 0.0158318 0.00823293 -0.0181388 0.0110119 -0.00718016 0.00830116 0.02125 -0.0114754 0.0153509
internal_weight=2215 2026 1248 699 778 350 428 549 239 307 326 373 249 310 244 218
internal_count=2215 2026 1248 699 778 350 428 549 239 307 326 373 249 310 244 218
cat_boundaries=0 1 2 3 4 5 6 7 8 9 10
cat_threshold=32 679188736 3910727233 2602321793 2550237952 35134656 2819294119 536969472 100672164 371195940
is_linear=0
shrinkage=0.05


Tree=24
num_leaves=19
num_cat=9
split_feature=29 75 65 69 66 66 65 59 66 65 65 66 68 66 68 45 29 74
split_gain=133.675 24.2374 23.7589 19.0791 18.1431 14.312 8.62018 7.75041 7.52048 7.03122 6.99319 6.5002 5.85659 4.77654 3.83774 1.43862 1.27231 0.209399
threshold=36.39140701293946 57.377407073974616 0 4.5000000000000009 1 2 3 4.5845699310302743 4 5 6 7 2020.5000000000002 8 2020.5000000000002 84.401298522949233 64.030990600585952 53.689998626708991
decision_type=2 2 1 2 1 1 1 2 1 1 1 1 2 1 2 2 2 2
left_child=3 2 4 -1 9 10 8 17 -7 -2 13 -8 -12 -4 -6 -10 -13 -5
right_child=1 -3 5 7 14 6 11 -9 15 -11 12 16 -14 -15 -16 -17 -18 -19
leaf_value=-2.1000292137403949 0.79688168686747651 -1.1887308955276132 -0.41873804695968464 -3.1160245089997076 1.8522884636456347 -0.0018203550959071892 -0.59034666712427608 -3.0079474170761475 0.48242355195187514 -0.53862559972451296 -0.30928735609112723 0.071021948986623326 -1.4301138773166031 0.54113454179503007 1.0325909511192479 1.3082251404382177 0.41842666494674463 -3.1284651339997072
leaf_weight=102 109 102 123 102 162 107 102 157 105 110 107 107 130 101 188 104 103 108
leaf_count=102 109 102 123 102 162 107 102 157 105 110 107 107 130 101 188 104 103 108
internal_value=-0.00325258 0.00306818 0.00452352 -0.0269723 0.0126943 0.000136488 0.00501567 -0.0322888 0.0107362 0.0010917 -0.00647558 -0.000931677 -0.0123482 0 0.0197222 0.01621 0.00409091 -0.0385714
internal_weight=2229 1760 1658 469 569 1089 628 367 316 219 461 312 237 224 350 209 210 210
internal_count=2229 1760 1658 469 569 1089 628 367 316 219 461 312 237 224 350 209 210 210
cat_boundaries=0 1 2 3 4 5 6 7 8 9
cat_threshold=941261256 2422407943 376652344 36005911 1216651264 806387840 2229603840 536873223 269680656
is_linear=0
shrinkage=0.05


Tree=25
num_leaves=17
num_cat=4
split_feature=64 65 74 58 59 75 65 65 74 49 59 68 3 58 75 67
split_gain=172.264 27.6258 14.7772 11.9588 9.65056 14.5908 7.21655 7.19609 12.3795 5.43152 4.5218 4.44771 4.65846 3.654 2.25497 2.03649
threshold=0 1 75.469997406005874 82.040695190429702 8.2312779426574725 49.548133850097663 2 3 69.170001983642592 41.931632995605476 14.620172977447512 2020.5000000000002 117.0128631591797 92.380363464355483 21.139045715332035 1.0000000180025095e-35
decision_type=9 1 2 2 2 2 1 1 2 2 2 2 2 2 2 2
left_child=1 3 4 -1 -3 6 10 14 -9 -8 -6 12 -11 -13 -5 -12
right_child=-2 2 -4 7 5 -7 9 8 -10 11 15 13 -14 -15 -16 -17
leaf_value=-0.061957321314311288 -2.9602232835497224 -2.8665337822026191 1.5501743743549725 1.5686097524078235 -0.3870951154093632 -1.0480080712286253 0.44187269791490352 -0.0933392367564089 1.2160750846882777 -0.66027623119767187 0.95086237200990242 -0.33775095998192911 0.72503787523615848 -0.833896104010313 1.2275924191819669 0.19526953355941787
leaf_weight=123 188 158 140 137 102 102 110 126 107 107 176 111 125 103 124 144
leaf_count=123 188 158 140 137 102 102 110 126 107 107 176 111 125 103 124 144
internal_value=-0.00300046 0.00142145 -0.00252161 0.0101276 -0.0042811 -0.00259259 -0.000715746 0.0137652 0.0063786 -0.00441696 0.00416667 -0.00695067 -0.00215517 -0.0121495 0.0193727 0.0071875
internal_weight=2183 1995 1378 617 1238 1080 978 494 233 556 422 446 232 214 261 320
internal_count=2183 1995 1378 617 1238 1080 978 494 233 556 422 446 232 214 261 320
cat_boundaries=0 1 2 3 4
cat_threshold=32 538611272 2619670800 537561088
is_linear=0
shrinkage=0.05


Tree=26
num_leaves=18
num_cat=10
split_feature=64 31 66 65 65 66 75 69 65 47 66 75 66 66 65 74 13
split_gain=152.206 28.548 28.2421 24.3479 22.314 12.9681 12.0098 6.80675 6.55399 5.34924 7.35559 3.95304 3.67738 3.53289 3.12119 3.60027 3.01948
threshold=0 37.086643218994148 1 2 3 4 37.24498367309571 14.500000000000002 5 60.043485641479499 6 23.152287483215336 7 8 9 69.890003204345717 127.1830520629883
decision_type=9 2 1 1 1 1 2 2 1 2 1 2 1 1 1 2 2
left_child=1 5 4 14 12 -1 9 8 -5 -6 -11 -10 -3 -7 -4 -16 -12
right_child=-2 2 3 7 6 13 -8 -9 11 10 16 -13 -14 -15 15 -17 -18
leaf_value=-3.1662274990564288 -2.8122121193722363 1.2596671429517841 1.8213464372170649 -0.21999021748468053 0.20877779361917348 0.10413212215620149 -1.1296827901424877 -0.41274184975006989 1.1835303050215686 0.5610458352952179 -0.75025601686695398 0.47313845141673455 0.095682718371313064 -2.2124370224842287 0.35416383903493198 1.3381726695799097 -0.28961652693994749
leaf_weight=109 182 106 101 118 122 112 135 119 139 101 114 105 115 183 130 102 101
leaf_count=109 182 106 101 118 122 112 135 119 139 101 114 105 115 183 130 102 101
internal_value=-0.00382862 0.00024728 0.00323383 0.00970874 -0.00348259 -0.0116337 -0.00866209 0.00234216 0.0058011 -0.00479452 -0.00822785 0.0102362 0.00974026 -0.00540984 0.0199708 0.014876 -0.0131111
internal_weight=2194 2012 1608 814 794 404 573 481 362 438 316 244 221 295 333 232 215
internal_count=2194 2012 1608 814 794 404 573 481 362 438 316 244 221 295 333 232 215
cat_boundaries=0 1 2 3 4 5 6 7 8 9 10
cat_threshold=32 376513470 1880525847 743670016 4127342592 37765288 336601090 34603700 1643849 537296896
is_linear=0
shrinkage=0.05


Tree=27
num_leaves=17
num_cat=7
split_feature=64 57 65 65 66 66 31 66 74 68 66 25 75 68 75 69
split_gain=158.425 24.7507 14.0404 11.3552 13.5819 9.47925 9.33915 8.32808 7.80754 7.18767 6.55528 6.39817 4.7214 3.99497 2.82234 2.26019
threshold=0 79.456081390380874 1 2 3 4 37.086643218994148 5 45.409999847412116 2020.5000000000002 6 145.78657531738284 19.349496841430668 2020.5000000000002 22.033819198608402 9.5000000000000018
decision_type=9 2 1 1 1 1 2 1 2 2 1 2 2 2 2 2
left_child=1 3 5 8 14 -3 -6 13 -1 -7 -10 -8 -9 -4 -5 -12
right_child=-2 2 7 4 6 9 11 12 10 -11 15 -13 -14 -15 -16 -17
leaf_value=-0.78173188163775587 -2.6716015134036244 -0.0074814791603742496 1.1117756760895781 0.70043864535431488 -2.7159280004431245 1.9124948129741555 -0.077980376458184966 0.039087021663588933 -0.32914283758114815 0.47734816013912185 1.1425151941717659 -0.67035880340041565 -0.52393040337719443 0.050191695694679343 -0.12714024425347434 0.28531888676850486
leaf_weight=110 186 101 110 100 162 173 148 100 106 148 151 110 128 106 114 109
leaf_count=110 186 101 110 100 162 173 148 100 106 148 151 110 128 106 114 109
internal_value=-0.00356152 0.000704935 0.00704388 -0.00423423 -0.00854037 0.0134259 -0.0137209 0.000660793 0.00164609 0.0176737 0.00519126 -0.00813953 -0.00588235 0.00752212 0.00178571 0.00925926
internal_weight=2162 1976 866 1110 634 422 420 444 476 321 366 258 228 216 214 260
internal_count=2162 1976 866 1110 634 422 420 444 476 321 366 258 228 216 214 260
cat_boundaries=0 1 2 3 4 5 6 7
cat_threshold=32 958831619 421484225 55058113 4260528 3259690186 859971584
is_linear=0
shrinkage=0.05


Tree=28
num_leaves=19
num_cat=7
split_feature=64 25 69 47 65 66 66 56 15 66 59 71 59 31 56 48 66 67
split_gain=177.703 20.353 19.4183 17.4269 16.253 14.6995 12.5503 5.86756 7.15029 5.45587 11.3286 4.39301 4.35364 4.17326 2.57148 2.46492 1.76701 0.0815686
threshold=0 148.72599029541018 3.5000000000000004 25.579005241394047 1 2 3 60.024284362792976 71.446418762207045 4 17.433915138244632 5 17.157045364379886 53.154777526855476 52.008077621459968 123.51748657226564 6 1.0000000180025095e-35
decision_type=9 2 2 2 1 1 1 2 2 1 2 1 2 2 2 2 1 2
left_child=1 2 -1 -4 9 -5 12 14 -9 -3 -11 16 -6 -14 -7 -15 -8 -2
right_child=17 4 3 5 6 7 11 8 -10 10 -12 -13 13 15 -16 -17 -18 -19
leaf_value=0.93853001549124648 -2.5366848190697522 -0.88279954261603422 -3.4460330585458823 0.8874935422633663 0.96890438950716207 -1.2586544252277705 1.48954143641828 -1.4064554485919516 -0.22967165237343323 0.44191758395071901 -0.53169087391620173 1.5527130103137923 -0.21802017320029279 1.1449428608090118 0.093800585534015116 -0.011343568139987782 0.41996156282606451 -2.5380214377334434
leaf_weight=172 104 103 153 112 105 112 103 103 110 111 120 144 111 100 110 106 155 100
leaf_count=172 104 103 153 112 105 112 103 103 110 111 120 144 111 100 110 106 155 100
internal_value=-0.00340197 0.00117647 -0.00458716 -0.00828571 0.00552677 -0.00411335 0.00923261 -0.00820225 -0.0143192 -0.00377907 0.000622407 0.015534 0.00300926 0.000157729 -0.0027027 0.00436893 0.0120155 -0.046729
internal_weight=2234 2030 872 700 1158 547 824 435 213 334 231 402 422 317 222 206 258 204
internal_count=2234 2030 872 700 1158 547 824 435 213 334 231 402 422 317 222 206 258 204
cat_boundaries=0 1 2 3 4 5 6 7
cat_threshold=32 3332399653 1627553793 2792555430 2550301960 4 1208516672
is_linear=0
shrinkage=0.05


Tree=29
num_leaves=18
num_cat=9
split_feature=64 75 65 66 66 68 65 70 51 66 27 74 65 65 65 69 8
split_gain=177.865 25.3756 24.8081 20.1027 15.7195 13.8393 13.1966 10.6234 8.21541 7.2221 4.80218 4.58733 4.28707 2.15792 1.64314 1.98877 1.13498
threshold=0 57.041868209838874 1 2 3 2019.5000000000002 4 4.5000000000000009 35.689308166503913 5 73.764682769775405 45.590000152587898 6 7 8 7.5000000000000009 66.743148803710952
decision_type=9 2 1 1 1 2 1 2 2 1 2 2 1 1 1 2 2
left_child=1 2 4 6 13 -5 16 -6 -7 -10 -8 -9 -11 -1 -13 -16 -4
right_child=-2 -3 3 5 7 8 10 11 9 12 -12 14 -14 -15 15 -17 -18
leaf_value=0.83054281871802127 -2.4111203658467715 -1.3529436639822956 1.163741075698961 0.60624663900631648 -0.57349817460185903 -2.5983414733306653 -1.4492952299810953 0.15498321535029547 -1.1870766984845815 -0.48547468489036877 0.15659534793302329 0.38469220205804366 0.3064287266234601 1.7016498501183037 1.1187728599883699 0.86102215802926807 1.4681041133164925
leaf_weight=103 198 104 100 156 109 112 107 152 112 111 105 110 171 118 106 124 114
leaf_count=103 198 104 100 156 109 112 107 152 112 111 105 110 171 118 106 124 114
internal_value=-0.00262206 0.00192688 0.00324607 -0.00173042 0.00973558 -0.00714286 0.00665138 0.00531915 -0.0112648 -0.00786802 -0.00225225 0.00853659 -0.00308219 0.0209957 0.0117647 0.0141667 0.0151786
internal_weight=2212 2014 1910 1088 822 662 426 601 506 394 212 492 282 221 340 230 214
internal_count=2212 2014 1910 1088 822 662 426 601 506 394 212 492 282 221 340 230 214
cat_boundaries=0 1 2 3 4 5 6 7 8 9
cat_threshold=32 1008110529 2912453744 1116493320 1126712330 302325762 17318934 268470720 335809024
is_linear=0
shrinkage=0.05


Tree=30
num_leaves=18
num_cat=7
split_feature=48 75 65 66 66 69 65 65 74 66 69 59 3 65 11 75 59
split_gain=114.048 21.278 19.7297 11.2499 11.1351 10.9356 7.97556 7.6614 5.83073 5.35921 5.23283 8.74024 3.90231 6.83394 7.41116 3.80534 0.444559
threshold=54.101823806762702 51.561374664306648 0 1 2 14.500000000000002 3 4 56.569999694824226 5 5.5000000000000009 4.5845699310302743 101.11604309082033 6 100.67507553100587 17.78364181518555 17.754475593566898
decision_type=2 2 1 1 1 2 1 1 2 1 2 2 2 1 2 2 2
left_child=10 2 3 -2 7 9 -6 -4 -9 -5 -1 -12 -8 -14 -15 -11 -10
right_child=1 -3 4 5 6 -7 12 8 16 15 11 -13 13 14 -16 -17 -18
leaf_value=-1.8833772644066824 -0.78607710913442053 -0.90259923186094615 0.07371854641409499 -0.31458550013920572 1.1782987194722367 -0.54130640354931003 -0.99630624263253509 0.91271000926428913 1.1828004438607196 0.067728136997775579 -2.2875716472376166 -2.1322057756936434 0.60979846470227417 0.42712534488640586 -0.55969176836714496 0.82975332361591547 1.7930029207724987
leaf_weight=110 111 144 126 104 121 116 103 173 101 100 195 104 101 121 133 133 100
leaf_count=110 111 144 126 104 121 116 103 173 101 100 195 104 101 121 133 133 100
internal_value=-0.00368852 0.00176273 0.00337797 -0.00418118 0.00730028 -0.000539957 0.0024618 0.0127451 0.0164063 0.00400593 -0.0275061 -0.0309365 -0.000641026 0.00183099 -0.00265152 0.00802469 0.0226368
internal_weight=2196 1787 1643 564 1079 453 579 500 374 337 409 299 458 355 254 233 201
internal_count=2196 1787 1643 564 1079 453 579 500 374 337 409 299 458 355 254 233 201
cat_boundaries=0 1 2 3 4 5 6 7
cat_threshold=3238030452 371196169 1200418378 571474184 305135874 77346 73433090
is_linear=0
shrinkage=0.05


Tree=31
num_leaves=18
num_cat=10
split_feature=64 69 45 65 66 65 66 65 65 65 65 68 49 66 75 49 3
split_gain=159.568 20.9151 21.3293 18.9746 17.1272 14.0779 17.2692 12.2461 8.16184 7.83513 6.29885 4.25813 4.19493 4.04929 3.56534 2.13035 1.2549
threshold=0 3.5000000000000004 84.647876739501967 1 2 3 4 5 6 7 8 2020.5000000000002 40.597539901733406 9 25.389223098754886 46.542596817016609 98.711517333984389
decision_type=9 2 2 1 1 1 1 1 1 1 1 2 2 1 2 2 2
left_child=1 3 5 -1 8 15 10 -6 -4 -8 -7 -9 -11 -10 -5 -3 -12
right_child=-2 2 4 14 7 6 9 11 13 12 16 -13 -14 -15 -16 -17 -18
leaf_value=-0.41455595899695941 -2.1761857651925518 0.49454750417628052 0.34610330471785816 1.7645048772917988 -0.23019079778431717 0.3303216197083188 -0.25740108295346931 1.6826336909060815 -0.07424898438429324 -3.1369898303913533 -0.95933483230784589 0.4801686617364162 -1.2700628977398525 -0.88487247457632923 0.97920051129279462 -0.12406495380399818 -0.055972955847120434
leaf_weight=101 188 139 112 151 111 121 102 183 106 103 102 146 129 121 100 102 102
leaf_count=101 188 139 112 151 111 121 102 183 106 103 102 146 129 121 100 102 102
internal_value=-0.00362776 0.000563449 -0.001757 0.0116477 0.00430039 -0.007 -0.0106876 0.0106667 -0.00415473 -0.0186047 -0.00223881 0.0154867 -0.0239669 -0.00949367 0.0185824 0.00338645 -0.00747664
internal_weight=2219 2031 1679 352 779 900 659 440 339 334 325 329 232 227 251 241 204
internal_count=2219 2031 1679 352 779 900 659 440 339 334 325 329 232 227 251 241 204
cat_boundaries=0 1 2 3 4 5 6 7 8 9 10
cat_threshold=32 336085666 1014039462 404509312 723138311 203440449 36123 1157630048 2183208985 541066144
is_linear=0
shrinkage=0.05


Tree=32
num_leaves=19
num_cat=10
split_feature=64 65 66 66 40 65 51 66 65 65 74 68 8 65 51 24 66 31
split_gain=148.743 16.8283 19.0536 11.569 11.1302 9.29254 6.42022 6.41516 5.91965 5.06872 4.94059 4.80646 4.58783 4.30887 3.9669 3.29537 2.70276 1.96875
threshold=0 1 2 3 81.839076995849624 4 31.881952285766605 5 6 7 68.450000762939467 2020.5000000000002 64.12695693969728 8 54.122867584228523 87.512619018554702 9 47.556638717651374
decision_type=9 1 1 1 2 1 2 1 1 1 2 2 2 1 2 2 1 2
left_child=1 2 13 10 5 -4 -5 -8 11 -6 12 -9 -3 -1 -11 -10 -7 -15
right_child=-2 3 4 6 9 16 7 8 15 14 -12 -13 -14 17 -16 -17 -18 -19
leaf_value=0.1489461305863202 -2.0643837766161082 -1.60064691856618 -0.41547801589970706 -2.3457130502917276 0.45538561993114685 1.6284355857860433 1.3820256151879371 0.010792862306553986 -0.030148284235826852 2.4869147554759721 -0.20084777181778721 -0.58065468727219238 -0.46156981542581765 -1.3106614618972969 1.1357620346912172 0.69918346969162215 0.33328978879471266 -0.42617248996066909
leaf_weight=119 177 101 106 123 117 106 106 120 114 100 116 110 140 104 103 130 138 122
leaf_count=119 177 101 106 123 117 106 106 120 114 100 116 110 140 104 103 130 138 122
internal_value=-0.00301954 0.000839329 0.00541463 -0.0035514 0.0102941 0.00428571 0.000210379 0.00241379 -0.000206612 0.0171875 -0.0107629 -0.00583333 -0.0151452 -0.00408451 0.021831 0.00511811 0.00944882 -0.00805085
internal_weight=2252 2075 1015 1060 670 350 703 580 474 320 357 230 241 345 203 244 244 226
internal_count=2252 2075 1015 1060 670 350 703 580 474 320 357 230 241 345 203 244 244 226
cat_boundaries=0 1 2 3 4 5 6 7 8 9 10
cat_threshold=32 555470491 309414532 2424668474 554698762 1077939200 1522540576 1116289 553681409 16822347
is_linear=0
shrinkage=0.05


Tree=33
num_leaves=19
num_cat=11
split_feature=64 66 65 39 25 66 65 75 66 65 66 68 68 66 66 66 75 74
split_gain=158.147 17.8472 16.0097 14.0414 8.75579 10.1271 8.48645 6.21366 5.31482 4.75451 5.28565 4.14423 4.74058 6.1501 3.94511 3.48069 2.79461 0.525611
threshold=0 1 2 61.076910018920906 157.93028259277347 3 4 29.639402389526371 5 6 7 2019.5000000000002 2020.5000000000002 8 9 10 14.651930809020998 52.430000305175788
decision_type=9 1 1 2 2 1 1 2 1 1 1 2 2 1 1 1 2 2
left_child=1 3 7 6 8 -6 14 15 -4 -5 -11 -8 -13 -14 -1 -3 -17 -10
right_child=-2 2 4 9 5 -7 11 -9 17 10 -12 12 13 -15 -16 16 -18 -19
leaf_value=1.562389501596499 -1.9641572881021188 -0.066285077435323109 -0.61167277147396537 1.6677233512798297 -0.58207147884808419 0.39741467723640511 0.23681901447812523 -0.44169003335530166 -1.2687725287585327 -0.011004192735356355 0.96525029634655946 -0.86920170993498402 -0.38888770653596083 0.40468531979661293 0.2299700432092962 0.86816818191726952 0.62106336617307323 -1.51092574470918
leaf_weight=110 188 111 116 110 100 137 111 112 100 106 115 101 105 136 113 116 126 104
leaf_count=110 188 111 116 110 100 137 111 112 100 106 115 101 105 136 113 116 126 104
internal_value=-0.00331529 0.000858264 -0.00377907 0.00555556 -0.00943563 -0.00232068 0.00147929 0.00305263 -0.015 0.0140483 0.00844156 -0.0024838 -0.00526316 -0.00145228 0.00922747 0.00637394 0.00952381 -0.0196262
internal_weight=2217 2029 1022 1007 557 237 676 465 320 331 221 453 342 241 223 353 242 204
internal_count=2217 2029 1022 1007 557 237 676 465 320 331 221 453 342 241 223 353 242 204
cat_boundaries=0 1 2 3 4 5 6 7 8 9 10 11
cat_threshold=32 2879184448 995722640 196668 3358327321 4268178 604112906 705990656 58742272 713315328 272695425
is_linear=0
shrinkage=0.05


Tree=34
num_leaves=17
num_cat=9
split_feature=64 59 75 65 66 66 59 65 68 29 38 29 66 65 72 65
split_gain=143.608 15.4378 13.5579 11.4234 16.2389 12.0832 11.5691 8.11381 7.59879 6.79632 5.89015 5.74637 4.96837 4.24 3.28827 7.2071
threshold=0 7.592393398284913 53.350923538208015 1 2 3 16.619710922241214 4 2020.5000000000002 73.282096862792983 0.33958996832370764 67.371582031250014 5 6 7 8
decision_type=9 2 2 1 1 1 2 1 2 2 2 2 1 1 1 1
left_child=1 10 3 5 6 13 12 8 -6 -8 -1 -9 -5 -3 15 -7
right_child=-2 2 -4 4 7 14 9 11 -10 -11 -12 -13 -14 -15 -16 -17
leaf_value=-2.3727189463740075 -1.8659494236970127 0.84373370927962421 -0.79697072936810265 0.79600321334622492 0.72824324480558433 -0.051304953098799191 -0.46600896848642609 -1.145548020301203 -0.28984420508182324 0.38886732735441643 -0.410286749883775 -0.12012198703853656 0.77731707151718021 -0.42151268883926751 1.1544735394225576 1.5862966406523258
leaf_weight=109 185 109 128 103 114 100 107 188 120 124 114 152 142 111 148 146
leaf_count=109 185 109 128 103 114 100 107 188 120 124 114 152 142 111 148 146
internal_value=-0.00390909 7.40741e-05 0.0016183 0.00282452 -0.000377358 0.00817308 0.0063786 -0.00599315 0.00122951 -0.00151515 -0.0123318 -0.0108571 0.0140816 -0.00130435 0.0133663 0.0101626
internal_weight=2200 2015 1792 1664 1050 614 476 574 234 231 223 340 245 220 394 246
internal_count=2200 2015 1792 1664 1050 614 476 574 234 231 223 340 245 220 394 246
cat_boundaries=0 1 2 3 4 5 6 7 8 9
cat_threshold=32 712409099 1770229442 403114721 344016672 1207962688 542408712 2 38010889
is_linear=0
shrinkage=0.05


Tree=35
num_leaves=17
num_cat=10
split_feature=64 58 65 66 66 66 65 65 65 69 74 69 65 59 45 66
split_gain=144.545 15.926 18.2485 14.7969 14.1055 12.749 8.82485 8.44752 8.38378 7.77764 7.20026 5.65737 7.299 5.19734 3.71451 2.58814
threshold=0 84.144687652587905 1 2 3 4 5 6 7 9.5000000000000018 56.569999694824226 7.5000000000000009 8 17.186642646789554 92.842422485351577 9
decision_type=9 2 1 1 1 1 1 1 1 2 2 2 1 2 2 1
left_child=1 3 4 8 14 13 10 -5 -1 -9 -7 -6 -13 -4 -3 -10
right_child=-2 2 5 7 11 6 -8 9 15 -11 -12 12 -14 -15 -16 -17
leaf_value=1.0991395513151943 -1.769659252195346 1.0754951385067046 1.2257945858374732 -1.6573284075515617 0.95473602598366514 -0.25733459283632526 -0.84866659508662967 0.26644515000390639 -0.85538719715372347 -1.385861573515252 0.78228979998681047 0.44160944200565666 -0.49175038958124306 -0.024867264201120776 1.0480688961360813 0.081301832314221667
leaf_weight=101 185 162 118 104 141 122 188 122 109 124 102 119 107 106 161 134
leaf_count=101 185 162 118 104 141 122 188 122 109 124 102 119 107 106 161 134
internal_value=-0.00274376 0.00123153 0.00444947 -0.00489914 0.01 -0.00170279 -0.00687204 -0.0119444 0.00254237 -0.00625 0 0.0030504 -0.00176991 0.00769231 0.0175676 -0.00256917
internal_weight=2205 2020 1326 694 690 636 412 350 344 246 224 367 226 224 323 243
internal_count=2205 2020 1326 694 690 636 412 350 344 246 224 367 226 224 323 243
cat_boundaries=0 1 2 3 4 5 6 7 8 9 10
cat_threshold=32 618634250 2938054177 647689800 1762744528 436208325 37756980 52495892 541688840 2685542433
is_linear=0
shrinkage=0.05


Tree=36
num_leaves=17
num_cat=9
split_feature=64 65 66 66 59 65 74 65 69 65 66 75 44 71 75 68
split_gain=141.009 15.0763 11.3295 10.821 9.0365 8.42661 7.48914 7.23825 6.57484 9.23951 5.59292 8.71109 4.99069 6.33033 2.97257 2.6215
threshold=0 1 2 3 11.639986515045168 4 43.430000305175788 5 5.5000000000000009 6 7 24.494449615478519 151.06571960449222 8 25.612916946411136 2020.5000000000002
decision_type=9 1 1 1 2 1 2 1 2 1 1 2 2 1 2 2
left_child=1 3 5 8 -4 -3 -6 15 -1 -10 -9 -12 13 14 -5 -8
right_child=-2 2 4 12 6 -7 7 10 9 -11 11 -13 -14 -15 -16 -17
leaf_value=0.9307470772143831 -1.6841689899023948 -0.11295627480017956 -1.1926481627829166 0.32068468034798453 -0.45134937204817194 -1.707955537734074 0.84539717008528614 -0.4652703365641479 -0.97437892315506014 0.24859417495573269 0.63784050524492608 -0.24679643684588015 1.5257087126207616 0.98026832290397869 -0.29168119288005062 0.56613457166995296
leaf_weight=104 184 100 180 130 177 121 117 102 100 175 122 106 132 123 102 121
leaf_count=104 184 100 180 130 177 121 117 102 100 175 122 106 132 123 102 121
internal_value=-0.00259563 0.00133531 -0.00242215 0.00627854 5.34759e-05 -0.0123377 0.00248322 0.00528169 -0.000128535 -0.00418182 0.000294118 0.00462185 0.011167 0.00830986 0.00344828 0.0116935
internal_weight=2196 2012 1146 866 925 221 745 568 379 275 330 228 487 355 232 238
internal_count=2196 2012 1146 866 925 221 745 568 379 275 330 228 487 355 232 238
cat_boundaries=0 1 2 3 4 5 6 7 8 9
cat_threshold=32 940805403 270696488 149121442 67899972 1163923972 134414339 1384769 4
is_linear=0
shrinkage=0.05


Tree=37
num_leaves=18
num_cat=8
split_feature=64 65 66 66 69 22 65 74 65 21 3 66 66 69 15 29 74
split_gain=127.367 14.6512 15.2134 14.8465 7.67954 5.35503 7.40025 5.02331 7.98616 4.72405 7.32505 4.7063 4.60776 4.45217 3.50706 3.29659 0.739623
threshold=0 1 2 3 13.500000000000002 136.18946838378909 4 52.970001220703132 5 62.922681808471687 111.43452072143556 6 7 9.5000000000000018 83.439426422119155 69.50830459594728 67.639999389648452
decision_type=9 1 1 1 2 2 1 2 1 2 2 1 1 2 2 2 2
left_child=1 2 7 5 12 13 -7 -1 -9 -4 -11 -8 -5 -3 16 -6 -14
right_child=-2 3 9 4 15 6 11 8 -10 10 -12 -13 14 -15 -16 -17 -18
leaf_value=0.44312671830132616 -1.599960540407275 -0.0090607554424003926 -2.4260232725412774 0.018785290898886586 -0.44091000989932427 -0.33016751550414086 -0.0081546094658548895 -0.60744267031611943 0.82256519180819232 0.035258386937977802 -0.62511518812394162 1.117913478520562 0.27497511127939162 -1.8564136861907401 1.6304589905934024 0.48288639284676976 1.1074943220311588
leaf_weight=134 191 115 109 106 104 107 108 106 105 128 186 134 101 115 170 102 104
leaf_count=134 191 115 109 106 104 107 108 106 105 128 186 134 101 115 170 102 104
internal_value=-0.00258427 0.00117417 -0.00424165 0.00446708 0.00939742 -0.00144312 0.00243553 0.00352113 -0.00118483 -0.0105081 -0.00764331 0.00714286 0.0129938 -0.0073913 0.0154545 0.00145631 0.0114634
internal_weight=2225 2034 768 1266 687 579 349 345 211 423 314 242 481 230 375 206 205
internal_count=2225 2034 768 1266 687 579 349 345 211 423 314 242 481 230 375 206 205
cat_boundaries=0 1 2 3 4 5 6 7 8
cat_threshold=32 3278127332 3415782177 1642146740 658952 3240362016 1086324912 302518272
is_linear=0
shrinkage=0.05


Tree=38
num_leaves=18
num_cat=9
split_feature=64 75 66 65 65 70 68 69 27 66 65 65 66 56 59 65 69
split_gain=120.825 17.7954 14.7467 12.6045 10.8747 6.5664 6.41692 5.37272 5.31557 4.98911 4.76756 4.75145 3.87871 3.84312 11.5925 3.80252 2.68026
threshold=0 51.561374664306648 1 2 3 4.5000000000000009 2020.5000000000002 6.5000000000000009 82.803733825683608 4 5 6 7 63.095405578613288 16.944415092468265 8 11.500000000000002
decision_type=9 2 1 1 1 2 2 2 2 1 1 1 1 2 2 1 2
left_child=1 2 4 7 8 -5 16 -4 12 -9 -11 -8 -1 -6 -15 -16 -7
right_child=-2 -3 3 5 13 6 11 9 -10 10 -12 -13 -14 14 15 -17 -18
leaf_value=-1.5882228703560815 -1.5199625133869112 -0.9138898658312421 0.35031296696122782 -0.033431621690934325 -0.27113628407290663 1.6057301402428934 1.6081242673976661 0.18038147202156196 -0.069373444272135029 -0.028854383379415083 -1.2131836755950034 0.11584508781868692 -0.70916882450775354 0.94811613749244972 0.35962857118357761 -0.27616276171166021 1.371700658807933
leaf_weight=111 187 152 164 126 101 114 110 106 111 101 107 195 113 102 103 109 104
leaf_count=111 187 152 164 126 101 114 110 106 111 101 107 195 113 102 103 109 104
internal_value=-0.00297834 0.000662089 0.00199787 0.00558487 -0.00342105 0.010091 0.0127151 -0.000614754 -0.01 -0.0044586 -0.0087156 0.00803279 -0.0147321 0.002 0.00477707 -0.00188679 0.0192661
internal_weight=2216 2029 1877 1127 750 649 523 478 335 314 208 305 224 415 314 212 218
internal_count=2216 2029 1877 1127 750 649 523 478 335 314 208 305 224 415 314 212 218
cat_boundaries=0 1 2 3 4 5 6 7 8 9
cat_threshold=32 375531829 2439061884 3253614150 1627427840 291504168 1813513217 302129440 536969225
is_linear=0
shrinkage=0.05


Tree=39
num_leaves=16
num_cat=10
split_feature=64 66 65 66 65 66 69 65 75 65 75 69 65 65 58
split_gain=119.619 15.9493 12.4804 12.0488 12.0472 8.66442 6.97695 5.98582 5.84894 5.28027 4.94824 4.01914 6.32809 3.90129 2.84623
threshold=0 1 2 3 4 5 5.5000000000000009 6 25.389223098754886 7 20.244270324707035 5.5000000000000009 8 9 95.333240509033217
decision_type=9 1 1 1 1 1 2 1 2 1 2 2 1 1 2
left_child=1 4 3 9 -1 7 -7 -4 -6 -3 -11 -5 -13 -8 -9
right_child=-2 2 5 11 8 6 13 14 -10 10 -12 12 -14 -15 -16
leaf_value=1.6699574330098803 -1.4439643877175659 0.49724999790553426 -0.4565790607506891 1.2038873827718461 0.42728627273652509 -0.11811987369397912 -0.29192823652927657 -0.075083066799891185 -0.14629507667657507 -0.11562128966650108 -1.2168425310083011 0.85586333420228022 -0.011754141988838285 -1.1284523597330591 0.94083013661222603
leaf_weight=122 194 102 104 113 194 111 104 139 158 149 147 109 164 197 104
leaf_count=122 194 102 104 113 194 111 104 139 158 149 147 109 164 197 104
internal_value=-0.00273632 0.000962013 -0.0015132 0.00289673 0.0088843 -0.00604681 -0.0109005 -0.000140056 0.0038674 -0.00318627 -0.00653595 0.00909091 0.00604396 -0.0151163 0.0041502
internal_weight=2211 2017 1543 784 474 759 412 347 352 398 296 386 273 301 243
internal_count=2211 2017 1543 784 474 759 412 347 352 398 296 386 273 301 243
cat_boundaries=0 1 2 3 4 5 6 7 8 9 10
cat_threshold=32 3406042112 1017090698 271689895 2686616322 76752935 3254788100 37504 537694210 1109401920
is_linear=0
shrinkage=0.05


Tree=40
num_leaves=17
num_cat=9
split_feature=59 75 66 65 65 69 66 70 74 74 66 65 66 65 65 68
split_gain=68.4518 15.7025 14.5301 15.5906 14.4004 8.64083 7.7801 6.2173 6.08361 10.1235 5.91395 5.25807 3.99949 8.40774 3.89828 2.30007
threshold=7.592393398284913 51.561374664306648 0 1 2 5.5000000000000009 3 1.5000000000000002 49.729999542236335 69.890003204345717 4 5 6 7 8 2020.5000000000002
decision_type=2 2 1 1 1 2 1 2 2 2 1 1 1 1 1 2
left_child=5 2 4 6 10 -1 -4 -7 -6 -10 -2 -8 14 -14 -5 -12
right_child=1 -3 3 12 8 7 11 -9 9 -11 15 -13 13 -15 -16 -17
leaf_value=-1.2604662868653744 0.26843442698535114 -0.65357848680595509 0.019811059350088558 0.047568532165996658 0.92753525234043721 -1.3717661683316873 -1.2399514640487981 -1.3717661683316873 -0.81006281722475393 0.33876081142501563 2.0351004425057568 -0.34387675476164364 1.1141149756484936 -0.31152937620833826 1.13478601396927 0.80771549249824659
leaf_weight=109 116 135 107 105 158 160 104 138 126 160 103 137 112 190 129 110
leaf_count=109 116 135 107 105 158 160 104 138 126 160 103 137 112 190 129 110
internal_value=-0.00225102 0.00195312 0.00328908 -0.00111857 0.00823755 -0.0207617 -0.00921788 -0.0251678 0.00220264 -0.0020979 0.0160767 -0.0141434 0.00421245 0.000320513 0.00901639 0.0213004
internal_weight=2199 1792 1657 884 773 407 348 298 444 286 329 241 536 302 234 213
internal_count=2199 1792 1657 884 773 407 348 298 444 286 329 241 536 302 234 213
cat_boundaries=0 1 2 3 4 5 6 7 8 9
cat_threshold=3917798666 3232638321 682002375 340787328 2155908096 1082261840 36249712 637569034 352354442
is_linear=0
shrinkage=0.05


Tree=41
num_leaves=17
num_cat=9
split_feature=64 65 66 66 65 69 69 67 66 65 68 65 69 66 75 75
split_gain=101.606 19.5726 13.737 13.006 11.8303 9.06803 8.11359 8.29117 7.64263 7.06213 5.25406 3.92608 3.06119 2.95278 2.43526 1.84859
threshold=0 1 2 3 4 7.5000000000000009 3.5000000000000004 1.0000000180025095e-35 5 6 2020.5000000000002 7 11.500000000000002 8 21.586432456970218 20.244270324707035
decision_type=9 1 1 1 1 2 2 2 1 1 2 1 2 1 2 2
left_child=1 3 9 11 15 -6 -4 13 -9 14 -11 -1 -13 -8 -3 -5
right_child=-2 2 6 4 5 -7 7 8 -10 10 -12 12 -14 -15 -16 -17
leaf_value=0.7382145959882771 -1.3031778599151029 -0.38236449114274651 0.3781448291838217 0.78652728123314375 0.50839486459799232 -1.0557312660358087 -1.328278836354742 -0.44134303956458254 0.1171549117012777 1.0534784556147003 0.060069162222524855 0.78743195790617626 1.3369454656646882 -0.53886392234724667 0.12584108701634308 0.12395184389407349
leaf_weight=100 185 100 107 124 102 180 108 116 152 135 142 159 107 183 102 106
leaf_count=100 185 100 107 124 102 180 108 116 152 135 142 159 107 183 102 106
internal_value=-0.00271739 0.000614855 -0.00367965 0.00619369 0.000957854 -0.00582192 -0.00828402 -0.0108229 -0.00447761 0.00276074 0.00783972 0.0132979 0.0166667 -0.0166667 -0.00424528 0.00916667
internal_weight=2208 2023 1145 878 512 282 666 559 268 479 277 366 266 291 202 230
internal_count=2208 2023 1145 878 512 282 666 559 268 479 277 366 266 291 202 230
cat_boundaries=0 1 2 3 4 5 6 7 8 9
cat_threshold=32 941593674 1092378277 2833044568 806453312 2617245976 2187339780 268533824 2162360322
is_linear=0
shrinkage=0.05


Tree=42
num_leaves=18
num_cat=8
split_feature=64 69 52 65 65 66 66 75 65 66 59 68 65 51 74 74 63
split_gain=110.355 15.6654 18.3413 16.9294 15.3278 18.1265 13.0377 5.37617 5.32109 7.38721 5.46038 4.69334 4.41749 6.18902 3.33509 9.26763 0.838665
threshold=0 3.5000000000000004 48.191011428833015 1 2 3 4 25.836610794067386 5 6 16.981952667236332 2020.5000000000002 7 47.746534347534187 57.470001220703132 43.069999694824226 84.310455322265639
decision_type=9 2 2 1 1 1 1 2 1 1 2 2 1 2 2 2 2
left_child=1 3 -3 -1 5 12 14 -5 16 -10 -11 -7 -4 -14 15 -6 -8
right_child=-2 2 4 7 6 11 8 -9 9 10 -12 -13 13 -15 -16 -17 -18
leaf_value=-0.54690798262601203 -1.2380857978525321 -2.6780270089240692 1.0806923980404137 1.9081540219398434 -0.81890017689090089 1.4726350452592933 -0.45251989174055113 0.59212541659194073 -0.5444471125511513 0.80550275154652129 0.06263771808390857 0.24608723152501144 0.071607069684375801 -0.8336311998066237 -0.96720750934631217 0.29571479155724206 -0.024673007943295744
leaf_weight=100 195 128 107 147 113 148 115 112 107 108 103 188 101 123 129 109 100
leaf_count=100 195 128 107 147 113 148 115 112 107 108 103 188 101 123 129 109 100
internal_value=-0.00284371 0.000683594 -0.00134008 0.0101671 0.000161186 0.00583456 -0.0041387 0.0165428 0.000828729 0.00487805 0.010181 0.0138728 -0.00249267 -0.00641026 -0.0114958 -0.00810811 -0.00511111
internal_weight=2233 2038 1679 359 1551 667 884 259 533 318 211 336 331 224 351 222 215
internal_count=2233 2038 1679 359 1551 667 884 259 533 318 211 336 331 224 351 222 215
cat_boundaries=0 1 2 3 4 5 6 7 8
cat_threshold=32 541602592 543147682 611780294 2307481909 2199920660 1714421760 538050594
is_linear=0
shrinkage=0.05


Tree=43
num_leaves=18
num_cat=13
split_feature=64 65 66 66 18 65 65 65 65 75 66 66 66 69 69 66 65
split_gain=80.2899 15.6049 10.6701 10.2774 6.88364 6.45527 6.26828 5.13014 4.32608 3.96795 3.61661 3.17018 2.99001 5.45988 2.91781 3.52575 1.95099
threshold=0 1 2 3 100.70832824707033 4 5 6 7 22.704900741577152 8 9 10 8.5000000000000018 6.5000000000000009 11 12
decision_type=9 1 1 1 2 1 1 1 1 2 1 1 1 2 2 1 1
left_child=1 3 5 4 -1 11 12 -6 -5 -8 -7 -3 -4 -14 -10 -16 -12
right_child=-2 2 6 8 7 10 9 -9 14 -11 16 -13 13 -15 15 -17 -18
leaf_value=-0.88795635886033042 -1.1761146770267212 -0.49162305713493315 0.11529442432913301 0.16285371888360134 0.61837702020978969 -0.085371982886924519 0.007759365891537584 -0.19433615317563593 0.91128775181169042 1.0202257441985922 -0.59450763198651735 0.090434511068903239 0.16873678040687282 -0.81029402392435912 0.15144562223857749 1.1967191416028471 -1.4575244245279941
leaf_weight=131 187 101 105 104 100 133 159 108 105 156 112 150 121 124 101 121 106
leaf_count=131 187 101 105 104 100 133 159 108 105 156 112 150 121 124 101 121 106
internal_value=-0.00328237 -0.000317538 -0.00371966 0.00525641 -0.0012894 -0.00849673 0.000666667 0.00432692 0.0103175 0.00569231 -0.0128809 -0.00210728 -0.00388889 -0.00686275 0.0132047 0.0103604 -0.0171053
internal_weight=2224 2037 1267 770 339 602 665 208 431 315 351 251 350 245 327 222 218
internal_count=2224 2037 1267 770 339 602 665 208 431 315 351 251 350 245 327 222 218
cat_boundaries=0 1 2 3 4 5 6 7 8 9 10 11 12 13
cat_threshold=32 941345296 354556383 1777944613 6562121 1088692577 537053184 1196032 16777680 18878608 1116210176 2147877456 2155877536
is_linear=0
shrinkage=0.05


Tree=44
num_leaves=17
num_cat=3
split_feature=64 65 74 76 31 65 69 69 22 45 74 22 69 59 25 67
split_gain=85.3116 17.3027 10.9485 6.90472 9.39451 8.3456 5.02569 5.17081 5.12797 5.85329 4.15299 8.78751 3.58618 6.96593 3.43336 2.79564
threshold=0 1 76.549999237060561 0.15000000223517421 35.777652740478523 2 13.500000000000002 16.500000000000004 167.87675476074222 75.54346084594728 53.329999923706062 144.69268035888675 12.500000000000002 16.522334098815922 162.42044830322268 1.0000000180025095e-35
decision_type=9 1 2 2 2 1 2 2 2 2 2 2 2 2 2 2
left_child=1 6 3 4 15 12 8 -8 9 -1 -7 -12 13 -6 -11 -3
right_child=-2 2 -4 -5 5 10 7 -9 -10 14 11 -13 -14 -15 -16 -17
leaf_value=0.28111929840136723 -1.1173089431753851 -1.5524512107433417 0.8027928081514667 -0.54522880550446118 0.59161745980349423 0.0018859425874801162 -0.39997630627654035 0.35899795032806314 -0.028195618006373026 0.98346513649175904 -0.076607165915720546 -0.71079262610607974 -0.096213359831855888 0.00094181815381517715 0.82025653240071117 -0.58304921782145913
leaf_weight=122 181 100 100 184 103 170 126 111 119 100 129 117 145 125 157 113
leaf_count=122 181 100 100 184 103 170 126 111 119 100 129 117 145 125 157 113
internal_value=-0.00340599 -0.000369276 -0.00385802 -0.00522766 -0.00359281 -0.00107731 0.0057047 -0.00021097 0.00863454 0.0114776 -0.00586854 -0.0101626 0.00430809 0.00833333 0.0157588 -0.0129108
internal_weight=2202 2021 1286 1186 1002 789 735 237 498 379 416 246 373 228 257 213
internal_count=2202 2021 1286 1186 1002 789 735 237 498 379 416 246 373 228 257 213
cat_boundaries=0 1 2 3
cat_threshold=32 672914688 1432354892
is_linear=0
shrinkage=0.05


Tree=45
num_leaves=17
num_cat=8
split_feature=59 65 65 66 66 75 74 74 69 8 65 66 65 65 59 74
split_gain=51.1218 11.4546 11.0527 13.518 6.45921 6.49815 6.01506 5.49367 4.61977 4.47181 3.68329 4.81445 3.6557 3.11793 3.33279 2.36384
threshold=7.592393398284913 0 1 2 3 14.428236961364748 69.990001678466811 52.069999694824226 8.5000000000000018 67.874603271484389 4 5 6 7 18.814239501953129 58.729999542236335
decision_type=2 1 1 1 1 2 2 2 2 2 1 1 1 1 2 2
left_child=1 -1 3 7 8 -6 -3 -2 -4 -10 -7 -12 -9 -5 -15 -13
right_child=2 6 4 13 5 10 -8 12 9 -11 11 15 -14 14 -16 -17
leaf_value=-0.18652307799706025 -0.50700192497852681 -1.0763216210166158 -0.052501923381477411 0.5634934878531922 -0.12078229152922404 0.52500919484400155 -1.0733289206997998 0.65649568177688244 -1.1449821220136884 -0.21022014945438131 -0.18505031586178974 0.44933062566986309 -0.20474424033643787 1.4838589177000885 0.83962529204297454 -0.12043164537153857
leaf_weight=117 102 174 191 131 177 120 109 114 121 144 112 155 102 127 112 108
leaf_count=117 102 174 191 131 177 120 109 114 121 144 112 155 102 127 112 108
internal_value=-0.00306859 -0.01925 0.000495595 0.00544413 -0.00254833 0.00058651 -0.0244027 -0.00213415 -0.00708155 -0.0115094 0.00353535 0.000909091 0.00231481 0.0118421 0.0154618 0.00457875
internal_weight=2216 400 1816 688 1128 672 283 318 456 265 495 375 216 370 239 263
internal_count=2216 400 1816 688 1128 672 283 318 456 265 495 375 216 370 239 263
cat_boundaries=0 1 2 3 4 5 6 7 8
cat_threshold=2485716033 672372105 1424132336 339550750 17041986 184586240 135336072 1052808
is_linear=0
shrinkage=0.05


Tree=46
num_leaves=18
num_cat=8
split_feature=39 65 75 65 66 66 69 74 65 74 66 38 13 67 65 65 69
split_gain=41.6594 14.8854 12.1641 11.0785 13.3497 13.2916 6.30646 10.3827 8.80964 6.20741 6.22889 4.26204 3.53807 3.45954 9.06407 6.84434 2.87158
threshold=31.566313743591312 0 57.041868209838874 1 2 3 14.500000000000002 53.150001525878913 4 64.670001983642592 5 2.744086861610413 135.10562133789065 1.0000000180025095e-35 6 7 10.500000000000002
decision_type=2 1 2 1 1 1 2 2 1 2 1 2 2 2 1 1 2
left_child=1 -1 3 5 13 9 7 -6 -9 10 -2 -3 16 15 -15 -5 -7
right_child=2 11 -4 4 6 12 -8 8 -10 -11 -12 -13 -14 14 -16 -17 -18
leaf_value=0.082937701950052845 0.027141691059633644 -1.0639359358667624 -0.85484563138304004 -1.489446496103767 1.3721576237636108 1.4267297209819958 -0.39178086143700314 -0.29502291951437626 0.54435603870195526 0.57839346379305001 -0.48181978383135943 -1.0076274149657853 0.18699072684034662 0.56582339219092004 -0.67769224266058792 -0.068250838581837323 0.74457205929066683
leaf_weight=105 108 176 101 117 102 133 119 111 192 115 102 142 103 103 147 130 128
leaf_count=105 108 176 101 117 102 133 119 111 192 115 102 142 103 103 147 130 128
internal_value=-0.00277529 -0.0169031 0.000524572 0.00152047 -0.00179437 0.00636624 0.00374532 0.00679012 0.00214521 -0.00104478 -0.00619048 -0.0219512 0.0128342 -0.00759369 -0.0036 -0.0119433 0.0162835
internal_weight=2234 423 1811 1710 1021 689 524 405 303 325 210 318 364 497 250 247 261
internal_count=2234 423 1811 1710 1021 689 524 405 303 325 210 318 364 497 250 247 261
cat_boundaries=0 1 2 3 4 5 6 7 8
cat_threshold=2418016593 704830093 918348612 2629895929 1409549346 402653889 85722176 2232951872
is_linear=0
shrinkage=0.05


Tree=47
num_leaves=16
num_cat=4
split_feature=64 59 75 38 76 75 66 27 75 75 66 68 74 69 66
split_gain=83.5501 9.73327 11.8262 10.3725 8.20136 7.98994 6.04009 6.23058 6.58671 7.64802 9.82565 4.56064 4.48808 3.82675 3.76087
threshold=0 8.5816645622253436 49.548133850097663 2.744086861610413 0.15000000223517421 25.165529251098636 1 85.54016494750978 33.442192077636726 24.718143463134769 2 2020.5000000000002 68.270000457763686 12.500000000000002 3
decision_type=9 2 2 2 2 2 1 2 2 2 1 2 2 2 1
left_child=1 3 4 -1 6 -6 13 8 9 10 -8 -9 -12 14 -3
right_child=-2 2 -4 -5 5 -7 7 11 -10 -11 12 -13 -14 -15 -16
leaf_value=-1.8866203530402565 -0.95731287515068031 0.16208123106134098 -0.47397013040039443 0.33897787598382828 0.2046292632701622 -0.48218242209454304 1.0291807825257082 1.4130785137441764 0.88347113720944037 -0.8893697624430047 -0.16527624894820436 0.48096399943862594 0.43709627616629237 0.52747007751534203 -0.54768814804584742
leaf_weight=170 195 110 164 100 119 106 123 189 107 114 155 197 133 120 120
leaf_count=170 195 110 164 100 119 106 123 189 107 114 155 197 133 120 120
internal_value=-0.0020252 0.00105547 0.0024189 -0.00777778 0.00373509 -0.00511111 0.00519006 0.00710117 0.00411392 0.00180952 0.00498783 0.0121762 -0.00033557 -0.000555556 -0.00434783
internal_weight=2222 2027 1757 270 1593 225 1368 1018 632 525 411 386 288 350 230
internal_count=2222 2027 1757 270 1593 225 1368 1018 632 525 411 386 288 350 230
cat_boundaries=0 1 2 3 4
cat_threshold=32 304154336 201725960 67200
is_linear=0
shrinkage=0.05


Tree=48
num_leaves=17
num_cat=9
split_feature=64 65 66 66 65 65 15 69 59 65 75 66 65 8 75 59
split_gain=69.5963 8.43444 15.3603 14.7558 8.89733 8.76497 5.8607 5.6467 5.56008 8.80847 3.96263 4.66077 5.44675 3.39103 2.06911 1.63604
threshold=0 1 2 3 4 5 80.373699188232436 11.500000000000002 16.749745368957523 6 11.967607498168947 7 8 75.281513214111342 20.915351867675785 17.01203536987305
decision_type=9 1 1 1 1 1 2 2 2 1 2 1 1 2 2 2
left_child=1 2 5 10 6 14 -4 -7 9 -5 -3 -12 -13 -10 -1 -6
right_child=-2 3 4 8 15 7 -8 -9 13 -11 11 12 -14 -15 -16 -17
leaf_value=1.7898908285207498 -0.9066318053480974 -0.8265908862031921 -0.84259716848716626 -0.25762098570299868 0.33071765596154035 0.38604272767414899 -0.25129491071321297 -0.40370341843251939 -0.30372701059599339 1.1066113684164443 -1.0186448668477881 0.26577964797817233 -0.39971646704214553 0.30084684833521325 0.95364421398806776 -0.00095790432353979335
leaf_weight=117 194 138 124 122 100 167 133 130 100 162 105 115 157 108 100 102
leaf_count=117 194 138 124 122 100 167 133 130 100 162 105 115 157 108 100 102
internal_value=-0.00308188 -0.000201005 0.00310275 -0.00339233 -0.00351812 0.00896947 -0.00955056 0.00309446 0.00278884 0.00739437 -0.0092381 -0.00676393 -0.00283688 -0.00336538 0.0165198 0.00424528
internal_weight=2174 1980 973 1007 459 514 257 297 492 284 515 377 272 208 217 202
internal_count=2174 1980 973 1007 459 514 257 297 492 284 515 377 272 208 217 202
cat_boundaries=0 1 2 3 4 5 6 7 8 9
cat_threshold=32 966769153 2595102282 3069117516 807147521 806131712 2220884996 336068616 2254438468
is_linear=0
shrinkage=0.05


Tree=49
num_leaves=17
num_cat=8
split_feature=64 76 69 65 65 66 66 74 21 65 66 65 59 74 69 29
split_gain=72.5773 11.2171 12.6881 14.5815 10.7817 18.6219 14.8767 11.4723 9.89349 4.48236 4.02578 2.92756 2.7004 2.64472 1.66834 1.612
threshold=0 0.75000000000000011 5.5000000000000009 1 2 3 4 49.189998626708991 82.618991851806655 5 6 7 16.851269721984867 48.11000061035157 3.5000000000000004 69.901386260986342
decision_type=9 2 2 1 1 1 1 2 2 1 1 1 2 2 2 2
left_child=1 2 3 11 6 7 12 -6 9 -7 -8 -1 -4 -11 -5 -9
right_child=-2 -3 4 14 5 8 10 15 -10 13 -12 -13 -14 -15 -16 -17
leaf_value=0.29837535838036544 -0.87203486325406887 -0.54027745999785992 1.5068520731940254 1.3146206037016797 -0.026289380608815097 0.30271909284414278 0.17468453733454795 -1.7627171449658712 0.86860290792333361 -0.13890612888665857 -0.45835691068741941 -0.37869381562872068 0.64223189116509616 -1.1370142893403596 0.48313520800552184 -0.57999492338965986
leaf_weight=110 185 175 109 169 106 107 115 106 192 124 175 115 106 121 114 102
leaf_count=110 185 175 109 169 106 107 115 106 192 124 175 115 106 121 114 102
internal_value=-0.00239803 0.000389105 0.00152325 0.00826772 -0.000990462 -0.00437788 0.00475728 -0.0138889 0.00126354 -0.00369318 -0.00266667 -0.00148936 0.0144444 -0.0072549 0.015529 -0.0211538
internal_weight=2231 2046 1871 508 1363 858 505 314 544 352 290 225 215 245 283 208
internal_count=2231 2046 1871 508 1363 858 505 314 544 352 290 225 215 245 283 208
cat_boundaries=0 1 2 3 4 5 6 7 8
cat_threshold=32 325863266 823957001 954663458 549205291 6310160 1514275328 302792770
is_linear=0
shrinkage=0.05


Tree=50
num_leaves=17
num_cat=9
split_feature=64 76 65 66 66 65 74 75 75 21 65 69 66 25 66 65
split_gain=60.7346 9.24993 13.6628 14.9213 13.2174 8.17314 7.62881 10.8678 6.39105 6.29311 5.18264 4.83755 4.30504 4.12746 3.34364 2.5503
threshold=0 0.15000000223517421 1 2 3 4 45.770000457763679 26.283998489379886 25.165529251098636 83.16031646728517 5 8.5000000000000018 6 162.42044830322268 7 8
decision_type=9 2 1 1 1 1 2 2 2 2 1 2 1 2 1 1
left_child=1 2 4 10 9 14 -7 12 -3 15 -4 -6 -8 -12 -5 -1
right_child=-2 8 3 5 11 6 7 -9 -10 -11 13 -13 -14 -15 -16 -17
leaf_value=0.40561835907110294 -0.82843312009136538 0.026565123952886439 -0.30987271265807126 0.39773622907004269 -0.17178628159719339 -0.39867603330842205 -0.2135442768643884 1.2742516736394336 -0.5201739560561599 0.64910755350745009 0.65926076755685303 -1.0845320441151174 0.67575485841230509 -0.051967487462349027 1.6519568800892195 -0.67383503689844282
leaf_weight=113 189 143 125 109 140 104 103 107 174 101 138 182 130 109 135 112
leaf_count=113 189 143 125 109 140 104 103 107 174 101 138 182 130 109 135 112
internal_value=-0.00153568 0.00105651 0.00251756 0.00598131 -0.00319149 0.0103152 0.00594714 0.00970588 -0.00678233 0.00386905 -0.00209424 -0.010241 0.00364807 0.00214008 0.0177165 -0.000666667
internal_weight=2214 2025 1708 1060 648 688 444 340 317 326 372 322 233 247 244 225
internal_count=2214 2025 1708 1060 648 688 444 340 317 326 372 322 233 247 244 225
cat_boundaries=0 1 2 3 4 5 6 7 8 9
cat_threshold=32 1173364790 2429635008 3972013909 2952825864 2449572864 135699 1258816033 1101004848
is_linear=0
shrinkage=0.05


Tree=51
num_leaves=17
num_cat=7
split_feature=64 66 65 75 65 66 49 75 66 29 75 59 69 47 65 69
split_gain=52.5649 8.42345 9.30205 7.33719 8.1209 9.65568 7.05453 6.14062 5.90078 5.65762 4.77444 4.36213 3.30756 3.09433 2.08109 4.70821
threshold=0 1 2 51.561374664306648 3 4 47.842401504516609 22.704900741577152 5 73.662200927734389 20.467964172363285 14.816439628601076 8.5000000000000018 65.555980682373061 6 9.5000000000000018
decision_type=9 1 1 2 1 1 2 2 1 2 2 2 2 2 1 2
left_child=1 2 14 4 8 10 -4 12 13 11 -6 -10 -7 -3 -1 -16
right_child=-2 3 6 -5 5 7 -8 -9 9 -11 -12 -13 -14 -15 15 -17
leaf_value=-0.25448158465431447 -0.77902541102528533 0.37297370373186145 0.037503731969562186 -0.67675259040951519 0.64661714286283289 -0.18508604425597072 1.3069255689589712 -0.078723490606050467 0.50405696181984616 1.2578737595902241 -0.14601940602128424 -0.046332154173631325 -0.74334559639679298 -0.3767437417243315 0.6561395865106846 -0.18334575981209086
leaf_weight=105 192 107 109 110 156 100 187 118 118 120 169 162 125 109 106 118
leaf_count=105 192 107 109 110 156 100 187 118 118 120 169 162 125 109 106 118
internal_value=-0.00241972 2.46427e-05 0.00480315 -0.00213675 -0.00109034 -0.00486726 0.0111111 -0.0106232 0.00303514 0.00658537 0.00134328 0.00285714 -0.0157778 -0.00353982 -0.00103245 0.0017094
internal_weight=2211 2019 625 1394 1284 668 296 343 616 400 325 280 225 216 329 224
internal_count=2211 2019 625 1394 1284 668 296 343 616 400 325 280 225 216 329 224
cat_boundaries=0 1 2 3 4 5 6 7
cat_threshold=32 1762423808 1458335825 1067211273 68258107 268438325 369631232
is_linear=0
shrinkage=0.05


end of trees

feature_importances:
opponent=180
posteam=173
week=65
temp_effective=55
wind_effective=53
position=45
passE_59=40
season=31
passE_31=18
passE_45=14
passE_29=13
home_indicator=12
passE_49=11
passE_58=10
history_length=10
passE_21=8
passE_47=7
passE_48=7
passE_51=7
passE_3=6
passE_8=6
passE_22=6
passE_38=6
passE_63=6
passE_13=5
passE_15=5
passE_25=5
passE_39=5
passE_40=5
surface=5
passE_27=4
passE_56=4
precip_3h_mm=4
passE_2=3
passE_11=3
passE_18=3
passE_24=3
passE_43=3
passE_57=3
passE_37=2
roof=2
passE_6=1
passE_44=1
passE_52=1
passE_62=1

parameters:
[boosting: gbdt]
[objective: regression_l1]
[metric: l1,l2]
[tree_learner: serial]
[device_type: cpu]
[data_sample_strategy: bagging]
[data: ]
[valid: ]
[num_iterations: 5000]
[learning_rate: 0.05]
[num_leaves: 127]
[num_threads: 0]
[seed: 42]
[deterministic: 0]
[force_col_wise: 0]
[force_row_wise: 0]
[histogram_pool_size: -1]
[max_depth: -1]
[min_data_in_leaf: 100]
[min_sum_hessian_in_leaf: 0.001]
[bagging_fraction: 0.8]
[pos_bagging_fraction: 1]
[neg_bagging_fraction: 1]
[bagging_freq: 1]
[bagging_seed: 400]
[bagging_by_query: 0]
[feature_fraction: 0.9]
[feature_fraction_bynode: 1]
[feature_fraction_seed: 30056]
[extra_trees: 0]
[extra_seed: 12879]
[early_stopping_round: 0]
[early_stopping_min_delta: 0]
[first_metric_only: 0]
[max_delta_step: 0]
[lambda_l1: 0]
[lambda_l2: 0]
[linear_lambda: 0]
[min_gain_to_split: 0]
[drop_rate: 0.1]
[max_drop: 50]
[skip_drop: 0.5]
[xgboost_dart_mode: 0]
[uniform_drop: 0]
[drop_seed: 17869]
[top_rate: 0.2]
[other_rate: 0.1]
[min_data_per_group: 100]
[max_cat_threshold: 32]
[cat_l2: 10]
[cat_smooth: 10]
[max_cat_to_onehot: 4]
[top_k: 20]
[monotone_constraints: ]
[monotone_constraints_method: basic]
[monotone_penalty: 0]
[feature_contri: ]
[forcedsplits_filename: ]
[refit_decay_rate: 0.9]
[cegb_tradeoff: 1]
[cegb_penalty_split: 0]
[cegb_penalty_feature_lazy: ]
[cegb_penalty_feature_coupled: ]
[path_smooth: 0]
[interaction_constraints: ]
[verbosity: -1]
[saved_feature_importance_type: 0]
[use_quantized_grad: 0]
[num_grad_quant_bins: 4]
[quant_train_renew_leaf: 0]
[stochastic_rounding: 1]
[linear_tree: 0]
[max_bin: 255]
[max_bin_by_feature: ]
[min_data_in_bin: 3]
[bin_construct_sample_cnt: 200000]
[data_random_seed: 175]
[is_enable_sparse: 1]
[enable_bundle: 1]
[use_missing: 1]
[zero_as_missing: 0]
[feature_pre_filter: 1]
[pre_partition: 0]
[two_round: 0]
[header: 0]
[label_column: ]
[weight_column: ]
[group_column: ]
[ignore_column: ]
[categorical_feature: 64,65,66,71,72]
[forcedbins_filename: ]
[precise_float_parser: 0]
[parser_config_file: ]
[objective_seed: 16083]
[num_class: 1]
[is_unbalance: 0]
[scale_pos_weight: 1]
[sigmoid: 1]
[boost_from_average: 1]
[reg_sqrt: 0]
[alpha: 0.9]
[fair_c: 1]
[poisson_max_delta_step: 0.7]
[tweedie_variance_power: 1.5]
[lambdarank_truncation_level: 30]
[lambdarank_norm: 1]
[label_gain: ]
[lambdarank_position_bias_regularization: 0]
[eval_at: ]
[multi_error_top_k: 1]
[auc_mu_weights: ]
[num_machines: 1]
[local_listen_port: 12400]
[time_out: 120]
[machine_list_filename: ]
[machines: ]
[gpu_platform_id: -1]
[gpu_device_id: -1]
[gpu_use_dp: 0]
[num_gpu: 1]

end of parameters

pandas_categorical:[["DB", "K", "LB", "OL", "P", "QB", "RB", "TE", "WR"], ["ARI", "ATL", "BAL", "BUF", "CAR", "CHI", "CIN", "CLE", "DAL", "DEN", "DET", "GB", "HOU", "IND", "JAX", "KC", "LA", "LAC", "LV", "MIA", "MIN", "NE", "NO", "NYG", "NYJ", "PHI", "PIT", "SEA", "SF", "TB", "TEN", "WAS"], ["ARI", "ATL", "BAL", "BUF", "CAR", "CHI", "CIN", "CLE", "DAL", "DEN", "DET", "GB", "HOU", "IND", "JAX", "KC", "LAC", "LAR", "LV", "MIA", "MIN", "NE", "NO", "NYG", "NYJ", "PHI", "PIT", "SEA", "SF", "TB", "TEN", "WAS"], ["closed", "dome", "outdoors"], ["grass", "turf"]]
