tree
version=v4
num_class=1
num_tree_per_iteration=1
label_index=0
max_feature_idx=70
objective=regression_l1
feature_names=passE_0 passE_1 passE_2 passE_3 passE_4 passE_5 passE_6 passE_7 passE_8 passE_9 passE_10 passE_11 passE_12 passE_13 passE_14 passE_15 passE_16 passE_17 passE_18 passE_19 passE_20 passE_21 passE_22 passE_23 passE_24 passE_25 passE_26 passE_27 passE_28 passE_29 passE_30 passE_31 passE_32 passE_33 passE_34 passE_35 passE_36 passE_37 passE_38 passE_39 passE_40 passE_41 passE_42 passE_43 passE_44 passE_45 passE_46 passE_47 passE_48 passE_49 passE_50 passE_51 passE_52 passE_53 passE_54 passE_55 passE_56 passE_57 passE_58 passE_59 passE_60 passE_61 passE_62 passE_63 position posteam opponent home_indicator season week history_length
feature_infos=none none [0.35449928045272827:105.62667846679688] [6.1462397575378418:169.23695373535156] none none [9.6425333023071289:181.34333801269531] none [2.3394408226013184:101.18753051757812] none none [9.6382656097412109:141.24623107910156] none [13.575679779052734:174.0633544921875] none [4.166083812713623:115.82958221435547] none none [8.5854978561401367:155.30177307128906] none none [2.8661148548126221:117.82731628417969] [18.60228157043457:207.52188110351562] none [4.7822909355163574:128.00466918945312] [14.73360538482666:226.93319702148438] none [8.4164772033691406:116.27154541015625] none [1.324769139289856:101.25462341308594] none [1.436490535736084:70.092643737792969] none none none none none [6.0181779861450195:106.22605133056641] [0:5.3514008522033691] [4.579801082611084:84.172660827636719] [6.5934200286865234:114.84986877441406] none none [12.021876335144043:166.59457397460938] [15.916166305541992:190.68113708496094] [1.6124129295349121:122.47137451171875] none [0.96848827600479126:95.474838256835938] [11.270721435546875:152.99563598632812] [3.986198902130127:71.615623474121094] none [5.5669097900390625:67.73565673828125] [9.7220745086669922:169.76445007324219] none none none [3.8376967906951904:106.86387634277344] [5.2978019714355469:114.43248748779297] [9.1267175674438477:137.56704711914062] [0:25.167943954467773] none none [8.7381086349487305:148.70248413085938] [7.0200023651123047:126.74534606933594] -1:5:8:4:6:7:0 -1:22:19:28:15:3:30:16:2:23:8:20:6:21:12:25:4:7:24:29:0:26:31:5:10:11:9:14:13:17:18:1:27 -1:29:28:15:8:6:16:2:25:30:1:24:11:7:20:3:21:23:26:12:17:27:14:4:13:19:22:31:10:0:5:9:18 [0:1] [2019:2022] [1:22] [0:6]
tree_sizes=1524 1572 1559 1493 1747 1671 1597 1660 1754 1666 1681 1581 1652 1568 1647 1667 1662 1675 1677 1591 1586 1589 1598 1601 1670 1521 1658 1777 1692 1684 1582 1674 1671 1666 1521 1587 1512 1601 1603 1675 1586 1674 1592 1595 1668 1693 1506 1667 1602 1770 1602 1444 1596 1615

Tree=0
num_leaves=18
num_cat=7
split_feature=49 65 66 57 64 69 66 69 63 65 51 65 67 69 65 49 59
split_gain=371.251 71.1561 26.6016 24.4269 21.0737 12.6701 12.1228 8.9194 12.6762 8.7729 6.40326 5.8258 3.70613 3.67544 5.41493 3.125 0.472305
threshold=40.597539901733406 0 1 76.762413024902358 2 13.500000000000002 3 4.5000000000000009 37.72441482543946 4 50.833122253417976 5 1.0000000180025095e-35 5.5000000000000009 6 49.52092361450196 19.534847259521488
decision_type=2 1 1 2 9 2 1 2 2 1 2 1 2 2 1 2 2
left_child=4 2 11 -3 7 9 10 -1 -9 -4 -5 -2 -10 -8 -15 -11 -12
right_child=1 3 5 6 -6 -7 13 8 12 15 16 -13 -14 14 -16 -17 -18
leaf_value=211.65000000000001 211.32499999999999 213.80000000000001 213.25 215.77500000000001 202.34999999999999 212.75 215.65000000000001 204 209.15000000000001 214.94999999999999 216.625 212.47499999999999 211.25 215 213.94999999999999 214.09999999999999 217.15000000000001
leaf_weight=107 116 179 113 104 193 143 102 129 101 100 106 124 102 105 158 100 115
leaf_count=107 116 179 113 104 193 143 102 129 101 100 106 124 102 105 158 100 115
internal_value=213 213.013 213.001 213.022 212.967 213.008 213.027 212.975 212.971 213.013 213.034 212.987 212.979 213.018 213.016 213.019 213.04
internal_weight=2197 1565 696 869 632 456 690 439 332 313 325 240 203 365 263 200 221
internal_count=2197 1565 696 869 632 456 690 439 332 313 325 240 203 365 263 200 221
cat_boundaries=0 1 2 3 4 5 6 7
cat_threshold=3353887412 841163528 32 1250753611 27263012 3272081412 940607488
is_linear=0
shrinkage=1


Tree=1
num_leaves=17
num_cat=5
split_feature=31 31 66 66 29 58 59 66 69 58 69 59 66 44 66 69
split_gain=353.146 66.7187 37.315 22.8621 19.9634 10.7697 10.668 9.14097 12.5057 4.75182 4.67394 5.06943 3.41716 2.96304 2.24638 0.198873
threshold=37.086643218994148 47.300909042358406 0 1 37.190143585205085 86.447708129882827 18.379673004150394 2 8.5000000000000018 101.11622619628908 5.5000000000000009 5.880164861679078 3 151.06571960449222 4 13.500000000000002
decision_type=2 2 1 1 2 2 2 1 2 2 2 2 1 2 1 2
left_child=4 2 5 9 10 -2 12 -4 -9 -3 -1 15 -5 -8 -11 -12
right_child=1 3 7 6 -6 -7 13 8 -10 14 11 -13 -14 -15 -16 -17
leaf_value=-8.3087500000000016 0.40750000000000031 0.26250000000000001 -1.7974999999999994 1.1356250000000003 -1.3325000000000005 1.7025000000000006 2.453125 1.0099999999999996 -1.0768749999999998 0.5 -10.008750000000001 -7.7125000000000004 2.1612499999999999 3.4187500000000002 2.0025000000000008 -9.3175000000000008
leaf_weight=122 132 163 111 110 132 101 116 101 150 101 118 112 159 177 183 109
leaf_count=122 132 163 111 110 132 101 116 101 150 101 118 112 159 177 183 109
internal_value=-0.000842057 0.0113466 -0.00193277 0.0191774 -0.0338111 0.0133745 0.0258741 -0.011828 -0.0059387 0.00995624 -0.0387202 -0.0417404 0.019145 0.0329352 0.0140845 -0.0460352
internal_weight=2197 1604 595 1009 593 233 562 362 251 447 461 339 269 293 284 227
internal_count=2197 1604 595 1009 593 233 562 362 251 447 461 339 269 293 284 227
cat_boundaries=0 1 2 3 4 5
cat_threshold=1837144133 913507220 301990680 2172698696 539099396
is_linear=0
shrinkage=0.05


Tree=2
num_leaves=17
num_cat=7
split_feature=63 65 66 64 31 45 65 66 65 69 68 63 69 65 2 3
split_gain=313.219 70.1522 32.7002 21.4425 20.4723 14.1221 10.6158 10.1061 9.80879 7.20042 6.97412 8.02491 5.56568 4.55316 1.30875 0.18
threshold=64.612010955810561 0 1 2 47.61889839172364 78.349975585937514 3 4 5 7.5000000000000009 2019.5000000000002 37.72441482543946 5.5000000000000009 6 82.86023330688478 120.71444320678712
decision_type=2 1 1 9 2 2 1 1 1 2 2 2 2 1 2 2
left_child=3 4 6 10 -2 8 -3 14 -4 -7 -1 -12 -9 -14 -6 -11
right_child=1 2 5 -5 7 9 -8 12 -10 15 11 -13 13 -15 -16 -17
leaf_value=-1.8158749999999999 0.40112499999999901 -1.3163749999999994 -1.3303124999999996 -9.6170625000000012 3.2569375000000003 2.1265312500000002 -0.51199999999999901 2.617375 0.61110937500000029 0.36601562500000073 -7.8843437499999993 -2.0768749999999998 1.0498750000000001 2.1977968750000003 4.2215625000000001 1.2377656250000002
leaf_weight=109 163 121 102 182 100 130 194 103 142 100 122 137 113 156 101 100
leaf_count=109 163 121 102 182 100 130 194 103 142 100 122 137 113 156 101 100
internal_value=6.89655e-05 0.0111077 0.00150167 -0.0325455 0.0223861 0.00856164 -0.0112308 0.0271379 -0.000409836 0.0154545 -0.0232804 -0.0283784 0.0201571 0.0169145 0.0372038 0.0095
internal_weight=2175 1625 889 550 736 574 315 573 244 330 368 259 372 269 201 200
internal_count=2175 1625 889 550 736 574 315 573 244 330 368 259 372 269 201 200
cat_boundaries=0 1 2 3 4 5 6 7
cat_threshold=941067594 375587640 32 3229638692 1242068568 96473136 1378314
is_linear=0
shrinkage=0.05


Tree=3
num_leaves=16
num_cat=7
split_feature=31 65 66 64 31 66 65 65 68 2 69 49 65 3 69
split_gain=301.615 63.2457 29.9729 29.8442 13.4679 12.633 11.9483 9.41331 7.74629 7.78914 7.42993 5.94286 5.53768 5.29932 3.82845
threshold=37.086643218994148 0 1 2 47.300909042358406 3 4 5 2019.5000000000002 28.598042488098148 10.500000000000002 56.327768325805671 6 117.28893661499025 10.500000000000002
decision_type=2 1 1 9 2 1 1 1 2 2 2 2 1 2 2
left_child=3 5 10 8 7 14 -6 -4 -1 -10 12 -7 -3 -12 -2
right_child=1 2 4 -5 6 11 -8 -9 9 -11 13 -13 -14 -15 -16
leaf_value=-1.3561749999999997 2.3404593749999996 0.74907421875000191 -0.08880624999999967 -9.136209375 1.4216937500000002 2.0148921875000001 -0.47499374999999877 -1.718056250000001 -6.7976265624999996 -2.0902749999999997 -0.011017578124999261 3.5340156250000003 2.1380781249999998 1.1932976562500002 0.77183437500000029
leaf_weight=102 108 115 100 189 103 156 165 157 132 169 154 180 172 107 102
leaf_count=102 108 115 100 189 103 156 165 157 132 169 154 180 172 107 102
internal_value=-0.000203528 0.0109636 0.00373961 -0.0307432 -0.00476636 0.0246403 0.00298507 -0.013035 -0.0211864 -0.0257475 0.011828 0.0312139 0.0175958 0.0059387 0.0131818
internal_weight=2211 1619 1073 592 525 546 268 257 403 301 548 336 287 261 210
internal_count=2211 1619 1073 592 525 546 268 257 403 301 548 336 287 261 210
cat_boundaries=0 1 2 3 4 5 6 7
cat_threshold=538413378 3919420481 32 2491353092 205526160 3258990724 2453668020
is_linear=0
shrinkage=0.05


Tree=4
num_leaves=19
num_cat=8
split_feature=31 65 64 66 66 49 66 56 65 51 65 45 65 69 51 39 48 29
split_gain=299.481 71.2012 28.4175 24.4329 21.5426 14.8624 12.4833 10.0445 8.46518 6.45791 6.10274 6.1681 5.67839 3.04718 2.88 2.13565 1.23786 0.810277
threshold=37.086643218994148 0 1 2 3 51.335269927978523 4 74.924385070800795 5 50.032361984252937 6 81.967876434326186 7 9.5000000000000018 43.588659286499031 27.259175300598148 100.97966766357423 81.448589324951186
decision_type=2 1 9 1 1 2 1 2 1 2 1 2 1 2 2 2 2 2
left_child=2 4 6 7 5 -2 13 8 -3 -6 11 -5 -7 -1 -10 -8 -12 -11
right_child=1 3 -4 10 9 12 15 -9 14 17 16 -13 -14 -15 -16 -17 -18 -19
leaf_value=-4.4453662499999993 -0.2459481054687494 -0.6410542187499999 -8.6793989062500003 -0.89496919921874962 1.8126648437499995 2.9229621875000009 -3.8000264843750005 1.7911373242187503 0.30449545898437624 3.0273015624999999 -1.2934624218750004 0.49411687500000101 1.1510337890625011 -6.3677171093750005 1.1529794433593759 -1.8685175000000003 -1.0038673632812498 2.6736707812500002
leaf_weight=106 100 101 190 102 149 117 101 126 100 155 112 114 126 104 100 105 110 121
leaf_count=106 100 101 190 102 149 117 101 126 100 155 112 114 126 104 100 105 110 121
internal_value=-0.00100491 0.0101347 -0.0310231 0.000171429 0.0210797 0.0109065 -0.021831 0.00858124 0.0038206 0.0288506 -0.00803571 -0.00176991 0.0179012 -0.0309091 0.00952381 -0.0115741 -0.0137931 0.034058
internal_weight=2239 1633 606 865 768 343 416 427 301 425 438 216 243 210 200 206 222 276
internal_count=2239 1633 606 865 768 343 416 427 301 425 438 216 243 210 200 206 222 276
cat_boundaries=0 1 2 3 4 5 6 7 8
cat_threshold=672632139 32 3368852707 2507342388 4135799068 10490004 350229136 537953538
is_linear=0
shrinkage=0.05


Tree=5
num_leaves=18
num_cat=6
split_feature=31 65 64 66 45 66 66 13 69 59 59 59 70 66 69 24 48
split_gain=270.871 60.9264 33.1457 32.2485 21.4502 12.1155 11.7823 10.4098 8.63697 7.91534 6.30616 6.15426 4.53097 4.30326 3.09668 1.45062 0.214571
threshold=37.086643218994148 0 1 2 89.768272399902358 3 4 112.71493911743165 13.500000000000002 15.717465400695803 17.644235610961918 7.592393398284913 1.5000000000000002 5 9.5000000000000018 104.28438186645509 107.11082077026369
decision_type=2 1 9 1 2 1 1 2 2 2 2 2 2 1 2 2 2
left_child=2 3 11 9 6 14 -3 -8 13 -2 -11 12 -1 -5 -6 -7 -9
right_child=1 4 -4 8 5 15 7 16 -10 10 -12 -13 -14 -15 -16 -17 -18
leaf_value=-3.9600251601562508 -1.6268893525390624 -0.32854053125000038 -8.2454289609375007 0.56952134033203239 2.086389741210938 2.5327516796875003 0.27819089843749795 1.3460055234375006 -0.21027856201171888 0.048465013916015924 -1.1241061562499994 -1.5429866171875 -6.9972582070312503 0.95373371972656296 1.0119192968750015 3.2251000546875006 1.6523525195312503
leaf_weight=113 120 105 189 105 108 162 107 101 111 112 101 176 113 163 103 120 100
leaf_count=113 120 105 189 105 108 162 107 101 111 112 101 176 113 163 103 120 100
internal_value=-0.00106383 0.00951792 -0.0300338 -0.00152355 0.0180131 0.0252535 0.0098063 0.0144654 0.00835476 -0.0126822 -0.007277 -0.0201456 -0.0261062 0.0134328 0.0138009 0.0321918 0.0216418
internal_weight=2209 1618 591 712 906 493 413 308 379 333 213 402 226 268 211 282 201
internal_count=2209 1618 591 712 906 493 413 308 379 333 213 402 226 268 211 282 201
cat_boundaries=0 1 2 3 4 5 6
cat_threshold=3349701300 32 304865598 2977442212 369246740 617613824
is_linear=0
shrinkage=0.05


Tree=6
num_leaves=17
num_cat=5
split_feature=48 65 66 66 48 59 69 69 43 59 65 58 69 58 65 68
split_gain=245.958 58.4532 29.3561 18.744 14.2893 13.772 10.1837 9.25138 9.55888 4.28044 3.95179 3.41063 3.29998 3.29083 2.66531 1.63389
threshold=78.455390930175795 0 1 2 105.54335784912111 7.592393398284913 5.5000000000000009 5.5000000000000009 118.21633911132814 4.0978777408599862 3 96.156269073486342 5.5000000000000009 90.725177764892592 4 2020.5000000000002
decision_type=2 1 1 1 2 2 2 2 2 2 1 2 2 2 1 2
left_child=5 3 13 11 -5 6 -1 -4 10 -8 -9 -2 -6 -3 -13 -14
right_child=1 2 7 4 12 -7 9 8 -10 -11 -12 14 15 -15 -16 -17
leaf_value=-6.3626944138671879 0.13727260654296955 0.44984516353759718 0.11563124140625121 1.0234806912597656 3.2888450519531265 -1.7565641691406257 -7.6331575128906257 -0.37854034565429517 0.00081402753906303362 -6.997970012890625 -1.8610413175292977 0.71293439453125207 3.0685770754394528 1.2145321143798846 1.5862962930664068 2.1832192128906271
leaf_weight=113 102 158 129 130 103 162 162 101 101 111 127 106 147 164 126 143
leaf_count=113 102 158 129 130 103 162 162 101 101 111 127 106 147 164 126 143
internal_value=0.000709382 0.0104154 0.000379747 0.0193195 0.0254221 -0.0282847 -0.0334197 -0.00769231 -0.01231 -0.0386447 -0.0179825 0.00930233 0.0306616 0.011747 0.012931 0.027931
internal_weight=2185 1637 780 857 523 548 386 458 329 273 228 334 393 322 232 290
internal_count=2185 1637 780 857 523 548 386 458 329 273 228 334 393 322 232 290
cat_boundaries=0 1 2 3 4 5
cat_threshold=941071691 1637097057 2439121588 1113604736 135596352
is_linear=0
shrinkage=0.05


Tree=7
num_leaves=18
num_cat=9
split_feature=8 63 64 65 66 66 66 45 69 65 69 66 65 47 65 31 49
split_gain=234.071 46.8471 34.0086 27.1766 19.5157 17.5572 12.1905 10.9851 8.5838 6.21637 5.78228 7.17216 4.43201 3.86735 2.94446 2.47956 2.43863
threshold=52.139574050903327 86.256034851074233 0 1 2 3 4 75.54346084594728 6.5000000000000009 5 7.5000000000000009 6 7 26.2037467956543 8 53.934331893920906 45.885828018188484
decision_type=2 2 9 1 1 1 1 2 2 1 2 1 1 2 1 2 2
left_child=2 4 6 12 7 14 -1 -2 -6 -7 -11 -12 -3 -8 -5 -16 -10
right_child=1 3 -4 5 8 9 13 -9 16 10 11 -13 -14 -15 15 -17 -18
leaf_value=-5.8326541052148437 -0.19073809211242576 0.65764476737670918 -7.4514996372460942 1.7793314045837407 0.15496926886810344 2.1007010173217782 -3.9610186020263671 1.5330665673120116 -1.6371433364843746 2.0527051927148441 0.86749515722656412 -0.30333941272582909 -0.6445547274859621 -0.48707036693359318 2.2215667678710931 2.9318048729028328 -0.98971765851928739
leaf_weight=102 181 117 181 107 102 115 152 154 108 110 107 102 110 110 103 128 116
leaf_count=102 181 117 181 107 102 115 152 154 108 110 107 102 110 110 103 128 116
internal_value=-0.00120181 0.00813253 -0.029633 0.014965 -0.00219365 0.0193095 -0.018984 0.00623188 -0.0107143 0.0119369 0.00775076 0.00311005 -0.000632911 -0.0121324 0.0281609 0.0329876 -0.0165179
internal_weight=2205 1660 545 999 661 772 364 335 326 434 319 209 227 262 338 231 224
internal_count=2205 1660 545 999 661 772 364 335 326 434 319 209 227 262 338 231 224
cat_boundaries=0 1 2 3 4 5 6 7 8 9
cat_threshold=32 3265807012 1838480449 1217199689 3525380098 536904960 812712064 11026944 201367561
is_linear=0
shrinkage=0.05


Tree=8
num_leaves=19
num_cat=10
split_feature=40 40 66 64 65 65 66 66 65 65 66 15 65 70 43 27 39 67
split_gain=254.325 59.9196 25.6776 23.358 20.4752 15.5289 10.6811 10.0873 8.10543 7.80365 7.47142 4.76996 4.36667 3.88776 1.46526 1.15032 0.963034 0.49505
threshold=48.31933784484864 84.394969940185561 0 1 2 3 4 5 6 7 8 74.50089263916017 9 2.5000000000000004 131.12171936035159 89.98215484619142 69.823532104492202 1.0000000180025095e-35
decision_type=2 2 1 9 1 1 1 1 1 1 1 2 1 2 2 2 2 2
left_child=3 2 9 13 10 14 8 -7 -6 -2 -4 -8 -12 -1 -3 -9 -16 -11
right_child=1 5 4 -5 6 7 11 15 -10 17 12 -13 -14 -15 16 -17 -18 -19
leaf_value=-3.7629676719250487 -2.0035916499768676 2.7909215437028791 0.46114807189813267 -7.0789246553837906 -0.46757705541294858 -0.059363358495787111 0.85408187016308545 1.7410753953959954 1.2615392583604732 -0.37334996466899217 -1.3062385964708256 1.6620920686387644 -0.20079861208598404 -5.5838282878088386 2.0546951595154748 0.89924653734851034 2.0878608369603278 -0.13742628431524651
leaf_weight=154 107 120 107 186 104 105 119 102 127 101 101 126 115 139 100 103 126 101
leaf_count=154 107 120 107 186 104 105 119 102 127 101 101 126 115 139 100 103 126 101
internal_value=-0.000780205 0.0079932 0.000902527 -0.0330898 0.00562423 0.0199695 0.0121399 0.010625 0.00394191 -0.0111285 -0.00405405 0.0194118 -0.00929204 -0.0216172 0.0272472 0.0169767 0.0256637 -0.00471698
internal_weight=2243 1764 1108 479 799 656 476 310 231 309 323 245 216 293 346 205 226 202
internal_count=2243 1764 1108 479 799 656 476 310 231 309 323 245 216 293 346 205 226 202
cat_boundaries=0 1 2 3 4 5 6 7 8 9 10
cat_threshold=2485142296 32 232857710 671580234 574762181 814842148 1376273920 2160603141 542119104 201392172
is_linear=0
shrinkage=0.05


Tree=9
num_leaves=18
num_cat=9
split_feature=29 21 64 65 66 65 66 70 69 65 69 65 66 69 65 37 29
split_gain=230.958 47.5087 30.7167 30.0124 22.4986 14.5594 11.8607 8.34783 8.26381 6.49355 4.98011 3.05463 3.13636 3.00834 2.98082 1.90717 1.60782
threshold=36.39140701293946 79.203090667724624 0 1 2 3 4 1.5000000000000002 13.500000000000002 5 5.5000000000000009 6 7 12.500000000000002 8 66.215541839599624 75.457202911376967
decision_type=2 2 9 1 1 1 1 2 2 1 2 1 1 2 1 2 2
left_child=2 4 7 14 11 -6 16 -1 15 -8 -11 -2 -13 -12 -3 -7 -5
right_child=1 3 -4 6 5 8 9 -9 -10 10 13 12 -14 -15 -16 -17 -18
leaf_value=-2.542862576318786 -1.9432333612158148 0.10349388353861144 -6.7249784226146012 0.40948949827826697 -0.75644073880678919 1.2368454288386603 0.78501730809747983 -5.1774788159004519 0.0066440875696343943 2.7157745383380103 2.2851718092836992 -0.13929918220081347 -0.594028298360746 2.1134565974023274 -0.57914964329472129 1.8051217746746298 1.0955359887456901
leaf_weight=138 111 101 190 102 105 112 107 138 117 121 176 110 109 173 101 100 130
leaf_count=138 111 101 190 102 105 112 107 138 117 121 176 110 109 173 101 100 130
internal_value=-0.000647033 0.00757746 -0.0319742 0.0146884 -0.00183246 0.00563063 0.0188645 -0.0188811 0.010767 0.0229131 0.0258333 -0.0114706 -0.00720524 0.0233524 -0.00283019 0.0169811 0.00826446
internal_weight=2241 1775 466 1011 764 434 809 276 329 577 470 330 219 349 202 212 232
internal_count=2241 1775 466 1011 764 434 809 276 329 577 470 330 219 349 202 212 232
cat_boundaries=0 1 2 3 4 5 6 7 8 9
cat_threshold=32 3533701796 2456298428 77604898 23200180 201351184 3225423924 2151678860 1352663072
is_linear=0
shrinkage=0.05


Tree=10
num_leaves=18
num_cat=6
split_feature=48 65 64 66 31 66 69 29 27 56 66 59 69 70 69 66 21
split_gain=190.257 51.7423 41.7007 26.6899 20.9933 16.9948 11.0141 12.9354 8.11236 7.24413 7.24255 5.57944 5.33697 4.42897 3.35618 2.22099 0.121336
threshold=63.978551864624031 0 1 2 48.724914550781257 3 3.5000000000000004 62.969661712646491 67.105220794677749 70.928863525390639 4 17.300252914428714 10.500000000000002 1.0000000180025095e-35 7.5000000000000009 5 92.239440917968764
decision_type=2 1 9 1 2 1 2 2 2 2 1 2 2 2 2 1 2
left_child=2 4 13 9 12 15 -5 8 -8 -3 -9 -12 -2 -1 -7 -6 -16
right_child=1 3 -4 6 5 14 7 10 -10 -11 11 -13 -14 -15 16 -17 -18
leaf_value=-2.2292707582612699 1.2575611675176717 -1.7429336376313829 -6.388729501483871 1.3715561133804082 1.485952617553143 2.6093095732749649 0.099307974749495292 0.92733063507665181 -1.1103463322614147 -0.14919269828872148 0.63381537442600688 -0.44176408598651595 -0.046899438129786121 -4.350460881423909 2.1073169205007729 0.23261923065607207 2.3911192895841191
leaf_weight=100 109 130 176 120 104 133 110 115 113 108 145 135 117 190 100 104 102
leaf_count=100 109 130 176 120 104 133 110 115 113 108 145 135 117 190 100 104 102
internal_value=-0.000158299 0.0074212 -0.0285408 -0.00030426 0.017009 0.0225599 0.00441176 0.00177994 -0.00784753 -0.0145161 0.00721519 0.00241379 0.00442478 -0.015 0.0294203 0.00963303 0.0262376
internal_weight=2211 1745 466 976 769 543 738 618 223 238 395 280 226 290 335 208 202
internal_count=2211 1745 466 976 769 543 738 618 223 238 395 280 226 290 335 208 202
cat_boundaries=0 1 2 3 4 5 6
cat_threshold=806852939 32 308871688 2468481968 1082154240 318769920
is_linear=0
shrinkage=0.05


Tree=11
num_leaves=17
num_cat=8
split_feature=29 31 64 65 69 65 66 66 70 65 59 69 65 65 59 59
split_gain=191.86 46.7701 35.8202 31.8585 22.6529 20.8291 16.0561 11.9102 9.91476 7.87534 4.584 3.90062 3.02202 2.49963 2.26557 2.19066
threshold=36.39140701293946 47.61889839172364 0 1 4.5000000000000009 2 3 4 2.5000000000000004 5 18.396657943725589 8.5000000000000018 6 7 13.961059093475344 18.833376884460453
decision_type=2 2 9 1 2 1 1 1 2 1 2 2 1 1 2 2
left_child=2 4 8 13 -2 12 -7 11 -1 15 -11 -5 -6 -3 -8 -9
right_child=1 3 -4 7 5 6 14 9 -10 10 -12 -13 -14 -15 -16 -17
leaf_value=-2.0215396249042712 0.83687179023845459 0.67874109028455298 -6.069293026409678 2.2215332971859172 0.82308115139751836 0.081669109712342453 -1.628567269699098 1.2815188842159841 -4.8282398885521776 0.93404464114908459 -0.02692681852022645 1.8546602927161162 -0.19068890981564479 -0.59531012191568355 -1.6002336623093272 1.8475096739827173
leaf_weight=150 167 106 181 147 107 115 104 105 111 123 109 193 118 109 174 104
leaf_count=150 167 106 181 147 107 115 104 105 111 123 109 193 118 109 174 104
internal_value=-0.00105713 0.00626053 -0.030543 0.0134538 -0.00286624 -0.00728155 -0.0140199 0.0180152 -0.0164207 0.0118625 0.00495868 0.0254286 0.00489362 -0.00377778 -0.0204861 0.0189498
internal_weight=2223 1781 442 996 785 618 393 781 261 441 232 340 225 215 278 209
internal_count=2223 1781 442 996 785 618 393 781 261 441 232 340 225 215 278 209
cat_boundaries=0 1 2 3 4 5 6 7 8
cat_threshold=32 3256361632 1376535169 1744903296 1293737281 677484546 268959873 1581088
is_linear=0
shrinkage=0.05


Tree=12
num_leaves=18
num_cat=12
split_feature=31 64 65 66 66 65 69 65 66 69 65 66 66 65 66 67 59
split_gain=196.603 58.5472 30.5524 19.7561 18.1229 14.2083 9.71447 8.12144 9.80303 7.44225 6.4078 3.91596 3.06083 4.19506 3.00963 4.17231 1.62
threshold=37.086643218994148 0 1 2 3 4 13.500000000000002 5 6 4.5000000000000009 7 8 9 10 11 1.0000000180025095e-35 17.325264930725101
decision_type=2 9 1 1 1 1 2 1 1 2 1 1 1 1 1 2 2
left_child=1 5 4 10 -2 -1 7 8 -5 -6 -4 -12 -11 -14 -7 -16 -9
right_child=2 -3 3 6 9 14 -8 16 -10 12 11 -13 13 -15 15 -17 -18
leaf_value=0.1481457064786916 -0.073444577554714383 -5.7658283750891934 0.5316287809565623 -0.38789655526020683 1.9427196517819825 -2.0091473503176558 -0.054118556661391898 2.1670071624763203 1.2296782632875727 0.95331883567253195 -0.065974567234587764 -1.3722021745301092 0.82806413157411363 2.3333462318479081 -4.2798057208185432 -2.5276070115802938 1.6790172170515825
leaf_weight=108 116 189 101 111 122 105 181 100 110 106 108 151 116 186 102 100 100
leaf_count=108 116 189 101 111 122 105 181 100 110 106 108 151 116 186 102 100 100
internal_value=-0.000678119 -0.025 0.00845771 0.0026749 0.0167683 -0.0132941 0.00816993 0.0124703 0.00497835 0.0207407 -0.00648649 -0.0105948 0.0178922 0.0205128 -0.0187697 -0.0231132 0.0195238
internal_weight=2212 604 1608 962 646 415 602 421 221 530 360 259 408 302 307 202 200
internal_count=2212 604 1608 962 646 415 602 421 221 530 360 259 408 302 307 202 200
cat_boundaries=0 1 2 3 4 5 6 7 8 9 10 11 12
cat_threshold=32 706185544 371663256 16910884 17322753 281555620 3892334660 339743745 100663696 2756706688 168100096 151519651
is_linear=0
shrinkage=0.05


Tree=13
num_leaves=17
num_cat=10
split_feature=64 45 65 69 2 66 66 66 65 65 65 62 59 66 47 66
split_gain=187.064 52.3811 26.1643 25.9566 24.4905 21.5009 15.6356 12.945 8.62982 8.02355 5.21752 4.29103 4.12971 3.76358 3.5895 2.80575
threshold=0 76.786926269531264 1 3.5000000000000004 28.598042488098148 2 3 4 5 6 7 84.300979614257827 17.233647346496586 8 73.605205535888686 9
decision_type=9 2 1 2 2 1 1 1 1 1 1 2 2 1 2 1
left_child=1 3 7 -1 -5 12 15 10 14 -7 -3 -8 -4 -10 -9 -6
right_child=-2 2 5 4 6 9 11 8 13 -11 -12 -13 -14 -15 -16 -17
leaf_value=0.9020598636195829 -5.4775369563347338 -0.059460589528002573 -0.41591667577477909 -4.8445422242520975 0.59620217044803003 -0.1450725492458311 -0.86148797230981988 2.4262183923421525 0.54406012921456437 1.5001574272287876 1.2120732231575602 -1.4239836736659441 -1.0015087774133697 1.1098193185856005 1.6455481017040654 -0.063854329646634511
leaf_weight=165 191 107 100 156 106 110 136 118 110 176 133 111 104 142 128 110
leaf_count=165 191 107 100 156 106 110 136 118 110 176 133 111 104 142 128 110
internal_value=-0.00152065 0.00306627 0.00952769 -0.00701531 -0.0117124 0.0004 -0.00593952 0.0153743 0.0200787 0.00912162 0.0052 -0.0142023 -0.0116822 0.0122137 0.0273438 0.0039823
internal_weight=2203 2012 1228 784 619 490 463 738 498 286 240 247 204 252 246 216
internal_count=2203 2012 1228 784 619 490 463 738 498 286 240 247 204 252 246 216
cat_boundaries=0 1 2 3 4 5 6 7 8 9 10
cat_threshold=32 677363016 384270392 3912470662 24511268 537888832 310379140 732224 2717962258 3774971908
is_linear=0
shrinkage=0.05


Tree=14
num_leaves=18
num_cat=11
split_feature=64 31 66 65 66 65 66 2 66 68 65 66 65 66 69 37 69
split_gain=195.739 63.5658 19.0701 19.4996 17.2216 15.7106 12.216 10.7036 9.012 7.99975 5.72692 3.90757 7.85563 3.30177 2.6546 2.47005 0.506165
threshold=0 47.226032257080085 1 2 3 4 5 35.445020675659187 6 2019.5000000000002 7 8 9 10 11.500000000000002 84.104290008544936 9.5000000000000018
decision_type=9 2 1 1 1 1 1 2 1 2 1 1 1 1 2 2 2
left_child=1 2 14 6 9 -6 -4 -5 -9 -3 -11 -7 -13 -8 -1 -12 -14
right_child=-2 4 3 7 5 11 13 8 -10 10 15 12 16 -15 -16 -17 -18
leaf_value=1.0083076993735844 -5.2036601085179974 2.5381571404351093 0.86762349508628778 -4.9478475446315331 -0.89584256468645129 0.27144347475544495 0.010157412551555467 0.18967203733081706 -1.4333982041068625 0.59757466179464558 1.035092523153611 0.22847667835629082 1.618768978746578 -0.87741126681310966 0.085815491405731595 2.2425043976841863 1.4683071354736938
leaf_weight=143 195 127 105 133 107 107 109 105 188 111 155 112 104 130 102 102 101
leaf_count=143 195 127 105 133 107 107 109 105 188 111 155 112 104 130 102 102 101
internal_value=-0.0009839 0.00368113 -0.00517241 -0.00897436 0.0124756 0.00582255 0 -0.016055 -0.0110922 0.0191089 0.0157609 0.0101382 0.0129969 -0.0062249 0.00686275 0.0196629 0.0188372
internal_weight=2236 2041 1015 770 1026 531 344 426 293 495 368 424 317 239 245 257 205
internal_count=2236 2041 1015 770 1026 531 344 426 293 495 368 424 317 239 245 257 205
cat_boundaries=0 1 2 3 4 5 6 7 8 9 10 11
cat_threshold=32 151393345 2677031809 3399283786 2189951621 3296788610 1610696978 102853760 6422560 139462976 573612036
is_linear=0
shrinkage=0.05


Tree=15
num_leaves=18
num_cat=11
split_feature=49 64 65 66 65 66 65 65 37 68 66 66 65 65 69 69 63
split_gain=201.927 42.7692 32.0441 23.1852 10.1372 10.2729 8.48339 7.83312 7.18004 6.46965 5.33752 5.23522 7.02966 5.8816 4.95968 3.19522 1.48615
threshold=37.765336990356452 0 1 2 3 4 5 6 68.552112579345717 2020.5000000000002 7 8 9 10 8.5000000000000018 9.5000000000000018 100.42942047119142
decision_type=2 9 1 1 1 1 1 1 2 2 1 1 1 1 2 2 2
left_child=1 7 16 6 5 -5 10 -1 -8 -10 -4 13 -13 -6 -9 -7 -2
right_child=2 -3 3 4 11 15 8 14 9 -11 -12 12 -14 -15 -16 -17 -18
leaf_value=-0.99743469417365138 2.5491540395727292 -4.9434771030920972 0.63763290648528115 -1.2375068742760129 -0.071520509326821011 0.26999533357013378 0.24330467377747739 -2.6401008001710831 2.1833659004821189 0.89456043915011496 -0.22745791068942511 -0.60647267205563082 0.24434527383564131 1.1182652551694348 -4.3549227358079152 -0.74283353786017592 1.9324541482024615
leaf_weight=105 100 186 111 112 105 101 113 122 161 173 109 109 106 131 152 107 109
leaf_count=105 100 186 111 112 105 101 113 122 161 173 109 109 106 131 152 107 109
internal_value=-0.0022604 -0.0280531 0.00658774 0.00379834 -0.00211268 -0.00878788 0.0105613 -0.016838 0.0145514 0.0185629 0.00217391 0.0027115 -0.00288889 0.00772358 -0.0214789 -0.00183486 0.0244292
internal_weight=2212 565 1647 1438 771 320 667 379 447 334 220 451 215 236 274 208 209
internal_count=2212 565 1647 1438 771 320 667 379 447 334 220 451 215 236 274 208 209
cat_boundaries=0 1 2 3 4 5 6 7 8 9 10 11
cat_threshold=32 537100288 1238940770 3232261670 304283904 2485133876 17303321 1090526274 304562689 357566528 184549641
is_linear=0
shrinkage=0.05


Tree=16
num_leaves=18
num_cat=10
split_feature=64 29 69 65 66 66 66 65 65 65 59 65 56 22 66 68 45
split_gain=176.348 64.9179 29.8544 25.9546 18.5346 18.2294 15.1169 7.8749 7.57012 6.52671 5.88531 5.12064 3.59047 3.14362 2.11597 1.94134 1.38896
threshold=0 62.969661712646491 3.5000000000000004 1 2 3 4 5 6 7 18.316482543945316 8 37.851844787597663 151.25467681884768 9 2020.5000000000002 97.04038238525392
decision_type=9 2 2 1 1 1 1 1 1 1 2 1 2 2 1 2 2
left_child=1 2 -1 6 14 11 13 -7 -6 -8 -11 -5 -10 -3 -4 -9 -15
right_child=-2 3 4 5 8 7 9 15 12 10 -12 -13 -14 16 -16 -17 -18
leaf_value=0.80618331109575869 -4.6963032479374922 0.84505012053735706 0.33157456517781514 -0.019032946030363009 -0.7592807553850236 1.7104515985477997 1.27368723550658 0.45806288449915089 -4.9586258841383843 0.65375451875206925 -0.30709570144663872 -1.1059525335009419 -1.5707419098014528 2.0327025160403247 -1.2388061510298556 -0.13283687520873499 1.910842347730271
leaf_weight=154 187 129 102 102 111 104 109 104 101 127 107 124 197 116 104 114 104
leaf_count=154 187 129 102 102 111 104 109 104 101 127 107 124 197 116 104 114 104
internal_value=-0.0023224 0.002105 -0.00929779 0.00919355 -0.0142276 0.000896057 0.0155271 0.00843373 -0.0201671 0.00750708 0.00245902 -0.00974576 -0.0246753 0.0229805 -0.00138889 0.00263158 0.0272727
internal_weight=2196 2009 769 1240 615 548 692 322 409 343 234 226 298 349 206 218 220
internal_count=2196 2009 769 1240 615 548 692 322 409 343 234 226 298 349 206 218 220
cat_boundaries=0 1 2 3 4 5 6 7 8 9 10
cat_threshold=32 958389568 688496773 2586017854 1486748744 67108919 318789248 536970240 46137496 151527552
is_linear=0
shrinkage=0.05


Tree=17
num_leaves=18
num_cat=9
split_feature=64 45 65 66 65 66 15 65 66 65 59 65 63 39 67 67 47
split_gain=183.951 53.934 29.3667 25.1563 17.1478 9.8075 7.81758 6.65022 6.42299 6.33935 6.00791 3.99203 3.26942 2.43606 2.27567 1.36067 1.27848
threshold=0 75.54346084594728 1 2 3 4 39.026132583618171 5 6 7 13.596299648284914 8 99.318149566650405 60.09546089172364 1.0000000180025095e-35 1.0000000180025095e-35 65.886383056640639
decision_type=9 2 1 1 1 1 2 1 1 1 2 1 2 2 2 2 2
left_child=1 4 5 16 8 7 -6 -3 -1 14 -8 -10 13 -7 -5 -11 -4
right_child=-2 2 3 9 6 12 10 -9 11 15 -12 -13 -14 -15 -16 -17 -18
leaf_value=-1.3464194535151521 -4.4614880855406183 -0.091975808225916472 0.66745409095015662 0.37817261000322305 -4.4641658448921451 1.6085163168646006 -0.42265585243632203 1.3356958931329204 1.0206920082138866 -1.1223312642795811 -1.49220481431138 -0.22663611892788396 2.2803781320202092 1.6813058753537349 -0.18602187386302377 -0.50816152643288892 0.8158849496118763
leaf_weight=111 192 105 108 114 139 100 138 113 104 104 139 107 163 135 119 108 121
leaf_count=111 192 105 108 114 139 100 138 113 104 104 139 107 163 135 119 108 121
internal_value=-0.00202703 0.00250245 0.00868217 0.00131579 -0.00826558 0.0164537 -0.0147887 0.00701754 0.00060241 -0.0056044 -0.0102888 0.00565611 0.0213235 0.0180851 0.000205761 -0.0117117 0.0144351
internal_weight=2220 2028 1290 674 738 616 416 218 322 445 277 211 398 235 233 212 229
internal_count=2220 2028 1290 674 738 616 416 218 322 445 277 211 398 235 233 212 229
cat_boundaries=0 1 2 3 4 5 6 7 8 9
cat_threshold=32 740283650 1092373601 504651665 1398997505 134829312 2017634304 312485976 369099280
is_linear=0
shrinkage=0.05


Tree=18
num_leaves=18
num_cat=7
split_feature=64 45 66 69 65 65 66 59 37 66 69 18 66 47 52 67 67
split_gain=172.596 45.6232 22.4804 21.8023 20.3874 17.181 16.7512 9.48473 10.7879 6.94155 6.26226 5.6337 4.37439 1.71724 2.9662 1.62161 1.4087
threshold=0 76.786926269531264 1 3.5000000000000004 2 3 4 9.6486167907714862 61.607034683227546 5 9.5000000000000018 78.035236358642592 6 73.837245941162124 120.13453674316408 1.0000000180025095e-35 1.0000000180025095e-35
decision_type=9 2 1 2 1 1 1 2 2 1 2 2 1 2 2 2 2
left_child=1 3 5 -1 12 16 7 -5 -9 -6 -11 -8 -4 14 -7 -14 -3
right_child=-2 2 4 6 9 13 11 8 -10 10 -12 -13 15 -15 -16 -17 -18
leaf_value=0.87395829641578759 -4.2384136812635864 0.44794597968037808 0.10160755633794026 -4.0609086960131568 -1.0813668365232687 1.6829708751527066 -1.6442829146845144 -0.071576628769884118 -1.6568943137425025 0.44941243130510744 -0.34190090044051974 0.25295882028231914 0.49870140898077508 1.5583200688025187 1.8904170250448247 1.3755975161843239 0.1869087390489014
leaf_weight=172 177 115 102 107 110 107 147 103 108 119 113 160 114 121 105 119 115
leaf_count=172 177 115 102 107 110 107 147 103 108 119 113 160 114 121 105 119 115
internal_value=-0.00135501 0.00285784 0.00887097 -0.00646173 0.00254731 0.0161431 -0.0108 -0.0185976 -0.0130332 -0.00596591 -0.000826446 -0.00205047 0.0111594 0.0234694 0.0268868 0.0150206 0.005
internal_weight=2214 2037 1240 797 677 563 625 318 211 342 232 307 335 333 212 233 230
internal_count=2214 2037 1240 797 677 563 625 318 211 342 232 307 335 333 212 233 230
cat_boundaries=0 1 2 3 4 5 6 7
cat_threshold=32 1670176321 1012784128 175142784 3033188634 404758576 5374084
is_linear=0
shrinkage=0.05


Tree=19
num_leaves=17
num_cat=8
split_feature=64 48 66 66 49 31 47 66 68 66 66 66 59 58 66 68
split_gain=195.667 40.0851 18.358 14.8687 10.6494 5.63276 7.35429 7.80596 4.68857 9.94353 7.26798 2.4705 2.26253 2.12029 2.33553 2.06952
threshold=0 102.84653472900392 1 2 40.597539901733406 29.038959503173832 60.043485641479499 3 2020.5000000000002 4 5 6 18.5435905456543 99.646526336669936 7 2021.5000000000002
decision_type=9 2 1 1 2 2 2 1 2 1 1 1 2 2 1 2
left_child=1 3 13 4 -1 -5 7 -7 10 -10 -4 -9 -12 -3 -15 -11
right_child=-2 2 8 5 -6 6 -8 11 9 15 12 -13 -14 14 -16 -17
leaf_value=-1.2477743463603916 -4.0264929972004078 -0.44532165533576062 0.81245827872407483 -3.2457647795184288 1.0962396984020182 0.63458875832965456 -1.299827896392256 -0.00069837121644127369 1.7373785445874148 0.66912136248166831 1.8993826729442191 -1.2318596423472004 2.4020236228129352 0.51625185290923459 -0.095960938625439252 0.060989946109309301
leaf_weight=167 195 113 112 176 186 103 108 101 112 126 118 129 116 110 118 123
leaf_count=167 195 113 112 176 186 103 108 101 112 126 118 129 116 110 118 123
internal_value=-0.00101672 0.00369822 0.0104962 -0.00360825 0.00454545 -0.00821372 -0.0053288 -0.00165165 0.014993 0.0112188 0.0193642 -0.00666667 0.0241803 0.000712251 0.00350877 0.00482625
internal_weight=2213 2018 1048 970 353 617 441 333 707 361 346 230 234 341 228 249
internal_count=2213 2018 1048 970 353 617 441 333 707 361 346 230 234 341 228 249
cat_boundaries=0 1 2 3 4 5 6 7 8
cat_threshold=32 878840112 1770281985 2163078 1075150912 3239149632 2182643728 335546640
is_linear=0
shrinkage=0.05


Tree=20
num_leaves=17
num_cat=10
split_feature=64 43 65 66 65 66 66 67 67 29 65 66 65 47 66 29
split_gain=187.654 41.8173 20.4488 19.1982 14.6129 11.8669 11.2026 9.00445 8.86021 8.03799 6.87538 6.47029 3.3094 2.46392 2.12305 1.91996
threshold=0 114.76946258544923 1 2 3 4 5 1.0000000180025095e-35 1.0000000180025095e-35 36.39140701293946 6 7 8 60.043485641479499 9 76.772243499755874
decision_type=9 2 1 1 1 1 1 2 2 2 1 1 1 2 1 2
left_child=1 3 5 4 14 10 12 -8 -6 -5 -3 -11 -4 -13 -1 -7
right_child=-2 2 6 9 8 15 7 -9 -10 11 -12 13 -14 -15 -16 -17
leaf_value=-0.12934794020689253 -3.8251683473403872 1.3056168636477326 1.2012328495591449 -3.3919119534784472 1.0308264598850767 1.8348433367429635 -0.68054827839324761 0.4423521395573829 0.041673101540956742 0.36861042320199999 -0.14396963452653183 -0.6290977075401728 0.27678075983093747 -1.0051742761086566 -0.69540456621818336 1.5892364873765814
leaf_weight=100 193 108 104 151 140 101 140 124 131 109 102 199 119 108 104 167
leaf_count=100 193 108 104 151 140 101 140 124 131 109 102 199 119 108 104 167
internal_value=-0.00172727 0.00290035 0.0104145 -0.00403071 0.00340206 0.017623 0.00291751 -0.0040146 0.0108541 -0.0101386 0.00772727 -0.00673077 0.0109442 -0.0102524 -0.00654206 0.0248201
internal_weight=2200 2007 965 1042 475 478 487 264 271 567 210 416 223 307 204 268
internal_count=2200 2007 965 1042 475 478 487 264 271 567 210 416 223 307 204 268
cat_boundaries=0 1 2 3 4 5 6 7 8 9 10
cat_threshold=32 554665290 1775539393 2246130720 619840436 1239231494 536903946 215042 135297025 1610617985
is_linear=0
shrinkage=0.05


Tree=21
num_leaves=17
num_cat=8
split_feature=64 58 65 69 59 66 66 65 15 65 66 66 15 69 59 49
split_gain=173.508 34.0709 17.8788 15.0099 17.6725 14.824 14.3557 8.23546 8.14408 6.84992 6.04703 4.10762 3.66815 3.26308 2.81571 0.902668
threshold=0 86.447708129882827 1 3.5000000000000004 7.592393398284913 2 3 4 65.933738708496108 5 6 7 80.616695404052749 7.5000000000000009 18.473261833190922 55.780269622802741
decision_type=9 2 1 2 2 1 1 1 2 1 1 1 2 2 2 2
left_child=1 3 10 -1 -5 9 -6 14 -8 -4 -3 -9 -12 -11 -7 -15
right_child=-2 2 5 4 6 7 8 11 -10 13 12 -13 -14 15 -16 -17
leaf_value=0.61302461082520954 -3.6339099299733677 0.47255362376604709 0.40188377963049221 -3.8508588167482132 0.58916582033076992 1.0926088842271398 -0.26545789448883855 -0.33731544585727352 -1.4492993566519574 1.688691190505736 -0.043653903535874866 0.10363247873693099 -0.82695675521687306 1.1661144721208523 0.56221412575972562 1.0171729870439499
leaf_weight=163 189 106 122 168 109 101 187 104 132 133 123 125 118 112 106 100
leaf_count=163 189 106 122 168 109 101 187 104 132 133 123 125 118 112 106 100
internal_value=-0.00245678 0.00195641 0.00704 -0.00638999 -0.0100671 0.0106791 -0.0046729 0.00381166 -0.00987842 0.0168763 -0.00266106 -0.00271967 -0.00697211 0.0207042 0.0108295 0.0174528
internal_weight=2198 2009 1250 759 596 903 428 436 319 467 347 229 241 345 207 212
internal_count=2198 2009 1250 759 596 903 428 436 319 467 347 229 241 345 207 212
cat_boundaries=0 1 2 3 4 5 6 7 8
cat_threshold=32 3282584196 2014182474 1327497474 609390928 473960496 143163588 39977520
is_linear=0
shrinkage=0.05


Tree=22
num_leaves=17
num_cat=8
split_feature=64 49 65 69 37 66 65 66 66 65 65 68 3 69 39 67
split_gain=177.413 40.9069 15.859 14.687 17.6896 12.2438 11.625 7.92037 7.58695 4.70755 3.77663 3.68087 2.70502 2.45621 1.99271 1.57427
threshold=0 49.928613662719734 1 4.5000000000000009 31.404206275939945 2 3 4 5 6 7 2020.5000000000002 88.982917785644545 11.500000000000002 62.818475723266609 1.0000000180025095e-35
decision_type=9 2 1 2 2 1 1 1 1 1 1 2 2 2 2 2
left_child=1 3 7 12 -5 14 13 -3 -8 -10 -7 -9 -1 -6 -4 -11
right_child=-2 2 5 4 6 10 8 11 9 15 -12 -13 -14 -15 -16 -17
leaf_value=0.019721771196567775 -3.4522144334746994 0.28522093120020886 -0.033874264580565243 -4.0561547278604397 -0.74239251386949978 1.0089994933155608 0.98087661545646798 2.3373759013795037 0.43707171736910272 -1.0602010921606251 0.4650615427676712 0.90153252922289306 0.68301901712033486 -1.3449031028537286 -0.64454402987625492 -0.16813351788677411
leaf_weight=105 189 105 102 124 106 104 105 197 106 103 183 172 134 142 107 112
leaf_count=105 189 105 102 124 106 104 105 197 106 103 183 172 134 142 107 112
internal_value=-0.00195811 0.00250372 0.00989691 -0.00438766 -0.00764411 0.00335968 -0.00445104 0.0163223 0.000688073 -0.00317221 0.00993266 0.0199208 0.00648536 -0.0127907 -0.00570776 -0.00733333
internal_weight=2196 2007 970 1037 798 496 674 474 426 321 287 369 239 248 209 215
internal_count=2196 2007 970 1037 798 496 674 474 426 321 287 369 239 248 209 215
cat_boundaries=0 1 2 3 4 5 6 7 8
cat_threshold=32 550671630 1047928888 2239763796 271124864 554739972 436210304 335937
is_linear=0
shrinkage=0.05


Tree=23
num_leaves=17
num_cat=5
split_feature=64 59 66 63 43 68 66 70 66 59 66 49 31 69 69 39
split_gain=174.335 34.7216 17.8135 15.527 7.96406 7.67663 13.7288 7.21286 6.07827 5.43011 4.32133 3.63551 3.594 3.09615 2.71332 2.24074
threshold=0 8.2312779426574725 1 92.582321166992202 114.96435165405275 2020.5000000000002 2 1.5000000000000002 3 16.654093742370609 4 47.842401504516609 56.111309051513679 8.5000000000000018 8.5000000000000018 51.986579895019538
decision_type=9 2 1 2 2 2 1 2 1 2 1 2 2 2 2 2
left_child=1 7 3 8 10 6 -6 -1 11 15 -4 -3 -5 -12 -7 -10
right_child=-2 2 4 12 5 14 -8 -9 9 -11 13 -13 -14 -15 -16 -17
leaf_value=-0.99175395332724681 -3.2796037118009647 0.21172053173075939 -1.0380557788313312 1.3253045459654431 2.4723280011997346 0.33486582349936217 0.015557726413820206 -3.2955335732790383 -0.048313562165171221 -0.54491209138390395 0.090578387495133944 1.615611143927373 2.1019061168618323 -0.64356183201514061 -0.2875541244096475 0.824605263728305
leaf_weight=113 189 111 104 193 106 119 159 133 108 100 135 100 111 188 138 108
leaf_count=113 189 111 104 193 106 119 159 133 108 100 135 100 111 188 138 108
internal_value=-0.00182844 0.00255403 0.005 0.0102854 0.000260688 0.00440613 0.0103774 -0.0150407 0.00521822 0.000613497 -0.00480094 0.0115385 0.0194079 -0.00165165 -0.00175097 0.00509259
internal_weight=2215 2026 1780 831 949 522 265 246 527 316 427 211 304 323 257 216
internal_count=2215 2026 1780 831 949 522 265 246 527 316 427 211 304 323 257 216
cat_boundaries=0 1 2 3 4 5
cat_threshold=32 3781022785 167781002 1092097024 268444164
is_linear=0
shrinkage=0.05


Tree=24
num_leaves=18
num_cat=11
split_feature=64 66 45 48 65 65 66 65 66 66 69 65 66 69 68 65 59
split_gain=174.139 26.0393 18.4882 17.9735 13.4932 12.4848 8.50666 7.02284 10.2686 6.04381 10.7529 9.82098 3.65147 3.26697 2.66944 2.25416 1.11169
threshold=0 1 84.401298522949233 55.917945861816413 2 3 4 5 6 7 9.5000000000000018 8 9 10.500000000000002 2020.5000000000002 10 14.899585723876955
decision_type=9 1 2 2 1 1 1 1 1 1 2 1 1 2 2 1 2
left_child=1 2 4 -3 16 9 -7 13 -9 10 -5 -11 -6 -4 -8 -14 -1
right_child=-2 3 7 5 12 6 14 8 -10 11 -12 -13 15 -15 -16 -17 -18
leaf_value=0.90997835712025799 -3.115623526210916 -2.8146635348190063 1.9069642925377785 1.0107002618042871 0.1878841074043841 -1.1233569200694262 0.35116088113127475 1.4718684583007737 -0.27512147666934228 0.92128291868760359 0.034742561539353289 -0.56767954064611392 -1.8504769838472983 0.94696569509793427 -0.85363436031854789 -0.31009775535243023 0.8968245533287047
leaf_weight=117 195 137 104 109 106 115 134 110 101 117 133 117 106 117 146 156 109
leaf_count=117 195 137 104 109 106 115 134 110 101 117 133 117 106 117 146 156 109
internal_value=-0.00266936 0.00176125 0.00733591 -0.00392927 0.0016835 -0.00132032 -0.00777778 0.0152778 0.00746606 0.00411523 0.00952381 -0.00163934 -0.0042328 0.0214286 -0.00275862 -0.00735294 0.0110169
internal_weight=2229 2034 1026 1008 594 871 395 432 211 476 242 234 368 221 280 262 226
internal_count=2229 2034 1026 1008 594 871 395 432 211 476 242 234 368 221 280 262 226
cat_boundaries=0 1 2 3 4 5 6 7 8 9 10 11
cat_threshold=32 3918329025 3657975825 954113409 304087048 604212554 3246924864 335743018 676757760 143392769 6304264
is_linear=0
shrinkage=0.05


Tree=25
num_leaves=16
num_cat=6
split_feature=29 65 69 66 65 65 66 59 69 69 66 49 59 69 59
split_gain=126.958 23.6202 23.3315 19.3917 15.2147 11.7516 10.9132 9.7247 8.41984 4.89469 11.0513 4.64706 3.92778 2.35083 0.992712
threshold=36.39140701293946 0 4.5000000000000009 1 2 3 4 4.7680289745330819 10.500000000000002 12.500000000000002 5 49.343708038330085 17.941303253173832 11.500000000000002 18.928990364074711
decision_type=2 1 2 1 1 1 1 2 2 2 1 2 2 2 2
left_child=2 14 -1 5 8 12 11 -4 -5 10 -7 -6 13 -3 -2
right_child=1 3 7 4 6 9 -8 -9 -10 -11 -12 -13 -14 -15 -16
leaf_value=-1.873518760969705 1.3035252976641531 -0.50587466314175555 -2.9598423499003701 1.2475220422347419 -0.10044593370089033 0.73982163835843695 0.80409086594709511 -2.73712826692732 0.14324880482442809 0.45078964061273014 -0.74457282655605972 -0.69079973866561495 -0.12995545534655051 -1.0365717829339958 1.3796792773202242
leaf_weight=100 102 126 211 192 128 105 192 131 168 146 136 103 112 108 123
leaf_count=100 102 126 211 192 128 105 192 131 168 146 136 103 112 108 123
internal_value=-0.00231333 0.00376221 -0.0262443 0.00144168 0.00687264 -0.00437416 0.00034642 -0.0324561 0.0143243 0.00163728 -0.0026971 -0.00684647 -0.0109551 -0.0149573 0.0185106
internal_weight=2183 1741 442 1516 783 733 423 342 360 387 241 231 346 234 225
internal_count=2183 1741 442 1516 783 733 423 342 360 387 241 231 346 234 225
cat_boundaries=0 1 2 3 4 5 6
cat_threshold=537035776 513942012 313067855 3280019575 554815491 211812464
is_linear=0
shrinkage=0.05


Tree=26
num_leaves=18
num_cat=13
split_feature=64 31 65 66 66 66 65 66 65 65 66 66 58 66 65 39 59
split_gain=159.455 24.4459 26.576 24.0195 15.0037 14.2897 9.8772 9.1534 6.7797 5.43482 4.69898 4.14663 3.47476 2.76876 2.4428 2.36527 0.387393
threshold=0 37.086643218994148 1 2 3 4 5 6 7 8 9 10 104.8229217529297 11 12 59.106744766235359 17.066696166992191
decision_type=9 2 1 1 1 1 1 1 1 1 1 1 2 1 1 2 2
left_child=1 5 4 8 12 -1 10 -8 15 -6 -5 -7 -3 -9 -12 -4 -10
right_child=-2 2 3 6 9 11 7 13 16 -11 14 -13 -14 -15 -16 -17 -18
leaf_value=-3.1065334956630655 -2.8118502324053516 1.3977700239112978 -1.055991988042932 0.222087790947613 1.120934062971213 0.20833997538634286 1.0161167432641507 0.0027844268181056011 -0.0058939278392649902 -0.065497854085328558 1.2053799401678902 -2.0216745586213221 1.038629830927448 -0.5727237364451625 0.5686165692008629 -0.49934687349923979 -0.23930194732557483
leaf_weight=110 182 102 133 105 107 112 107 123 100 146 100 182 115 135 130 102 103
leaf_count=110 182 102 133 105 107 112 107 123 100 146 100 182 115 135 130 102 103
internal_value=-0.00282589 0.00133531 0.00410448 -8.7108e-05 0.0139583 -0.00965347 0.0056338 -0.000133333 -0.00915179 0.00513308 0.0117391 -0.00328947 0.0235683 -0.00522388 0.0158333 -0.014898 -0.00211268
internal_weight=2194 2012 1608 1138 470 404 700 365 438 253 335 294 217 258 230 235 203
internal_count=2194 2012 1608 1138 470 404 700 365 438 253 335 294 217 258 230 235 203
cat_boundaries=0 1 2 3 4 5 6 7 8 9 10 11 12 13
cat_threshold=32 873957376 342033244 1353047617 1979795456 2181564247 1099172864 2189435639 1277952 8653857 3675785 2685935617 2181038147
is_linear=0
shrinkage=0.05


Tree=27
num_leaves=19
num_cat=9
split_feature=31 65 66 66 65 69 70 69 66 56 65 67 66 65 56 66 69 67
split_gain=117.036 28.4232 18.9349 10.7737 10.0017 9.50436 10.1027 6.17821 8.22564 5.53928 6.96697 4.70787 4.15785 3.99489 3.20124 2.84264 1.28563 0.371899
threshold=29.038959503173832 0 1 2 3 6.5000000000000009 3.5000000000000004 13.500000000000002 4 65.940441131591811 5 1.0000000180025095e-35 6 7 75.30969619750978 8 9.5000000000000018 1.0000000180025095e-35
decision_type=2 1 1 1 1 2 2 2 1 2 1 2 1 1 2 1 2 2
left_child=5 2 13 9 11 -1 17 8 -6 -3 -11 -5 -12 -2 -4 -15 -16 -7
right_child=1 3 14 4 7 6 -8 -9 -10 10 12 -13 -14 15 16 -17 -18 -19
leaf_value=-2.3782443317473891 -0.28789959822353312 -1.2457231080301598 0.57836821028942187 0.70283376489975358 -0.34092893517768774 -2.6712577207850843 -2.5177716825011212 -0.79815900668800599 0.65244578102795225 -0.49591952832891623 0.45106449321645958 0.2911651847458181 -0.51109463721417681 0.00040858371590388746 1.7361374854907468 0.75550163691300443 2.0825207952119884 -2.6712577207850843
leaf_weight=129 106 141 113 113 103 102 122 121 136 113 107 124 100 109 101 101 108 113
leaf_count=129 106 141 113 113 103 102 122 121 136 113 107 124 100 109 101 101 108 113
internal_value=-0.00291397 0.00318396 0.0114198 -0.00187266 0.00255354 -0.0251073 -0.0295252 -0.0027027 0.00188285 -0.00753715 -0.0040625 0.0103239 0.0016129 0.00245399 0.0198795 0.00636364 0.0241627 -0.0360465
internal_weight=2162 1696 638 1058 597 466 337 360 239 461 320 237 207 316 322 210 209 215
internal_count=2162 1696 638 1058 597 466 337 360 239 461 320 237 207 316 322 210 209 215
cat_boundaries=0 1 2 3 4 5 6 7 8 9
cat_threshold=941071424 1574046369 409154520 2200437255 639370272 3229614087 134353304 134289408 68160160
is_linear=0
shrinkage=0.05


Tree=28
num_leaves=18
num_cat=8
split_feature=64 65 66 66 58 15 69 66 58 65 59 67 66 65 37 11 68
split_gain=181.383 22.6925 25.8617 15.1527 10.2328 9.73155 8.75184 11.176 11.8225 6.68653 5.68636 5.44859 5.04183 4.75899 2.02212 0.714332 0.0769084
threshold=0 1 2 3 76.657341003417983 71.446418762207045 4.5000000000000009 4 90.301544189453139 5 17.433915138244632 1.0000000180025095e-35 6 7 79.410758972167983 91.764999389648452 2020.5000000000002
decision_type=9 1 1 1 2 2 2 1 2 1 2 2 1 1 2 2 2
left_child=1 3 5 11 -5 -3 -4 8 -8 14 -11 -1 -7 -9 -6 -15 -2
right_child=16 2 6 4 9 12 7 13 -10 10 -12 -13 -14 15 -16 -17 -18
leaf_value=1.6349831944958622 -2.5376948347458299 -1.4980582970967875 0.85914526410076208 -2.2802786410467188 0.90073659327687217 -0.5471091841698098 -0.093604087092609242 0.16987068998474869 1.2221389553982789 0.53606193339720676 -0.24654515490399689 0.49100161564389783 -0.001137839206715796 -0.82719515631603857 0.99268673512556527 -0.80392542108318144 -2.5694542097458299
leaf_weight=166 101 187 161 100 101 109 131 100 111 101 127 168 156 105 107 100 103
leaf_count=166 101 187 161 100 101 109 131 100 111 101 127 168 156 105 107 100 103
internal_value=-0.00295434 0.00166667 -0.00290598 0.00772727 0.00238095 -0.0121212 0.00306407 9.14077e-05 0.00793651 0.00573394 -0.000420168 0.0159884 -0.00622642 -0.00619048 0.0119266 -0.0104651 -0.046729
internal_weight=2234 2030 1160 870 536 452 708 547 242 436 228 334 265 305 208 205 204
internal_count=2234 2030 1160 870 536 452 708 547 242 436 228 334 265 305 208 205 204
cat_boundaries=0 1 2 3 4 5 6 7 8
cat_threshold=32 941528968 480444764 2309231737 1095252993 134648064 144769032 37814339
is_linear=0
shrinkage=0.05


Tree=29
num_leaves=18
num_cat=7
split_feature=64 49 66 69 66 18 8 56 68 69 67 66 66 39 6 66 66
split_gain=181.521 21.5735 14.6295 11.1414 9.60825 7.56878 7.44355 10.0563 5.7383 5.53961 4.01614 6.62607 6.23968 3.96697 2.67667 2.1868 1.46713
threshold=0 50.121770858764656 1 3.5000000000000004 2 79.133762359619155 34.154241561889656 59.456800460815437 2020.5000000000002 13.500000000000002 1.0000000180025095e-35 3 4 63.608539581298835 113.71527099609376 5 6
decision_type=9 2 1 2 1 2 2 2 2 2 2 1 1 2 2 1 1
left_child=1 2 6 -4 8 -5 -1 -8 13 14 11 -6 -12 -3 -7 -9 -10
right_child=-2 4 3 5 10 9 7 15 16 -11 12 -13 -14 -15 -16 -17 -18
leaf_value=-2.3810461698089656 -2.4108100930085388 0.35111089121071121 1.1365231640960702 -1.9305589924984006 -0.039100390790017064 0.21240382777468059 0.4033070483633765 -0.79835957101512067 -0.55074857405855937 -0.21288132886585487 1.563284709277859 1.1920682101804416 0.61269357658887891 1.2009527454861371 0.55165803270804692 -0.28511606887685165 0.29529015758605442
leaf_weight=101 198 104 119 182 100 105 101 117 100 129 105 136 139 123 102 131 120
leaf_count=101 198 104 119 182 100 105 101 117 100 129 105 136 139 123 102 131 120
internal_value=-0.00216998 0.00242095 -0.00234591 0.00255023 0.00803668 -0.000579151 -0.00913043 -0.00587393 0.00251641 0.00386905 0.0128571 0.00847458 0.017623 0.00814978 0.0089372 -0.0112903 -0.00318182
internal_weight=2212 2014 1087 637 927 518 450 349 447 336 480 236 244 227 207 248 220
internal_count=2212 2014 1087 637 927 518 450 349 447 336 480 236 244 227 207 248 220
cat_boundaries=0 1 2 3 4 5 6 7
cat_threshold=32 2422303118 610671293 310395202 3498074432 268435854 4460708
is_linear=0
shrinkage=0.05


Tree=30
num_leaves=17
num_cat=10
split_feature=64 65 66 66 43 65 68 66 31 15 66 65 66 68 59 65
split_gain=167.863 19.8925 14.8342 11.157 10.5977 10.2208 9.20679 8.30644 7.81832 7.24198 7.14259 5.93584 4.60373 4.31317 1.73388 1.11752
threshold=0 1 2 3 102.54320144653322 4 2021.5000000000002 5 48.338228225708015 74.941642761230483 6 7 8 2020.5000000000002 11.932371616363527 9
decision_type=9 1 1 1 2 1 2 1 2 2 1 1 1 2 2 1
left_child=1 2 9 4 14 10 7 -4 -9 -1 -5 -6 -7 -14 -3 -11
right_child=-2 3 6 5 11 12 -8 8 -10 15 -12 -13 13 -15 -16 -17
leaf_value=0.38430085385531076 -2.2902695883581119 -1.218444024956816 -0.27783323430169776 -0.079566820511667663 0.20375694021599175 0.21926998066819367 -0.77209178039841508 0.032877655502184668 1.2208055663211796 1.9270880005254725 1.2428187368328112 -0.31924048599551758 -0.017297909125568368 -0.8292793157811218 -1.1455032457057726 1.2075060662992791
leaf_weight=109 194 116 118 108 119 108 153 117 168 103 136 199 120 115 103 110
leaf_count=109 194 116 118 108 119 108 153 117 168 103 136 199 120 115 103 110
internal_value=-0.00336976 0.00104374 0.00664414 -0.00335097 -0.00850091 0.00142379 0.00159011 0.00558313 0.01 0.0150602 0.00905512 -0.00283019 -0.00410765 -0.00795918 -0.0171233 0.020892
internal_weight=2196 2002 878 1124 537 587 556 403 285 322 244 318 343 235 219 213
internal_count=2196 2002 878 1124 537 587 556 403 285 322 244 318 343 235 219 213
cat_boundaries=0 1 2 3 4 5 6 7 8 9 10
cat_threshold=32 1008440074 1283757656 351472027 2185496709 3801124 671125600 14688480 3238006848 605749248
is_linear=0
shrinkage=0.05


Tree=31
num_leaves=18
num_cat=11
split_feature=64 69 65 66 65 66 65 59 15 65 68 66 59 65 65 65 59
split_gain=162.26 23.8116 19.9231 16.7797 15.2701 14.8772 12.8512 12.2206 6.40361 5.22488 6.04964 5.26176 4.91618 3.73472 3.3721 2.56293 2.03258
threshold=0 3.5000000000000004 1 2 3 4 5 18.379673004150394 57.726854324340827 6 2020.5000000000002 7 17.379407882690433 8 9 10 14.973945140838625
decision_type=9 2 1 1 1 1 1 2 2 1 2 1 2 1 1 1 2
left_child=1 4 3 13 -1 6 12 14 -7 10 -10 -11 -4 -3 -5 -6 -8
right_child=-2 2 5 7 15 8 16 -9 9 11 -12 -13 -14 -15 -16 -17 -18
leaf_value=-0.4979552611341575 -2.175756108940206 -0.3435246087501973 1.1894641633926497 0.68601299041237884 0.69049389457437449 -2.2018185662857803 -1.1639960955833957 1.5986392738627786 0.25071047423974518 -0.45904579821207037 -0.72874698969862239 -0.91748806466715538 0.072310007634750664 0.1730748579626166 -0.28619626907969858 2.1338424904972841 -0.058648877816759183
leaf_weight=101 188 108 118 107 102 105 131 163 114 108 113 135 102 101 131 149 143
leaf_count=101 188 108 118 107 102 105 131 163 114 108 113 135 102 101 131 149 143
internal_value=-0.00326724 0.000955414 -0.00151876 0.00564516 0.0127841 -0.00560704 0.000793651 0.0115572 -0.0110256 -0.0087234 -0.00274262 -0.0136364 0.00956522 -0.00570776 0.00462185 0.0189655 -0.00633803
internal_weight=2219 2031 1679 610 352 1069 494 401 575 470 227 243 220 209 238 251 274
internal_count=2219 2031 1679 610 352 1069 494 401 575 470 227 243 220 209 238 251 274
cat_boundaries=0 1 2 3 4 5 6 7 8 9 10 11
cat_threshold=32 941331970 292555430 268972706 588837317 35678665 1094986144 3231777282 805536768 270008832 2243971392
is_linear=0
shrinkage=0.05


Tree=32
num_leaves=18
num_cat=12
split_feature=64 65 66 52 66 65 58 65 65 68 66 65 59 65 66 65 29
split_gain=149.98 17.209 16.3638 11.651 12.9759 10.0843 6.34004 8.92933 5.42179 5.31667 4.98616 4.73821 5.26836 4.66348 3.26594 2.81359 2.38837
threshold=0 1 2 58.301025390625007 3 4 93.855941772460952 5 6 2020.5000000000002 7 8 16.310526847839359 9 10 11 66.812385559082045
decision_type=9 1 1 2 1 1 2 1 1 2 1 1 2 1 1 1 2
left_child=1 2 11 -3 5 -5 7 -4 9 -6 -10 14 -13 -8 -1 -7 -12
right_child=-2 3 6 4 8 15 13 -9 10 -11 16 12 -14 -15 -16 -17 -18
leaf_value=-0.29524592182524856 -2.0653803347431956 -2.2855665266402378 1.2636021934383317 1.3962996618371777 0.54086711416511268 0.3791548058147669 0.71749278006590778 -0.4461766777025446 -1.3799484887884526 -0.56640779828641008 -0.69773675845957972 0.084634790867573889 -0.70858942832178551 1.2657798894516661 0.52324139645606427 -0.37621850433935933 0.013774772636390509
leaf_weight=107 177 144 104 121 123 119 121 141 104 121 107 101 117 193 132 120 100
leaf_count=107 177 144 104 121 123 119 121 141 104 121 107 101 117 193 132 120 100
internal_value=-0.00284192 0.00103118 0.00565302 -0.00341441 -0.00136612 0.00594595 0.0113357 0.0055102 -0.00610619 -0.000393701 -0.0104361 -0.00139186 -0.00657895 0.016242 0.00341365 -0.000200803 -0.00529954
internal_weight=2252 2075 1016 1059 915 360 559 245 555 244 311 457 218 314 239 239 207
internal_count=2252 2075 1016 1059 915 360 559 245 555 244 311 457 218 314 239 239 207
cat_boundaries=0 1 2 3 4 5 6 7 8 9 10 11 12
cat_threshold=32 622579587 375574164 1835097088 2149847076 1574529 1220546584 268862224 622036992 68159873 274745360 411041816
is_linear=0
shrinkage=0.05


Tree=33
num_leaves=18
num_cat=10
split_feature=64 66 65 65 45 66 39 59 66 44 66 66 70 65 56 65 51
split_gain=161.164 18.8642 19.5202 15.6333 11.3697 6.08772 7.18154 5.6121 5.536 5.04661 6.85195 4.65908 4.61016 4.38877 3.59748 2.65401 0.580317
threshold=0 1 2 3 84.561077117919936 4 61.916942596435554 16.619710922241214 5 136.89161682128909 6 7 5.5000000000000009 8 80.84253311157228 9 41.410039901733406
decision_type=9 1 1 1 2 1 2 2 1 2 1 1 2 1 2 1 2
left_child=1 2 8 5 12 7 -7 -3 -1 11 -11 -5 -4 -13 -6 -10 -15
right_child=-2 3 4 9 14 6 -8 -9 15 10 -12 13 -14 16 -16 -17 -18
leaf_value=0.25401542934766258 -1.9636992867560359 0.74013904885726378 -0.23294632891649059 -0.1068647722721849 1.5584273274829614 0.16957432443496431 1.3609208959166701 -0.20476398810698698 -0.052903476770285354 -0.58188455435688269 0.60589458882669123 -0.29969763621504414 0.5162893667557612 -1.9708331379400628 1.0967519120624416 -0.66790116848636893 -1.44182968398639
leaf_weight=128 188 102 103 109 114 141 100 131 119 102 118 116 174 103 141 114 114
leaf_count=128 188 102 103 109 114 141 100 131 119 102 118 116 174 103 141 114 114
internal_value=-0.00290934 0.00129966 0.00669989 -0.00296684 0.0127306 0.00392562 0.00936255 -0.00185185 -0.00229111 -0.0078869 -0.00181818 -0.011086 0.00595668 -0.0138484 0.0205882 -0.00679012 -0.0182819
internal_weight=2217 2029 893 1136 532 474 241 233 361 662 220 442 277 333 255 233 217
internal_count=2217 2029 893 1136 532 474 241 233 361 662 220 442 277 333 255 233 217
cat_boundaries=0 1 2 3 4 5 6 7 8 9 10
cat_threshold=32 2879181888 2448466084 961773969 341835939 2206204928 131772 4194978 67650144 287318020
is_linear=0
shrinkage=0.05


Tree=34
num_leaves=16
num_cat=5
split_feature=64 29 69 66 59 66 69 66 37 68 59 8 69 69 66
split_gain=148.52 14.8047 27.7962 13.3258 9.11884 12.0625 5.93542 11.7828 5.93488 3.61927 6.14568 5.28179 3.57304 4.69959 3.88483
threshold=0 62.969661712646491 3.5000000000000004 1 7.592393398284913 2 12.500000000000002 3 61.436210632324226 2021.5000000000002 19.359656333923343 74.475086212158217 5.5000000000000009 10.500000000000002 4
decision_type=9 2 2 1 2 1 2 1 2 2 2 2 2 2 1
left_child=1 2 -1 12 -4 -6 9 -8 -7 10 11 -5 -3 -14 -15
right_child=-2 3 4 6 5 8 7 -9 -10 -11 -12 -13 13 14 -16
leaf_value=1.2251380702957464 -1.865514322418234 0.46658414341233301 -2.5660156056999548 0.40722300159932134 0.56318250311607021 -0.38667691704597051 -0.79331615060739447 0.71511762267642076 -1.1405676275427852 0.14158094310777544 0.22936899586135412 1.6121207346800994 -0.45124476072529945 0.36055120090005632 -0.52805427790902615
leaf_weight=159 185 124 169 163 109 187 109 185 149 130 100 102 119 104 106
leaf_count=159 185 124 169 163 109 187 109 185 149 130 100 102 119 104 106
internal_value=-0.00372727 0.000320988 -0.00510996 0.0037037 -0.00993485 -0.00617978 0.00757196 0.00204082 -0.0106936 0.0110101 0.0135616 0.0175472 -0.00313175 -0.00592705 -0.00142857
internal_weight=2200 2015 773 1242 614 445 789 294 336 495 365 265 453 329 210
internal_count=2200 2015 773 1242 614 445 789 294 336 495 365 265 453 329 210
cat_boundaries=0 1 2 3 4 5
cat_threshold=32 2258766644 698417154 139821058 44042512
is_linear=0
shrinkage=0.05


Tree=35
num_leaves=17
num_cat=9
split_feature=64 66 65 69 51 65 70 69 66 65 65 59 65 69 65 45
split_gain=144.436 18.7953 14.4149 14.059 13.6614 12.1223 8.3766 9.11427 9.87754 7.87075 6.41157 5.63202 4.48477 4.261 3.58216 1.09297
threshold=0 1 2 3.5000000000000004 44.969169616699226 3 4.5000000000000009 13.500000000000002 4 5 6 19.662139892578129 7 7.5000000000000009 8 81.230850219726577
decision_type=9 1 1 2 2 1 2 2 1 1 1 2 1 2 1 2
left_child=1 3 4 -1 10 15 -4 8 -8 -10 -3 12 -6 -11 -7 -5
right_child=-2 2 6 5 11 14 7 -9 9 13 -12 -13 -14 -15 -16 -17
leaf_value=0.82622867550389645 -1.7722386062973223 0.64655188073979708 -0.85329848812789999 -1.1071275802044525 0.62456083341320723 -0.36646652082507886 -0.29864466482254243 -0.35699928429175076 1.430586717553868 0.65485167880575268 -0.99995737986938882 0.49107883658898577 2.1974196155066807 -0.012597313492042872 0.18248438108924461 -0.42868252268903434
leaf_weight=110 185 119 176 119 109 120 111 186 101 105 107 105 155 103 193 101
leaf_count=110 185 119 176 119 109 120 111 186 101 105 107 105 155 103 193 101
internal_value=-0.0022449 0.00172414 0.00501081 -0.00528331 0.0108264 -0.0087242 0.000505051 0.00330033 0.00738095 0.0117555 0.00132743 0.0169377 0.0208333 0.00550459 -0.00201238 -0.0173913
internal_weight=2205 2020 1377 643 595 533 782 606 420 309 226 369 264 208 313 220
internal_count=2205 2020 1377 643 595 533 782 606 420 309 226 369 264 208 313 220
cat_boundaries=0 1 2 3 4 5 6 7 8 9
cat_threshold=32 350224812 822320666 2204177431 33630225 1143488769 268440080 268441090 1082174144
is_linear=0
shrinkage=0.05


Tree=36
num_leaves=16
num_cat=7
split_feature=64 66 65 56 65 39 69 59 65 66 68 69 15 66 13
split_gain=141.009 15.0827 12.8708 12.2082 10.2561 9.13672 5.39915 6.40527 7.12855 5.14591 4.29373 4.11 6.53558 6.83163 1.90739
threshold=0 1 2 41.313571929931648 3 52.842376708984382 14.500000000000002 18.715964317321781 4 5 2020.5000000000002 4.5000000000000009 77.300498962402358 6 132.51677703857425
decision_type=9 1 1 2 1 2 2 2 1 1 2 2 2 1 2
left_child=1 2 5 -3 14 -1 7 8 -6 -10 -11 -4 -13 -14 -5
right_child=-2 3 11 4 6 -7 -8 -9 9 10 -12 12 13 -15 -16
leaf_value=-1.4522319189540482 -1.6836266759824561 -2.1822274747086934 0.66430955882477605 0.33334540691822528 1.13790737965343 -0.12477782644687779 -0.21018410934135048 -0.18301272735132132 1.0657999289278053 0.71856236551146968 -0.25757083673768694 -0.62897222037177414 1.0265710883654677 -0.19584497160871026 1.5187026136932191
leaf_weight=165 184 140 121 115 107 185 176 117 123 105 124 150 117 157 110
leaf_count=165 184 140 121 115 107 185 176 117 123 105 124 150 117 157 110
internal_value=-0.00259563 0.00133531 -0.00348066 0.00519077 0.00721597 -0.0108333 0.00419948 0.00659722 0.00925926 0.00524862 0.000627615 0.00135135 -0.000943396 0.00364964 0.016383
internal_weight=2196 2012 895 1117 977 350 752 576 459 352 229 545 424 274 225
internal_count=2196 2012 895 1117 977 350 752 576 459 352 229 545 424 274 225
cat_boundaries=0 1 2 3 4 5 6 7
cat_threshold=32 371360254 3286253607 573704194 1208026369 1635796992 301989978
is_linear=0
shrinkage=0.05


Tree=37
num_leaves=17
num_cat=5
split_feature=64 66 69 45 63 59 66 29 68 59 66 59 66 59 69 2
split_gain=131.337 12.6315 6.80582 11.9135 6.38609 8.35522 5.90742 4.62481 4.2124 4.03761 4.00566 3.92132 4.30251 1.83482 1.04848 0.32
threshold=0 1 3.5000000000000004 36.787801742553718 89.928344726562514 19.563585281372074 2 69.671966552734389 2019.5000000000002 16.824226379394535 3 15.955472946166994 4 18.430469512939457 12.500000000000002 80.216850280761733
decision_type=9 1 2 2 2 2 1 2 2 2 1 2 1 2 2 2
left_child=1 4 -3 -4 8 13 7 -5 -1 14 -11 12 -10 -6 -8 -9
right_child=-2 2 3 6 5 -7 9 15 11 10 -12 -13 -14 -15 -16 -17
leaf_value=0.5994203524610342 -1.5994453421833335 0.42756674131806138 -2.1869803010174351 -0.018930594455979135 0.95459595976101286 -0.023656202681209493 0.23451078408980594 0.64122252343849695 -0.52832020999428131 -0.04881431819220694 -0.64735546942785482 -0.22682623778870906 0.44241471008042982 0.99048248879068701 -0.31804449596049555 0.75578055301264591
leaf_weight=129 191 195 103 193 118 108 108 100 103 108 147 120 192 103 107 100
leaf_count=129 191 195 103 193 118 108 108 100 103 108 147 120 192 103 107 100
internal_value=-0.00249438 0.00132094 -0.00209223 -0.00383023 0.00583239 0.0113982 -0.00191194 0.00260546 0.00257353 -0.005625 -0.01 0.000120482 0.00322034 0.0169683 -0.000697674 0.008
internal_weight=2225 2034 1161 966 873 329 863 393 544 470 255 415 295 221 215 200
internal_count=2225 2034 1161 966 873 329 863 393 544 470 255 415 295 221 215 200
cat_boundaries=0 1 2 3 4 5
cat_threshold=32 2300376833 1379991626 545261584 549632
is_linear=0
shrinkage=0.05


Tree=38
num_leaves=17
num_cat=6
split_feature=64 66 69 59 66 11 59 6 66 43 66 59 37 66 69 68
split_gain=123.165 11.9351 7.16888 8.97389 4.85225 4.53738 8.44498 5.33881 6.32881 4.208 8.48321 7.09145 5.15756 4.04511 4.89833 2.95931
threshold=0 1 4.5000000000000009 8.5816645622253436 2 92.62613677978517 17.233647346496586 134.23059844970706 3 122.9494972229004 4 16.696068763732914 83.04123687744142 5 10.500000000000002 2020.5000000000002
decision_type=9 1 2 2 1 2 2 2 1 2 1 2 2 1 2 2
left_child=1 5 4 -4 -3 13 -7 -8 -9 10 -5 15 -11 -1 -15 -12
right_child=-2 2 3 9 -6 6 7 8 -10 12 11 -13 -14 14 -16 -17
leaf_value=-1.1783557844057284 -1.5194730750741667 0.37743404920755952 -1.9789575676986524 -0.6919761281246366 1.1454502247563341 0.54879735306563338 -0.60145892497639442 0.71568997460943251 -0.33211945411022725 0.73111263414874805 1.1828048534346045 -0.23001189172384501 0.1469357295311994 0.25304960760862516 -0.99390657967592666 0.17374762315116998
leaf_weight=106 187 105 104 111 156 155 101 115 141 118 130 113 167 124 125 158
leaf_count=106 187 105 104 111 156 155 101 115 141 118 130 113 167 124 125 158
internal_value=-0.00261733 0.00105444 0.00435154 0.00227525 0.0116858 -0.00336374 -0.000390625 -0.00462185 -0.00078125 0.00407779 0.00136719 0.00474453 0.00894737 -0.00774648 -0.00366795 0.00902778
internal_weight=2216 2029 1162 901 261 867 512 357 256 797 512 401 285 355 249 288
internal_count=2216 2029 1162 901 261 867 512 357 256 797 512 401 285 355 249 288
cat_boundaries=0 1 2 3 4 5 6
cat_threshold=32 375531838 538481665 306325512 2155872832 268445712
is_linear=0
shrinkage=0.05


Tree=39
num_leaves=18
num_cat=11
split_feature=64 66 65 65 40 59 66 66 65 58 59 59 65 66 66 66 67
split_gain=119.619 17.7883 17.056 13.477 8.04244 6.62252 6.65794 4.69971 5.39572 4.38064 6.4026 6.81097 3.55582 5.10711 4.02863 2.84843 2.41282
threshold=0 1 2 3 82.178142547607436 18.928990364074711 4 5 6 73.072032928466811 17.797942161560062 15.565607070922853 7 8 9 10 1.0000000180025095e-35
decision_type=9 1 1 1 2 2 1 1 1 2 2 2 1 1 1 1 2
left_child=1 2 4 5 15 6 -3 -5 -9 -10 11 -11 13 -4 -14 -1 -8
right_child=-2 3 12 7 -6 -7 16 8 9 10 -12 -13 14 -15 -16 -17 -18
leaf_value=0.053716890781105066 -1.4434994213204584 -0.52287046927437186 0.23909465194242616 -0.91409012189748617 1.3273596056874517 1.4657791600961632 -0.016339176282642143 0.49257313289358823 -2.650141575469485 -0.75327961085713468 -0.8576612855909076 0.360173599675575 -0.045178671691671474 -0.52597715458997463 0.44249208142190144 0.91479010755813528 0.75850303812269859
leaf_weight=105 194 104 101 120 138 117 102 109 105 110 152 126 103 156 162 100 107
leaf_count=105 194 104 101 120 138 117 102 109 105 110 152 126 103 156 162 100 107
internal_value=-0.00273632 0.000962013 0.00634286 -0.00309811 0.0148725 0.00386364 0.000159744 -0.00724044 -0.00522876 -0.00745527 -0.00515464 0 0.00056391 -0.00355805 0.00454545 0.00902439 0.00525114
internal_weight=2211 2017 865 1152 343 430 313 722 602 493 388 236 522 257 265 205 209
internal_count=2211 2017 865 1152 343 430 313 722 602 493 388 236 522 257 265 205 209
cat_boundaries=0 1 2 3 4 5 6 7 8 9 10 11
cat_threshold=32 3448061248 814739984 672437955 272629909 268566530 2248212480 2197816519 3238081536 3238003968 1224812544
is_linear=0
shrinkage=0.05


Tree=40
num_leaves=17
num_cat=12
split_feature=64 66 65 65 66 47 66 31 65 70 65 66 66 67 65 65
split_gain=111.978 10.1029 14.8108 9.57016 6.88888 5.13982 4.40958 3.50865 3.58757 2.85903 4.84829 8.59166 6.43285 2.4273 1.79678 1.59719
threshold=0 1 2 3 4 61.089027404785163 5 44.735651016235359 6 4.5000000000000009 7 8 9 1.0000000180025095e-35 10 11
decision_type=9 1 1 1 1 2 1 2 1 2 1 1 1 2 1 1
left_child=1 2 4 5 -1 -3 -4 -6 -9 -5 11 -11 -12 -13 -14 -8
right_child=-2 3 6 9 7 -7 15 8 -10 10 12 13 14 -15 -16 -17
leaf_value=-0.31488601801923366 -1.3713244502544355 0.31274054757751629 -0.11451340307867071 -0.51187857473281262 0.9789531682201571 1.3094570654297286 -0.50992837903183952 0.55303275851833722 -0.10713368819230809 -0.096173951233476634 1.0232677948631832 0.7850551325403835 -0.047490519490455088 0.54751603354799272 -0.98995075607003713 -0.7991394005977952
leaf_weight=128 193 147 103 154 119 179 119 105 104 110 101 124 100 111 105 197
leaf_count=128 193 147 103 154 119 179 119 105 104 110 101 124 100 111 105 197
internal_value=-0.00279673 0.000793651 -0.00322034 0.00390009 0.00300429 0.0110119 -0.00990676 0.00680473 0.00311005 0.000920245 0.00238095 0.00633803 -0.00221519 0.0116327 -0.0072093 -0.0128834
internal_weight=2199 2006 875 1131 456 326 419 328 209 805 651 345 306 235 205 316
internal_count=2199 2006 875 1131 456 326 419 328 209 805 651 345 306 235 205 316
cat_boundaries=0 1 2 3 4 5 6 7 8 9 10 11 12
cat_threshold=32 379781822 3155992449 2327094 268566672 67109008 538220800 1787562313 3221512193 4990016 268461184 29360200
is_linear=0
shrinkage=0.05


Tree=41
num_leaves=18
num_cat=12
split_feature=64 65 66 66 69 66 65 49 65 65 66 65 59 65 66 68 31
split_gain=100.277 14.2082 10.2202 7.72616 7.72747 8.405 7.05753 6.06485 5.54238 4.69213 4.57035 5.52432 3.36491 2.86181 2.49246 2.164 0.332184
threshold=0 1 2 3 6.5000000000000009 4 5 40.597539901733406 6 7 8 9 16.339880943298343 10 11 2020.5000000000002 44.947807312011726
decision_type=9 1 1 1 2 1 1 2 1 1 1 1 2 1 1 2 2
left_child=1 2 9 6 5 -5 -3 -4 -9 14 13 -12 -10 -6 -1 -8 -11
right_child=-2 3 7 4 10 -7 15 8 12 16 11 -13 -14 -15 -16 -17 -18
leaf_value=-0.57326846207811855 -1.3027582277417138 -0.034151978511928152 -1.5255149407246265 -0.25614859983982685 -0.030904835830860122 1.3453860675140157 1.3316422643685386 0.26964247093511917 -0.055307230584347167 0.58155501627902673 -0.50296902000036781 0.59818626699710298 -0.82965403512767333 -0.93722928415678197 0.0079871714023823873 0.70294388414059061 0.34139042734006825
leaf_weight=107 185 100 134 101 103 146 135 106 103 102 102 178 109 110 135 148 104
leaf_count=107 185 100 134 101 103 146 135 106 103 102 102 178 109 110 135 148 104
internal_value=-0.00294384 0.000368913 -0.00428571 0.00410415 0.00106667 0.0082996 0.00979644 -0.00952381 -0.00597484 0.0010917 -0.0025355 0.00172414 -0.0103604 -0.00784753 -0.00357143 0.0138225 0.00648148
internal_weight=2208 2023 900 1123 740 247 383 452 318 448 493 280 212 213 242 283 206
internal_count=2208 2023 900 1123 740 247 383 452 318 448 493 280 212 213 242 283 206
cat_boundaries=0 1 2 3 4 5 6 7 8 9 10 11 12
cat_threshold=32 3336595636 3238854437 563877232 304120457 402653251 102770688 3332382720 1145251972 16909121 806392384 571428
is_linear=0
shrinkage=0.05


Tree=42
num_leaves=17
num_cat=11
split_feature=64 69 66 65 66 66 69 65 65 66 45 31 65 66 66 6
split_gain=107.27 12.9731 18.2579 14.7278 13.9288 13.2455 6.15884 8.32131 6.04229 5.28844 3.90144 4.1557 3.87262 3.95754 2.00718 1.21432
threshold=0 3.5000000000000004 1 2 3 4 13.500000000000002 5 6 7 75.469722747802749 50.374322891235359 8 9 10 115.49739456176759
decision_type=9 2 1 1 1 1 2 1 1 1 2 2 1 1 1 2
left_child=1 2 -1 5 6 10 7 -5 -7 -4 -3 -12 15 -14 -10 -6
right_child=-2 3 9 4 12 8 -8 -9 14 -11 11 -13 13 -15 -16 -17
leaf_value=1.8207504624352866 -1.2376203163546282 0.045164298458792024 -0.38782113318243749 -0.74859690597440653 -0.79544211918619045 0.18053367509885981 0.49017407925497275 0.25286247007326285 -0.066715478122480937 0.608882161252987 1.3539204644964344 0.56194856345036048 -0.19677850956271783 -1.2314921790346305 -0.60196034602535209 -0.045319969152856743
leaf_weight=109 195 131 107 109 100 128 132 120 102 143 110 197 107 175 161 107
leaf_count=109 195 131 107 109 100 128 132 120 102 143 110 197 107 175 161 107
internal_value=-0.00333632 0.000146484 0.00877437 -0.00169744 -0.00627907 0.00303933 0.00121294 -0.00371179 -0.00361596 0.000769231 0.00892857 0.012215 -0.0117234 -0.0157534 -0.00787546 -0.00576037
internal_weight=2233 2038 359 1679 850 829 361 229 391 250 438 307 489 282 263 207
internal_count=2233 2038 359 1679 850 829 361 229 391 250 438 307 489 282 263 207
cat_boundaries=0 1 2 3 4 5 6 7 8 9 10 11
cat_threshold=32 2353332580 608159650 1378205186 1134189177 3258974236 537461792 52467737 1396703240 2751987796 4464772
is_linear=0
shrinkage=0.05


Tree=43
num_leaves=17
num_cat=8
split_feature=64 65 66 66 65 65 66 48 69 52 39 39 58 66 51 11
split_gain=82.4372 10.2832 8.32982 7.87776 7.5052 5.90693 6.9229 6.80053 4.89516 4.81092 4.51383 4.29647 2.23964 4.61435 1.87135 0.98
threshold=0 1 2 3 4 5 6 104.24878311157228 11.500000000000002 115.90164947509767 59.999002456665046 55.806165695190437 95.987350463867202 7 42.792257308959968 107.78213500976564
decision_type=9 1 1 1 1 1 1 2 2 2 2 2 2 1 2 2
left_child=1 2 8 4 -3 11 7 -7 -1 -8 -6 -5 13 -4 -15 -14
right_child=-2 3 12 5 10 6 9 -9 -10 -11 -12 -13 15 14 -16 -17
leaf_value=-0.076486817936657306 -1.1757393005368966 -0.84371954939408489 -0.0066314542250893284 0.5553554310694907 0.76135708601350283 -0.64991212843602852 1.2156283574120523 0.63083537920844757 0.32595042548476982 0.38804047383681139 -0.097660600307810347 -0.34123183954953906 -0.018855107408316488 -1.0689789442637163 -1.6447494113570997 -0.17150698890401586
leaf_weight=195 187 101 103 105 104 102 154 126 145 184 117 148 100 152 101 100
leaf_count=195 187 101 103 105 104 102 154 126 145 184 117 148 100 152 101 100
internal_value=-0.0028777 0.00012213 -0.00386313 0.00325804 -0.00331325 0.00585042 0.00868056 0.00168067 0.00228571 0.0132184 0.00194805 -0.000570342 -0.00759717 -0.0101124 -0.0134981 -0.0035
internal_weight=2224 2037 896 1141 322 819 566 228 340 338 221 253 556 356 253 200
internal_count=2224 2037 896 1141 322 819 566 228 340 338 221 253 556 356 253 200
cat_boundaries=0 1 2 3 4 5 6 7 8
cat_threshold=32 3250599278 709684256 186779700 369164289 3424896 1087922818 8524034
is_linear=0
shrinkage=0.05


Tree=44
num_leaves=18
num_cat=11
split_feature=64 65 66 66 69 68 65 69 65 15 65 66 65 66 69 66 8
split_gain=88.2489 13.4349 11.1454 7.60522 7.65947 7.32885 11.3744 6.83184 6.48593 5.96616 4.31801 4.22237 3.35187 1.7958 1.78185 1.67751 1.66593
threshold=0 1 2 3 3.5000000000000004 2021.5000000000002 4 5.5000000000000009 5 79.638469696044936 6 7 8 9 13.500000000000002 10 66.892742156982436
decision_type=9 1 1 1 2 2 1 2 1 2 1 1 1 1 2 1 2
left_child=1 2 10 4 -3 6 16 -4 13 -8 -1 -9 -13 -6 -10 -12 -5
right_child=-2 3 7 5 8 -7 9 11 14 -11 15 12 -14 -15 -16 -17 -18
leaf_value=0.19151955708419166 -1.1169523355100519 0.78944134530258625 0.80113266022012231 0.44961948878477997 -0.55993506235583801 -0.38913355068329736 -0.71561126004402242 -0.37659909144667414 -0.90973842431616281 0.46992944850679524 1.0181284144309302 0.28481211118575445 -0.38284357225949112 0.049714927943021084 -0.37854007312927679 1.925884774058696 0.88434392826135522
leaf_weight=110 181 105 119 104 100 163 155 117 178 113 103 104 112 120 107 109 102
leaf_count=110 181 105 119 104 100 163 155 117 178 113 103 104 112 120 107 109 102
internal_value=-0.00286104 0.000221566 0.00535714 -0.00298329 -0.00693548 0.000850077 0.00400844 0.00021645 -0.00960396 -0.0028777 0.0123494 -0.00345345 0.000884956 -0.0026087 -0.0144068 0.0166667 0.0125
internal_weight=2202 2021 774 1247 610 637 474 452 505 268 322 333 216 220 285 212 206
internal_count=2202 2021 774 1247 610 637 474 452 505 268 322 333 216 220 285 212 206
cat_boundaries=0 1 2 3 4 5 6 7 8 9 10 11
cat_threshold=32 689691392 607925465 347802934 3498049707 348128308 537938432 142704930 16958208 336592934 3420161
is_linear=0
shrinkage=0.05


Tree=45
num_leaves=18
num_cat=6
split_feature=64 69 63 68 66 66 27 59 59 66 2 66 66 67 49 68 3
split_gain=84.7226 11.1175 18.0111 10.4735 20.5415 14.5765 9.62816 5.75358 5.69303 5.72242 5.38381 4.97276 3.36341 3.00081 2.90096 2.39231 0.80765
threshold=0 1.5000000000000002 37.72441482543946 2020.5000000000002 1 2 81.001377105712905 16.339880943298343 17.511234283447269 3 77.71170806884767 4 5 1.0000000180025095e-35 54.847656250000007 2021.5000000000002 103.31325912475587
decision_type=9 2 2 2 1 1 2 2 2 1 2 1 1 2 2 2 2
left_child=1 -1 -3 4 7 15 12 -4 9 13 -9 -10 -6 -7 -8 -5 -11
right_child=-2 2 3 5 6 8 14 10 11 16 -12 -13 -14 -15 -16 -17 -18
leaf_value=1.5718843249611809 -1.0611047187345493 -2.3709441194628016 0.11953996519247596 0.5557400014859788 0.27264350064348547 -0.25140219664281321 1.465793116840969 -1.363894210754667 -0.80188511039318089 -0.42377478243570582 -0.21257717941148116 -0.16505595422956462 -0.044300470620792259 0.3108846276220632 1.2182188528636033 0.084166433377193789 -0.42181222151327946
leaf_weight=113 186 157 115 128 101 105 124 101 105 100 109 156 138 113 143 116 106
leaf_count=113 186 157 115 128 101 105 124 101 105 100 109 156 138 113 143 116 106
internal_value=-0.00279783 0.000245098 -0.000652061 0.000795455 0.00487365 -0.00285253 0.0110465 -0.00492537 -0.00654676 -0.00306604 -0.01 -0.0124521 0.0039749 0.00263158 0.0177903 0.00748031 -0.0087963
internal_weight=2216 2030 1917 1760 831 929 506 325 685 424 210 261 239 218 267 244 206
internal_count=2216 2030 1917 1760 831 929 506 325 685 424 210 261 239 218 267 244 206
cat_boundaries=0 1 2 3 4 5 6
cat_threshold=32 1962115088 1964081152 177098050 33957411 2147490185
is_linear=0
shrinkage=0.05


Tree=46
num_leaves=16
num_cat=10
split_feature=64 66 65 65 69 49 66 65 65 65 69 51 49 66 65
split_gain=83.8783 9.38988 12.9186 8.65615 9.89099 4.92229 4.50811 8.53413 4.48635 3.93556 3.94416 4.35988 3.92062 3.49379 3.34693
threshold=0 1 2 3 5.5000000000000009 50.374319076538093 4 5 6 7 12.500000000000002 48.313446044921882 46.198760986328132 8 9
decision_type=9 1 1 1 2 2 1 1 1 1 2 2 2 1 1
left_child=1 2 5 6 -5 -1 7 -3 13 12 11 -11 -4 -6 -8
right_child=-2 3 9 4 8 -7 14 -9 -10 10 -12 -13 -14 -15 -16
leaf_value=0.7020666409519859 -1.0080494827978217 -0.60064871745179582 -0.59879293224887531 0.71799558672692998 -0.13433238004109854 1.3401642864278245 -1.2343043056944922 0.58936364089288273 -0.34653567382827366 0.74333160145002075 -0.053639060486800366 0.072020247040961757 0.11545404309396404 0.91735043240353564 -0.40719181631903878
leaf_weight=108 185 113 175 165 101 109 110 115 173 167 163 127 166 119 138
leaf_count=108 185 113 175 165 101 109 110 115 173 167 163 127 166 119 138
internal_value=-0.00174575 0.00123847 0.00463415 -0.00210728 0.00211268 0.0151982 -0.00699588 -0.00168067 -0.00216285 0.00160891 0.00460385 0.00816327 -0.00242165 0.0026087 -0.0116279
internal_weight=2234 2049 1015 1034 558 217 476 228 393 798 457 294 341 220 248
internal_count=2234 2049 1015 1034 558 217 476 228 393 798 457 294 341 220 248
cat_boundaries=0 1 2 3 4 5 6 7 8 9 10
cat_threshold=32 3411866689 33755651 2254591406 69339444 71304330 689734208 3519029292 75696134 37896226
is_linear=0
shrinkage=0.05


Tree=47
num_leaves=18
num_cat=10
split_feature=64 31 66 66 65 65 68 66 68 66 49 43 65 66 66 31 67
split_gain=88.7713 9.76223 16.427 10.8451 15.8491 8.75836 5.42108 7.0136 5.0153 5.63257 3.96784 4.06057 3.87604 3.61693 2.34961 4.55081 2.02046
threshold=0 34.495820999145515 1 2 3 4 2020.5000000000002 5 2021.5000000000002 6 51.061370849609382 107.1982765197754 7 8 9 49.903194427490241 1.0000000180025095e-35
decision_type=9 2 1 1 1 1 2 1 2 1 2 2 1 1 1 2 2
left_child=1 2 -1 5 14 6 13 -8 9 -6 11 -7 -11 -3 -5 -16 -4
right_child=-2 3 16 4 8 10 7 -9 -10 12 -12 -13 -14 -15 15 -17 -18
leaf_value=-2.0313638665956435 -0.95764700865793062 0.54275784845157415 -0.75377233970270441 1.43663725157342 -0.6519890651622845 -0.0096723205045350369 -0.20879890164368292 1.1468850955467189 -0.67860959531011034 -0.17471599712358454 -0.1477619035736005 0.65086670899861976 0.25281854808536081 1.3425505116345819 0.70337309594774533 -0.23419383971408367 1.2820570181502178
leaf_weight=108 195 102 125 105 110 131 112 115 132 108 166 122 132 113 107 120 119
leaf_count=108 195 102 125 105 110 131 112 115 132 108 166 122 132 113 107 120 119
internal_value=-0.00157516 0.00159548 -0.00596591 0.00319403 -0.000970874 0.00706085 0.0119469 0.00682819 -0.00670732 -0.00371429 0.00174825 0.00573123 0.0008 0.017907 0.00730994 0.00400844 0.0015748
internal_weight=2222 2027 352 1675 814 861 442 227 482 350 419 253 240 215 332 227 244
internal_count=2222 2027 352 1675 814 861 442 227 482 350 419 253 240 215 332 227 244
cat_boundaries=0 1 2 3 4 5 6 7 8 9 10
cat_threshold=32 1367431168 3831363649 1750954368 1045665850 541124609 2228252 304119924 3763601408 1306
is_linear=0
shrinkage=0.05


Tree=48
num_leaves=17
num_cat=6
split_feature=64 66 68 66 51 66 59 59 15 69 69 70 66 66 68 67
split_gain=67.015 9.55287 8.43484 9.02665 6.8766 4.93943 4.65427 6.91829 3.44683 3.36275 3.22737 6.74738 4.60787 1.8945 1.38881 1.30173
threshold=0 1 2020.5000000000002 2 49.263498306274421 3 17.511234283447269 15.405189514160158 78.072402954101577 10.500000000000002 3.5000000000000004 4.5000000000000009 4 5 2020.5000000000002 1.0000000180025095e-35
decision_type=9 1 2 1 2 1 2 2 2 2 2 2 1 1 2 2
left_child=1 10 3 8 9 -4 7 13 -3 -5 -1 -12 14 -7 -13 -14
right_child=-2 2 5 4 -6 6 -8 -9 -10 -11 11 12 15 -15 -16 -17
leaf_value=0.13343467061823447 -0.90976465822503416 0.24004788832492352 -0.32510844060709804 0.094059439408618328 0.6610419278699653 0.31119376127930992 -0.17754222436703346 1.0452902286679575 1.3683333690698363 -0.9027055208467708 -1.6585661373349183 -0.037201093979069101 -0.1669812119246501 -0.30658806906624464 0.14218565300314764 -0.49571245691511978
leaf_weight=108 194 105 126 136 141 103 179 118 116 102 114 118 130 108 148 128
leaf_count=108 194 105 126 136 141 103 179 118 116 102 114 118 130 108 148 128
internal_value=-0.0026219 0.000201005 0.00289389 0.00716667 0.00218509 -0.0011041 0.0011583 0.00471125 0.0149351 -0.00294118 -0.0042328 -0.00564263 -0.00324427 -0.0007109 0.00144928 -0.00783582
internal_weight=2174 1980 1234 600 379 634 508 329 221 238 746 638 524 211 266 258
internal_count=2174 1980 1234 600 379 634 508 329 221 238 746 638 524 211 266 258
cat_boundaries=0 1 2 3 4 5 6
cat_threshold=32 381911205 1324808 13320 42172417 553664850
is_linear=0
shrinkage=0.05


Tree=49
num_leaves=19
num_cat=11
split_feature=64 65 66 66 65 65 15 65 21 66 49 66 69 69 66 65 68 13
split_gain=70.9244 10.671 15.7022 8.74063 9.67553 5.99208 5.94387 5.83864 8.58911 6.08176 5.88995 3.87977 3.33131 3.91318 2.42353 1.86169 1.62332 0.404333
threshold=0 1 2 3 4 5 81.08255767822267 6 76.769195556640639 7 49.185762405395515 8 5.5000000000000009 11.500000000000002 9 10 2020.5000000000002 123.21660614013673
decision_type=9 1 1 1 1 1 2 1 2 1 2 1 2 2 1 1 2 2
left_child=1 2 12 5 16 6 -3 8 -4 -9 -11 -7 -1 -14 -6 -16 -5 -13
right_child=-2 3 7 4 14 11 -8 9 -10 10 -12 17 13 -15 15 -17 -18 -19
leaf_value=-0.095380071113940812 -0.86427642531378257 0.81689166276762748 -0.066687363034267838 1.2999167006163448 1.0032129442089819 -0.82414207517620786 -0.059746657886969957 0.55852328381739225 1.6572389321027914 0.023728036673457353 -0.50327636552255084 -0.12071316866760072 -0.73548414274744767 -0.91747652803907731 0.15545479153952613 -0.34691276432879053 0.71354291006990145 0.040644402487735931
leaf_weight=103 185 106 102 110 119 119 121 105 110 138 105 100 108 141 112 126 120 101
leaf_count=103 185 106 102 110 119 119 121 105 110 138 105 100 108 141 112 126 120 101
internal_value=-0.00221874 0.000535019 -0.00347072 0.00375874 0.00795645 -0.000807899 0.00527426 0.00175439 0.00810811 -0.00223464 -0.00652174 -0.00515152 -0.0116022 -0.0150602 0.00258856 -0.000403226 0.0158333 -0.0007109
internal_weight=2231 2046 912 1134 587 547 227 560 212 348 243 320 352 249 357 238 230 201
internal_count=2231 2046 912 1134 587 547 227 560 212 348 243 320 352 249 357 238 230 201
cat_boundaries=0 1 2 3 4 5 6 7 8 9 10 11
cat_threshold=32 3236487286 849805792 532842527 773129216 134615944 2156429330 17315840 218105872 3416128 285344257
is_linear=0
shrinkage=0.05


Tree=50
num_leaves=17
num_cat=7
split_feature=64 69 65 59 65 65 6 59 65 59 68 65 65 49 68 21
split_gain=64.3459 9.85083 19.8534 11.7493 8.91073 3.83216 2.47972 7.54525 2.97772 1.96055 1.6924 3.47654 2.8345 1.45744 0.860032 0.663985
threshold=0 3.5000000000000004 1 7.4859642982482919 2 3 134.77531433105472 17.030461311340336 4 15.435712337493898 2020.5000000000002 5 6 50.952903747558601 2020.5000000000002 88.047840118408217
decision_type=9 2 1 2 1 1 2 2 1 2 2 1 1 2 2 2
left_child=1 2 -1 -3 6 -6 7 8 -5 -10 11 -7 -12 -14 -4 -13
right_child=-2 3 14 4 5 10 -8 -9 9 -11 12 15 13 -15 -16 -17
leaf_value=-0.42058378734266033 -0.82106260404809339 -1.6289690025051571 1.736723257580195 -0.60994839244565857 1.0480932709984543 -0.073430279907597651 0.05150602437130445 -0.74370070457194337 -0.048541626351919123 0.50855402030125063 0.17780875348312081 0.5045868989373673 0.010795242268410733 -0.68688759071108696 0.77659757487385128 1.1025935159249529
leaf_weight=104 189 171 113 118 130 111 172 106 128 100 124 155 174 100 119 100
leaf_count=104 189 171 113 118 130 111 172 106 128 100 124 155 174 100 119 100
internal_value=-0.00126468 0.00140049 0.00922619 -0.000148017 0.00125165 0.00442478 -0.0033123 -0.00530973 -0.0017341 0.00168067 0.00297158 0.00546448 0.000753769 -0.00211268 0.0169421 0.00849057
internal_weight=2214 2025 336 1689 1518 894 624 452 346 228 764 366 398 274 232 255
internal_count=2214 2025 336 1689 1518 894 624 452 346 228 764 366 398 274 232 255
cat_boundaries=0 1 2 3 4 5 6 7
cat_threshold=32 541632288 3665897564 537003008 8396820 85983361 2654721
is_linear=0
shrinkage=0.05


Tree=51
num_leaves=15
num_cat=5
split_feature=64 66 58 68 45 56 59 66 49 66 66 59 69 22
split_gain=57.348 8.53136 5.95928 8.17929 5.8236 9.9278 5.50608 6.67633 5.42777 4.93194 4.4813 3.47686 3.24619 0.749491
threshold=0 1 91.028255462646499 2020.5000000000002 89.902679443359389 83.184604644775405 17.720618247985843 2 44.554573059082038 3 4 16.824226379394535 8.5000000000000018 125.66731262207033
decision_type=9 1 2 2 2 2 2 1 2 1 1 2 2 2
left_child=1 2 10 -4 6 -6 7 13 12 -7 -1 -10 -9 -3
right_child=-2 4 3 -5 5 9 -8 8 11 -11 -12 -13 -14 -15
leaf_value=0.66119732324394898 -0.78000947384568875 -0.61327613398806591 1.1256787657451675 0.069843246099573972 0.87120154048348164 -0.5620251851469874 -0.79279807494893362 0.15634918637119599 0.47019875092682428 0.43935709685056001 -0.44207800785121293 -0.043818824496300125 -0.75822913775270284 -0.30242055793219152
leaf_weight=112 192 100 156 160 187 105 109 131 194 143 194 112 185 131
leaf_count=112 192 100 156 160 187 105 109 131 194 143 194 112 185 131
internal_value=-0.00183175 0.000714638 0.00553797 0.010443 -0.001457 0.00333333 -0.00363825 -0.00228605 0.000474684 -0.00322581 0.000653595 0.00522876 -0.00411392 -0.0093361
internal_weight=2211 2019 622 316 1397 435 962 853 622 248 306 306 316 231
internal_count=2211 2019 622 316 1397 435 962 853 622 248 306 306 316 231
cat_boundaries=0 1 2 3 4 5
cat_threshold=32 1628206081 2160132108 304154932 17040385
is_linear=0
shrinkage=0.05


Tree=52
num_leaves=17
num_cat=8
split_feature=64 66 65 65 68 3 66 66 69 65 21 67 6 6 65 49
split_gain=63.6148 11.4533 11.4674 10.4154 8.76867 7.4346 9.56833 5.72109 6.18455 5.31983 5.03768 3.79388 3.09183 2.69827 2.26911 1.65289
threshold=0 1 2 3 2019.5000000000002 123.97811889648439 4 5 5.5000000000000009 6 73.171550750732436 1.0000000180025095e-35 126.14380645751955 116.87661361694337 7 49.185762405395515
decision_type=9 1 1 1 2 2 1 1 2 1 2 2 2 2 1 2
left_child=1 3 5 11 -4 6 -3 15 -9 10 -8 -1 -10 -5 -7 -6
right_child=-2 2 4 13 7 14 9 8 12 -11 -12 -13 -14 -15 -16 -17
leaf_value=-0.17089194793983681 -0.74100900015340432 1.0266832878052305 0.43729842597571467 -0.40241187261565375 0.6999603026150738 1.3450709219808319 0.84470641426544546 0.11359703802363229 -1.2802562410629719 -0.83735126950238348 -0.073033858572005533 0.45585736539800198 -0.32967555502545243 -0.75037926513327735 0.58683588461629055 -0.23739673057023936
leaf_weight=108 195 103 177 132 121 112 119 104 128 177 110 111 108 147 126 121
leaf_count=108 195 103 177 132 121 112 119 104 128 177 110 111 108 147 126 121
internal_value=-0.00152342 0.00119166 0.00336412 -0.00531496 -0.000975293 0.00772787 0.00442043 -0.00395189 -0.008 0.000721154 0.00564854 0.00283843 -0.0127119 -0.0115917 0.0151261 0.00198413
internal_weight=2199 2004 1506 498 759 747 509 582 340 406 229 219 236 279 238 242
internal_count=2199 2004 1506 498 759 747 509 582 340 406 229 219 236 279 238 242
cat_boundaries=0 1 2 3 4 5 6 7 8
cat_threshold=32 302125354 3072791083 744000849 15990784 84984916 2451702305 67436554
is_linear=0
shrinkage=0.05


Tree=53
num_leaves=17
num_cat=6
split_feature=64 65 51 68 65 65 58 65 65 45 49 37 40 27 69 27
split_gain=48.2584 7.89582 5.19663 4.5974 5.93972 4.59574 4.29766 5.73176 3.99483 4.97102 3.47134 3.40365 1.78553 1.11644 1.11287 1.08504
threshold=0 1 43.673723220825202 2020.5000000000002 2 3 98.072841644287124 4 5 68.493061065673842 53.21557807922364 80.60330963134767 72.592369079589858 82.208671569824233 10.500000000000002 81.309532165527358
decision_type=9 1 2 2 1 1 2 1 1 2 2 2 2 2 2 2
left_child=1 2 8 5 15 13 7 -4 -1 -10 -7 -8 -6 -3 -14 -5
right_child=-2 3 6 4 12 10 11 -9 9 -11 -12 -13 14 -15 -16 -17
leaf_value=-1.2451058171870222 -0.70395855014573405 -0.010918978025827641 -0.066678957947456041 0.4974574983480764 -1.4139342780272361 1.2192534838698066 -0.36953265783158856 0.62907606753962431 0.16411539329213981 -0.42986614801390532 0.53712746258444644 0.13390463771042677 0.33986617763065968 0.33438106106705734 -0.082508613559024016 0.061420966089286821
leaf_weight=116 186 137 116 136 110 159 115 117 167 100 126 164 107 117 100 117
leaf_count=116 186 137 116 136 110 159 115 117 167 100 126 164 107 117 100 117
internal_value=-0.0013242 0.000993049 -0.00248619 0.00379803 0.000701754 0.00714286 0.00078125 0.00579399 -0.00691906 -0.00306859 0.0113559 -0.00340502 -0.00382263 0.00189394 -0.00120773 0.00627376
internal_weight=2190 2004 895 1109 570 539 512 233 383 267 285 279 317 254 207 253
internal_count=2190 2004 895 1109 570 539 512 233 383 267 285 279 317 254 207 253
cat_boundaries=0 1 2 3 4 5 6
cat_threshold=32 3270069332 218137473 754975113 3254780948 1080035328
is_linear=0
shrinkage=0.05


end of trees

feature_importances:
opponent=219
posteam=190
week=86
passE_59=58
position=50
season=35
passE_31=22
passE_49=22
home_indicator=20
passE_45=15
passE_58=14
passE_29=13
passE_15=11
passE_39=11
history_length=11
passE_37=9
passE_51=9
passE_56=9
passE_63=9
passE_48=8
passE_43=7
passE_47=7
passE_2=6
passE_6=6
passE_3=5
passE_21=5
passE_27=5
passE_8=4
passE_40=4
passE_11=3
passE_13=3
passE_52=3
passE_18=2
passE_22=2
passE_44=2
passE_24=1
passE_57=1
passE_62=1

parameters:
[boosting: gbdt]
[objective: regression_l1]
[metric: l1,l2]
[tree_learner: serial]
[device_type: cpu]
[data_sample_strategy: bagging]
[data: ]
[valid: ]
[num_iterations: 5000]
[learning_rate: 0.05]
[num_leaves: 127]
[num_threads: 0]
[seed: 42]
[deterministic: 0]
[force_col_wise: 0]
[force_row_wise: 0]
[histogram_pool_size: -1]
[max_depth: -1]
[min_data_in_leaf: 100]
[min_sum_hessian_in_leaf: 0.001]
[bagging_fraction: 0.8]
[pos_bagging_fraction: 1]
[neg_bagging_fraction: 1]
[bagging_freq: 1]
[bagging_seed: 400]
[bagging_by_query: 0]
[feature_fraction: 0.9]
[feature_fraction_bynode: 1]
[feature_fraction_seed: 30056]
[extra_trees: 0]
[extra_seed: 12879]
[early_stopping_round: 0]
[early_stopping_min_delta: 0]
[first_metric_only: 0]
[max_delta_step: 0]
[lambda_l1: 0]
[lambda_l2: 0]
[linear_lambda: 0]
[min_gain_to_split: 0]
[drop_rate: 0.1]
[max_drop: 50]
[skip_drop: 0.5]
[xgboost_dart_mode: 0]
[uniform_drop: 0]
[drop_seed: 17869]
[top_rate: 0.2]
[other_rate: 0.1]
[min_data_per_group: 100]
[max_cat_threshold: 32]
[cat_l2: 10]
[cat_smooth: 10]
[max_cat_to_onehot: 4]
[top_k: 20]
[monotone_constraints: ]
[monotone_constraints_method: basic]
[monotone_penalty: 0]
[feature_contri: ]
[forcedsplits_filename: ]
[refit_decay_rate: 0.9]
[cegb_tradeoff: 1]
[cegb_penalty_split: 0]
[cegb_penalty_feature_lazy: ]
[cegb_penalty_feature_coupled: ]
[path_smooth: 0]
[interaction_constraints: ]
[verbosity: -1]
[saved_feature_importance_type: 0]
[use_quantized_grad: 0]
[num_grad_quant_bins: 4]
[quant_train_renew_leaf: 0]
[stochastic_rounding: 1]
[linear_tree: 0]
[max_bin: 255]
[max_bin_by_feature: ]
[min_data_in_bin: 3]
[bin_construct_sample_cnt: 200000]
[data_random_seed: 175]
[is_enable_sparse: 1]
[enable_bundle: 1]
[use_missing: 1]
[zero_as_missing: 0]
[feature_pre_filter: 1]
[pre_partition: 0]
[two_round: 0]
[header: 0]
[label_column: ]
[weight_column: ]
[group_column: ]
[ignore_column: ]
[categorical_feature: 64,65,66]
[forcedbins_filename: ]
[precise_float_parser: 0]
[parser_config_file: ]
[objective_seed: 16083]
[num_class: 1]
[is_unbalance: 0]
[scale_pos_weight: 1]
[sigmoid: 1]
[boost_from_average: 1]
[reg_sqrt: 0]
[alpha: 0.9]
[fair_c: 1]
[poisson_max_delta_step: 0.7]
[tweedie_variance_power: 1.5]
[lambdarank_truncation_level: 30]
[lambdarank_norm: 1]
[label_gain: ]
[lambdarank_position_bias_regularization: 0]
[eval_at: ]
[multi_error_top_k: 1]
[auc_mu_weights: ]
[num_machines: 1]
[local_listen_port: 12400]
[time_out: 120]
[machine_list_filename: ]
[machines: ]
[gpu_platform_id: -1]
[gpu_device_id: -1]
[gpu_use_dp: 0]
[num_gpu: 1]

end of parameters

pandas_categorical:[["DB", "K", "LB", "OL", "P", "QB", "RB", "TE", "WR"], ["ARI", "ATL", "BAL", "BUF", "CAR", "CHI", "CIN", "CLE", "DAL", "DEN", "DET", "GB", "HOU", "IND", "JAX", "KC", "LA", "LAC", "LV", "MIA", "MIN", "NE", "NO", "NYG", "NYJ", "PHI", "PIT", "SEA", "SF", "TB", "TEN", "WAS"], ["ARI", "ATL", "BAL", "BUF", "CAR", "CHI", "CIN", "CLE", "DAL", "DEN", "DET", "GB", "HOU", "IND", "JAX", "KC", "LA", "LAC", "LV", "MIA", "MIN", "NE", "NO", "NYG", "NYJ", "PHI", "PIT", "SEA", "SF", "TB", "TEN", "WAS"]]
